
(function() {
    window.XGB_MODELS = window.XGB_MODELS || {};
    window.XGB_MODELS['pipeline_Occitanie_50-70m2'] = {"model_name": "pipeline_Occitanie_50-70m2", "feature_order": {"numerical": ["surface_habitable_logement", "annee_construction", "hauteur_sous_plafond", "ubat_w_par_m2_k", "besoin_chauffage", "apport_solaire_saison_chauffe"], "categorical": ["type_batiment", "zone_climatique", "classe_altitude", "chauffage_simplifie", "logement_traversant_clean", "isolation_toiture_clean", "qualite_isolation_enveloppe", "periode_construction", "qualite_isolation_murs", "qualite_isolation_menuiseries", "type_emetteur_installation_chauffage_n1"]}, "scaler": {"mean": [60.596779135509756, 1975.9281453569085, 2.56024256793726, 0.9446267554258616, 17226.007995622836, 1860362.5233731535], "scale": [5.717220773431468, 37.30288403640989, 2.029698399559924, 0.5732809065717106, 59821.030731420695, 12212699.98310325]}, "ohe_categories": {"0": ["appartement", "immeuble", "maison"], "1": ["H1a", "H1b", "H1c", "H2a", "H2b", "H2c", "H2d", "H3", "Non affect\u00e9", "nan"], "2": ["400-800m", "Non affect\u00e9", "inf\u00e9rieur \u00e0 400m", "sup\u00e9rieur \u00e0 800m", "nan"], "3": ["Inconnu"], "4": ["Inconnu", "Non", "Oui"], "5": ["Inconnu", "Isol\u00e9", "Non Isol\u00e9"], "6": ["bonne", "insuffisante", "moyenne", "tr\u00e8s bonne"], "7": ["1948-1974", "1975-1977", "1978-1982", "1983-1988", "1989-2000", "2001-2005", "2006-2012", "2013-2021", "apr\u00e8s 2021", "avant 1948"], "8": ["bonne", "insuffisante", "moyenne", "tr\u00e8s bonne", "nan"], "9": ["bonne", "insuffisante", "moyenne", "tr\u00e8s bonne"], "10": ["Autres \u00e9metteurs \u00e0 effet joule", "Autres \u00e9quipements", "Convecteur bi-jonction", "Convecteur \u00e9lectrique NFC, NF** et NF***", "Panneau rayonnant NFC, NF** et NF***", "Plafond chauffant sur r\u00e9seau individuel eau chaude basse ou moyenne temp\u00e9rature(inf 65\u00b0C)", "Plafond chauffant sur r\u00e9seau individuel eau chaude haute temp\u00e9rature(sup ou egal 65\u00b0C)", "Plafond rayonnant \u00e9lectrique avec r\u00e9gulation terminale", "Plafond rayonnant \u00e9lectrique sans r\u00e9gulation", "Plancher chauffant sur r\u00e9seau collectif eau chaude basse ou moyenne temp\u00e9rature(inf 65\u00b0C)", "Plancher chauffant sur r\u00e9seau collectif eau chaude haute temp\u00e9rature(sup ou egal 65\u00b0C)", "Plancher chauffant sur r\u00e9seau individuel eau chaude basse ou moyenne temp\u00e9rature(inf 65\u00b0C)", "Plancher chauffant sur r\u00e9seau individuel eau chaude haute temp\u00e9rature(sup ou egal 65\u00b0C)", "Plancher rayonnant \u00e9lectrique avec r\u00e9gulation terminale", "Plancher rayonnant \u00e9lectrique sans r\u00e9gulation", "Po\u00eale bois", "Po\u00eale charbon", "Po\u00eale fioul", "Radiateur avec distribution par fluide frigorig\u00e8ne (\u00e0 d\u00e9tente directe)", "Radiateur bitube avec robinet thermostatique sur r\u00e9seau collectif eau chaude basse ou moyenne temp\u00e9rature(inf 65\u00b0C)", "Radiateur bitube avec robinet thermostatique sur r\u00e9seau collectif eau chaude haute temp\u00e9rature(sup ou egal 65\u00b0C)", "Radiateur bitube avec robinet thermostatique sur r\u00e9seau individuel eau chaude basse ou moyenne temp\u00e9rature(inf 65\u00b0C)", "Radiateur bitube avec robinet thermostatique sur r\u00e9seau individuel eau chaude haute temp\u00e9rature(sup ou egal 65\u00b0C)", "Radiateur bitube sans robinet thermostatique sur r\u00e9seau collectif eau chaude basse ou moyenne temp\u00e9rature(inf 65\u00b0C)", "Radiateur bitube sans robinet thermostatique sur r\u00e9seau collectif eau chaude haute temp\u00e9rature(sup ou egal 65\u00b0C)", "Radiateur bitube sans robinet thermostatique sur r\u00e9seau individuel eau chaude basse ou moyenne temp\u00e9rature(inf 65\u00b0C)", "Radiateur bitube sans robinet thermostatique sur r\u00e9seau individuel eau chaude haute temp\u00e9rature(sup ou egal 65\u00b0C)", "Radiateur gaz \u00e0 ventouse ou sur conduit de fum\u00e9e", "Radiateur monotube avec robinet thermostatique sur r\u00e9seau collectif eau chaude basse ou moyenne temp\u00e9rature(inf 65\u00b0C)", "Radiateur monotube avec robinet thermostatique sur r\u00e9seau collectif eau chaude haute temp\u00e9rature(sup ou egal 65\u00b0C)", "Radiateur monotube avec robinet thermostatique sur r\u00e9seau individuel eau chaude basse ou moyenne temp\u00e9rature(inf 65\u00b0C)", "Radiateur monotube avec robinet thermostatique sur r\u00e9seau individuel eau chaude haute temp\u00e9rature(sup ou egal 65\u00b0C)", "Radiateur monotube sans robinet thermostatique sur r\u00e9seau collectif eau chaude basse ou moyenne temp\u00e9rature(inf 65\u00b0C)", "Radiateur monotube sans robinet thermostatique sur r\u00e9seau collectif eau chaude haute temp\u00e9rature(sup ou egal 65\u00b0C)", "Radiateur monotube sans robinet thermostatique sur r\u00e9seau individuel eau chaude basse ou moyenne temp\u00e9rature(inf 65\u00b0C)", "Radiateur monotube sans robinet thermostatique sur r\u00e9seau individuel eau chaude haute temp\u00e9rature(sup ou egal 65\u00b0C)", "Radiateur \u00e9lectrique \u00e0 accumulation", "Soufflage d'air chaud (Ventiloconvecteur) sur r\u00e9seau collectif eau chaude basse ou moyenne temp\u00e9rature(inf 65\u00b0C)", "Soufflage d'air chaud (Ventiloconvecteur) sur r\u00e9seau individuel eau chaude basse ou moyenne temp\u00e9rature(inf 65\u00b0C)", "Soufflage d'air chaud (air souffl\u00e9) avec distribution par fluide frigorig\u00e8ne", "Soufflage d'air chaud (air souffl\u00e9) avec distribution par r\u00e9seau a\u00e9raulique", "Soufflage d'air chaud sans r\u00e9seau de distribution (ventiloconvecteur \u00e9l\u00e9ctrique)", "radiateur \u00e9lectrique NFC, NF** et NF***", "nan"]}, "xgboost": {"learner": {"attributes": {}, "feature_names": [], "feature_types": [], "gradient_booster": {"model": {"cats": {"enc": [], "feature_segments": [], "sorted_idx": []}, "gbtree_model_param": {"num_parallel_tree": "1", "num_trees": "100"}, "iteration_indptr": [0, 1, 2, 3, 4, 5, 6, 7, 8, 9, 10, 11, 12, 13, 14, 15, 16, 17, 18, 19, 20, 21, 22, 23, 24, 25, 26, 27, 28, 29, 30, 31, 32, 33, 34, 35, 36, 37, 38, 39, 40, 41, 42, 43, 44, 45, 46, 47, 48, 49, 50, 51, 52, 53, 54, 55, 56, 57, 58, 59, 60, 61, 62, 63, 64, 65, 66, 67, 68, 69, 70, 71, 72, 73, 74, 75, 76, 77, 78, 79, 80, 81, 82, 83, 84, 85, 86, 87, 88, 89, 90, 91, 92, 93, 94, 95, 96, 97, 98, 99, 100], "tree_info": [0, 0, 0, 0, 0, 0, 0, 0, 0, 0, 0, 0, 0, 0, 0, 0, 0, 0, 0, 0, 0, 0, 0, 0, 0, 0, 0, 0, 0, 0, 0, 0, 0, 0, 0, 0, 0, 0, 0, 0, 0, 0, 0, 0, 0, 0, 0, 0, 0, 0, 0, 0, 0, 0, 0, 0, 0, 0, 0, 0, 0, 0, 0, 0, 0, 0, 0, 0, 0, 0, 0, 0, 0, 0, 0, 0, 0, 0, 0, 0, 0, 0, 0, 0, 0, 0, 0, 0, 0, 0, 0, 0, 0, 0, 0, 0, 0, 0, 0, 0], "trees": [{"base_weights": [0.00043496085, -2410.6377, 2820.29, -3819.6904, -1260.8259, 728.7426, 4935.3647, -5645.7295, -3469.5454, -4026.3894, -1073.1241, 2407.394, -2339.3088, 2484.071, 7312.101, -6322.3286, -4985.259, -4310.5337, -2948.478, -4810.4644, -3869.4224, -1775.7565, -367.46567, 1416.634, 4487.947, -2486.7583, 15214.784, -2292.4612, 2868.4797, 9071.597, 2164.5027, -7041.2803, -6082.3184, -4756.1157, -5768.044, -6594.684, -4207.872, -4787.097, -2841.7427, -4648.8086, -550.43317, -3234.634, -4075.1213, -3729.9536, -1641.5529, -2891.3882, -183.98206, -2773.1685, 1727.9316, 299.93478, 5401.7485, -5139.3325, -1984.2246, 4780.0728, 16052.874, -2819.375, -1591.6514, 1781.7417, 4211.222, 7133.2827, 14935.24, 4542.306, 368.11194, -555.64215, -710.49194, -600.42084, -747.8671, -511.2378, -425.63654, -438.64825, -604.1699, -598.75214, -693.742, -490.0703, -395.8232, -634.3452, -466.99274, -424.64877, -274.96463, -38.2041, -466.2584, -350.36908, -243.46822, -436.80038, -377.55295, -360.28287, -541.0394, -365.89645, -153.38367, -283.98364, -436.4383, -64.384445, 18.673002, -311.7481, -244.18184, -173.31181, 199.70886, 502.85767, -344.0799, 439.41708, 874.9954, -270.85294, -531.9591, -201.60507, 1516.6239, -28.714111, 567.2465, 291.44946, 1681.6552, -299.59778, -248.13951, -194.00623, -109.810074, -164.37256, 198.00798, -47.389565, 451.2173, -23.122766, 789.5125, 1218.4891, 2029.6768, 623.5177, 232.96489, 23.859716, 4818.906], "categories": [], "categories_nodes": [], "categories_segments": [], "categories_sizes": [], "default_left": [0, 0, 0, 0, 0, 0, 0, 0, 0, 0, 0, 0, 0, 0, 0, 0, 0, 0, 0, 1, 0, 0, 0, 0, 0, 0, 0, 0, 0, 0, 0, 0, 0, 0, 0, 1, 0, 0, 0, 0, 0, 0, 0, 1, 0, 1, 0, 0, 0, 0, 0, 0, 0, 0, 0, 0, 0, 0, 0, 0, 0, 0, 0, 0, 0, 0, 0, 0, 0, 0, 0, 0, 0, 0, 0, 0, 0, 0, 0, 0, 0, 0, 0, 0, 0, 0, 0, 0, 0, 0, 0, 0, 0, 0, 0, 0, 0, 0, 0, 0, 0, 0, 0, 0, 0, 0, 0, 0, 0, 0, 0, 0, 0, 0, 0, 0, 0, 0, 0, 0, 0, 0, 0, 0, 0], "id": 0, "left_children": [1, 3, 5, 7, 9, 11, 13, 15, 17, 19, 21, 23, 25, 27, 29, 31, 33, 35, 37, 39, 41, 43, 45, 47, 49, 51, 53, 55, 57, 59, 61, 63, 65, 67, 69, 71, 73, 75, 77, 79, -1, 81, 83, 85, 87, 89, 91, 93, 95, 97, 99, 101, 103, 105, 107, 109, 111, 113, 115, 117, 119, 121, 123, -1, -1, -1, -1, -1, -1, -1, -1, -1, -1, -1, -1, -1, -1, -1, -1, -1, -1, -1, -1, -1, -1, -1, -1, -1, -1, -1, -1, -1, -1, -1, -1, -1, -1, -1, -1, -1, -1, -1, -1, -1, -1, -1, -1, -1, -1, -1, -1, -1, -1, -1, -1, -1, -1, -1, -1, -1, -1, -1, -1, -1, -1], "loss_changes": [745558800000.0, 95786300000.0, 223560960000.0, 16966779000.0, 16897085000.0, 130877080000.0, 146373670000.0, 1877966800.0, 9757180000.0, 236023800.0, 15117345000.0, 33850966000.0, 23299277000.0, 22721470000.0, 115522800000.0, 320757760.0, 361263100.0, 1971798000.0, 2688499700.0, 12660224.0, 212584450.0, 4000694300.0, 7045047300.0, 14518770000.0, 20273890000.0, 11870900000.0, 579156000.0, 335976450.0, 16700449000.0, 107946050000.0, 13884859000.0, 9754624.0, 128192510.0, 277708800.0, 157241340.0, 34417664.0, 1392459800.0, 107874300.0, 1672224800.0, 14852608.0, 0.0, 83589120.0, 97753090.0, 190074880.0, 3101458400.0, 65895424.0, 2418159400.0, 80235010.0, 9653549000.0, 16821462000.0, 14633247000.0, 607363100.0, 4121579500.0, 33282400.0, 643299300.0, 23901952.0, 66309056.0, 4303862000.0, 7222690000.0, 40100725000.0, 34568210000.0, 5225765000.0, 11465093000.0, 0.0, 0.0, 0.0, 0.0, 0.0, 0.0, 0.0, 0.0, 0.0, 0.0, 0.0, 0.0, 0.0, 0.0, 0.0, 0.0, 0.0, 0.0, 0.0, 0.0, 0.0, 0.0, 0.0, 0.0, 0.0, 0.0, 0.0, 0.0, 0.0, 0.0, 0.0, 0.0, 0.0, 0.0, 0.0, 0.0, 0.0, 0.0, 0.0, 0.0, 0.0, 0.0, 0.0, 0.0, 0.0, 0.0, 0.0, 0.0, 0.0, 0.0, 0.0, 0.0, 0.0, 0.0, 0.0, 0.0, 0.0, 0.0, 0.0, 0.0, 0.0, 0.0], "parents": [2147483647, 0, 0, 1, 1, 2, 2, 3, 3, 4, 4, 5, 5, 6, 6, 7, 7, 8, 8, 9, 9, 10, 10, 11, 11, 12, 12, 13, 13, 14, 14, 15, 15, 16, 16, 17, 17, 18, 18, 19, 19, 20, 20, 21, 21, 22, 22, 23, 23, 24, 24, 25, 25, 26, 26, 27, 27, 28, 28, 29, 29, 30, 30, 31, 31, 32, 32, 33, 33, 34, 34, 35, 35, 36, 36, 37, 37, 38, 38, 39, 39, 41, 41, 42, 42, 43, 43, 44, 44, 45, 45, 46, 46, 47, 47, 48, 48, 49, 49, 50, 50, 51, 51, 52, 52, 53, 53, 54, 54, 55, 55, 56, 56, 57, 57, 58, 58, 59, 59, 60, 60, 61, 61, 62, 62], "right_children": [2, 4, 6, 8, 10, 12, 14, 16, 18, 20, 22, 24, 26, 28, 30, 32, 34, 36, 38, 40, 42, 44, 46, 48, 50, 52, 54, 56, 58, 60, 62, 64, 66, 68, 70, 72, 74, 76, 78, 80, -1, 82, 84, 86, 88, 90, 92, 94, 96, 98, 100, 102, 104, 106, 108, 110, 112, 114, 116, 118, 120, 122, 124, -1, -1, -1, -1, -1, -1, -1, -1, -1, -1, -1, -1, -1, -1, -1, -1, -1, -1, -1, -1, -1, -1, -1, -1, -1, -1, -1, -1, -1, -1, -1, -1, -1, -1, -1, -1, -1, -1, -1, -1, -1, -1, -1, -1, -1, -1, -1, -1, -1, -1, -1, -1, -1, -1, -1, -1, -1, -1, -1, -1, -1, -1], "split_conditions": [-0.21566509, -0.24936228, 0.14892045, 2.00001, 2.00001, -0.055614356, -0.14875384, -0.26583475, -0.26270542, 2.00001, -0.23502785, -0.1776584, 2.00001, 2.00001, 0.29055655, -0.2761672, 2.00001, 2.00001, 2.00001, 1.0742294, 2.00001, 2.00001, 2.00001, 2.00001, 2.00001, 2.00001, 2.00001, -0.1776584, -0.18225543, -0.055614356, 2.00001, 2.00001, 2.00001, -0.25823206, 1.0474218, 1.0474218, -0.2718761, 2.00001, 2.00001, 2.00001, -550.43317, -0.22574015, -0.23384264, 0.99380666, 2.00001, 1.0206143, -0.22728643, -0.20164494, 2.00001, 0.4308475, -0.13441941, 2.00001, 2.00001, -0.6883654, 2.00001, -0.19078755, -0.16164897, 2.00001, 2.00001, 2.00001, 2.00001, 2.2246916, 2.00001, -555.64215, -710.49194, -600.42084, -747.8671, -511.2378, -425.63654, -438.64825, -604.1699, -598.75214, -693.742, -490.0703, -395.8232, -634.3452, -466.99274, -424.64877, -274.96463, -38.2041, -466.2584, -350.36908, -243.46822, -436.80038, -377.55295, -360.28287, -541.0394, -365.89645, -153.38367, -283.98364, -436.4383, -64.384445, 18.673002, -311.7481, -244.18184, -173.31181, 199.70886, 502.85767, -344.0799, 439.41708, 874.9954, -270.85294, -531.9591, -201.60507, 1516.6239, -28.714111, 567.2465, 291.44946, 1681.6552, -299.59778, -248.13951, -194.00623, -109.810074, -164.37256, 198.00798, -47.389565, 451.2173, -23.122766, 789.5125, 1218.4891, 2029.6768, 623.5177, 232.96489, 23.859716, 4818.906], "split_indices": [4, 4, 3, 42, 93, 4, 4, 4, 4, 48, 4, 4, 25, 93, 4, 4, 6, 43, 93, 1, 14, 94, 94, 93, 25, 42, 16, 4, 4, 4, 68, 94, 6, 4, 1, 1, 4, 43, 94, 25, 0, 4, 4, 1, 42, 1, 4, 4, 94, 1, 4, 57, 6, 3, 94, 4, 4, 94, 94, 93, 21, 3, 6, 0, 0, 0, 0, 0, 0, 0, 0, 0, 0, 0, 0, 0, 0, 0, 0, 0, 0, 0, 0, 0, 0, 0, 0, 0, 0, 0, 0, 0, 0, 0, 0, 0, 0, 0, 0, 0, 0, 0, 0, 0, 0, 0, 0, 0, 0, 0, 0, 0, 0, 0, 0, 0, 0, 0, 0, 0, 0, 0, 0, 0, 0], "split_type": [0, 0, 0, 0, 0, 0, 0, 0, 0, 0, 0, 0, 0, 0, 0, 0, 0, 0, 0, 0, 0, 0, 0, 0, 0, 0, 0, 0, 0, 0, 0, 0, 0, 0, 0, 0, 0, 0, 0, 0, 0, 0, 0, 0, 0, 0, 0, 0, 0, 0, 0, 0, 0, 0, 0, 0, 0, 0, 0, 0, 0, 0, 0, 0, 0, 0, 0, 0, 0, 0, 0, 0, 0, 0, 0, 0, 0, 0, 0, 0, 0, 0, 0, 0, 0, 0, 0, 0, 0, 0, 0, 0, 0, 0, 0, 0, 0, 0, 0, 0, 0, 0, 0, 0, 0, 0, 0, 0, 0, 0, 0, 0, 0, 0, 0, 0, 0, 0, 0, 0, 0, 0, 0, 0, 0], "sum_hessian": [109660.0, 59124.0, 50536.0, 26566.0, 32558.0, 25410.0, 25126.0, 4272.0, 22294.0, 2068.0, 30490.0, 16424.0, 8986.0, 12370.0, 12756.0, 2106.0, 2166.0, 8526.0, 13768.0, 340.0, 1728.0, 15277.0, 15213.0, 11127.0, 5297.0, 8912.0, 74.0, 921.0, 11449.0, 9506.0, 3250.0, 520.0, 1586.0, 1681.0, 485.0, 364.0, 8162.0, 753.0, 13015.0, 282.0, 58.0, 427.0, 1301.0, 980.0, 14297.0, 1030.0, 14183.0, 769.0, 10358.0, 949.0, 4348.0, 1418.0, 7494.0, 6.0, 68.0, 524.0, 397.0, 6329.0, 5120.0, 7146.0, 2360.0, 1398.0, 1852.0, 25.0, 495.0, 1507.0, 79.0, 976.0, 705.0, 83.0, 402.0, 138.0, 226.0, 2157.0, 6005.0, 49.0, 704.0, 798.0, 12217.0, 1.0, 281.0, 317.0, 110.0, 651.0, 650.0, 914.0, 66.0, 723.0, 13574.0, 998.0, 32.0, 6330.0, 7853.0, 373.0, 396.0, 747.0, 9611.0, 419.0, 530.0, 3344.0, 1004.0, 99.0, 1319.0, 7481.0, 13.0, 1.0, 5.0, 4.0, 64.0, 339.0, 185.0, 231.0, 166.0, 346.0, 5983.0, 309.0, 4811.0, 670.0, 6476.0, 1562.0, 798.0, 791.0, 607.0, 1848.0, 4.0], "tree_param": {"num_deleted": "0", "num_feature": "98", "num_nodes": "125", "size_leaf_vector": "1"}}, {"base_weights": [0.0009243286, -2138.936, 2577.262, -3317.8477, -992.0107, 668.68225, 4479.761, -4405.682, -2809.148, -3545.6287, -818.1552, -1704.4675, 2513.4739, 2458.5735, 6820.728, -5626.0347, -4000.7483, -4385.634, -2622.6323, -4248.7554, -3408.4463, -1338.0828, -107.70702, -176.39236, -2800.4785, 1772.889, 6794.3438, -1955.1602, 2822.1653, 8730.082, 1949.8057, -6069.199, -5271.3354, -6035.313, -3901.8496, -4113.6616, -5147.681, -4330.314, -2520.389, -4095.853, -4746.743, -2825.6772, -3604.0564, -3186.8809, -1209.284, -2466.185, 63.380623, 2298.7283, -1293.1876, -4736.316, -2120.5593, -2421.9456, 2111.451, 5791.4697, 10516.535, -2512.205, -1349.789, 1707.5222, 4068.6284, 7177.1953, 14692.533, 4088.688, 333.91455, -666.39716, -591.6071, -451.3697, -538.4275, -644.28754, -561.8567, -441.086, -366.1687, -448.46603, -373.41043, -389.65494, -536.83215, -570.4891, -423.80762, -289.0039, -215.21788, -36.293896, -410.9608, -478.00235, -127.511696, -314.00565, -229.3059, -387.8042, -338.72064, -308.52658, -468.43732, -309.69217, -112.21433, -185.35478, -258.11438, -310.57413, 10.781255, 129.93468, 386.08517, -138.06773, 1236.7384, -235.447, -491.73917, -527.64514, -194.21037, -210.43819, -270.63718, 136.92252, 353.65396, -90.04406, 623.55536, 52.5162, 1097.0519, -281.23853, -231.51306, -172.74544, -105.07025, -144.87663, 189.26982, -29.952991, 437.1538, 6.680269, 792.88544, 1171.0056, 1944.0391, 561.2446, 209.70674, 21.475067, 4433.393], "categories": [], "categories_nodes": [], "categories_segments": [], "categories_sizes": [], "default_left": [0, 0, 0, 0, 0, 0, 0, 0, 0, 0, 0, 0, 0, 0, 0, 0, 0, 0, 0, 1, 0, 0, 0, 0, 0, 0, 0, 0, 0, 0, 0, 0, 0, 0, 0, 0, 0, 0, 0, 0, 0, 0, 0, 1, 0, 0, 0, 0, 0, 0, 0, 0, 0, 0, 0, 0, 0, 0, 0, 0, 0, 0, 0, 0, 0, 0, 0, 0, 0, 0, 0, 0, 0, 0, 0, 0, 0, 0, 0, 0, 0, 0, 0, 0, 0, 0, 0, 0, 0, 0, 0, 0, 0, 0, 0, 0, 0, 0, 0, 0, 0, 0, 0, 0, 0, 0, 0, 0, 0, 0, 0, 0, 0, 0, 0, 0, 0, 0, 0, 0, 0, 0, 0, 0, 0, 0, 0], "id": 1, "left_children": [1, 3, 5, 7, 9, 11, 13, 15, 17, 19, 21, 23, 25, 27, 29, 31, 33, 35, 37, 39, 41, 43, 45, 47, 49, 51, 53, 55, 57, 59, 61, 63, 65, 67, 69, 71, 73, 75, 77, 79, 81, 83, 85, 87, 89, 91, 93, 95, 97, 99, 101, 103, 105, 107, 109, 111, 113, 115, 117, 119, 121, 123, 125, -1, -1, -1, -1, -1, -1, -1, -1, -1, -1, -1, -1, -1, -1, -1, -1, -1, -1, -1, -1, -1, -1, -1, -1, -1, -1, -1, -1, -1, -1, -1, -1, -1, -1, -1, -1, -1, -1, -1, -1, -1, -1, -1, -1, -1, -1, -1, -1, -1, -1, -1, -1, -1, -1, -1, -1, -1, -1, -1, -1, -1, -1, -1, -1], "loss_changes": [604522700000.0, 81025430000.0, 180588310000.0, 16340582000.0, 13483280000.0, 108704825000.0, 117831530000.0, 4629528600.0, 5909872600.0, 172257280.0, 10505806000.0, 18187696000.0, 44277703000.0, 21458452000.0, 107308650000.0, 336314370.0, 1399447600.0, 420069380.0, 3133620200.0, 4314624.0, 175058940.0, 3906836500.0, 4850304000.0, 12544161000.0, 8313680000.0, 16921252000.0, 7628841000.0, 339898100.0, 17153049000.0, 76651690000.0, 11234744000.0, 54837250.0, 87707650.0, 19171328.0, 808640500.0, 204896260.0, 132564990.0, 104638460.0, 2306941000.0, 11139584.0, 1645952.0, 61954560.0, 58933250.0, 148214780.0, 2522271700.0, 52473344.0, 1578535300.0, 2197777000.0, 3754342400.0, 697036800.0, 2626590700.0, 74692610.0, 11653546000.0, 4834742300.0, 1971900400.0, 24783616.0, 53532670.0, 3814645800.0, 7715324000.0, 35161540000.0, 24014946000.0, 4233844700.0, 9706151000.0, 0.0, 0.0, 0.0, 0.0, 0.0, 0.0, 0.0, 0.0, 0.0, 0.0, 0.0, 0.0, 0.0, 0.0, 0.0, 0.0, 0.0, 0.0, 0.0, 0.0, 0.0, 0.0, 0.0, 0.0, 0.0, 0.0, 0.0, 0.0, 0.0, 0.0, 0.0, 0.0, 0.0, 0.0, 0.0, 0.0, 0.0, 0.0, 0.0, 0.0, 0.0, 0.0, 0.0, 0.0, 0.0, 0.0, 0.0, 0.0, 0.0, 0.0, 0.0, 0.0, 0.0, 0.0, 0.0, 0.0, 0.0, 0.0, 0.0, 0.0, 0.0, 0.0, 0.0, 0.0], "parents": [2147483647, 0, 0, 1, 1, 2, 2, 3, 3, 4, 4, 5, 5, 6, 6, 7, 7, 8, 8, 9, 9, 10, 10, 11, 11, 12, 12, 13, 13, 14, 14, 15, 15, 16, 16, 17, 17, 18, 18, 19, 19, 20, 20, 21, 21, 22, 22, 23, 23, 24, 24, 25, 25, 26, 26, 27, 27, 28, 28, 29, 29, 30, 30, 31, 31, 32, 32, 33, 33, 34, 34, 35, 35, 36, 36, 37, 37, 38, 38, 39, 39, 40, 40, 41, 41, 42, 42, 43, 43, 44, 44, 45, 45, 46, 46, 47, 47, 48, 48, 49, 49, 50, 50, 51, 51, 52, 52, 53, 53, 54, 54, 55, 55, 56, 56, 57, 57, 58, 58, 59, 59, 60, 60, 61, 61, 62, 62], "right_children": [2, 4, 6, 8, 10, 12, 14, 16, 18, 20, 22, 24, 26, 28, 30, 32, 34, 36, 38, 40, 42, 44, 46, 48, 50, 52, 54, 56, 58, 60, 62, 64, 66, 68, 70, 72, 74, 76, 78, 80, 82, 84, 86, 88, 90, 92, 94, 96, 98, 100, 102, 104, 106, 108, 110, 112, 114, 116, 118, 120, 122, 124, 126, -1, -1, -1, -1, -1, -1, -1, -1, -1, -1, -1, -1, -1, -1, -1, -1, -1, -1, -1, -1, -1, -1, -1, -1, -1, -1, -1, -1, -1, -1, -1, -1, -1, -1, -1, -1, -1, -1, -1, -1, -1, -1, -1, -1, -1, -1, -1, -1, -1, -1, -1, -1, -1, -1, -1, -1, -1, -1, -1, -1, -1, -1, -1, -1], "split_conditions": [-0.21454173, -0.24688153, 0.14892045, -0.26444894, 2.00001, 2.00001, -0.139421, 2.00001, 2.00001, 2.00001, -0.23067653, 0.85976875, -0.15446922, 2.00001, 0.29055655, -0.27265507, 2.00001, 2.00001, 2.00001, 0.96699905, 2.00001, 2.00001, 2.00001, -0.07212694, 2.00001, 2.00001, -0.10575558, -0.17629933, -0.18009399, -0.0352018, 2.00001, -0.27956903, 1.0206143, -0.27123752, -0.2718761, -0.25786096, 1.0474218, 2.00001, -0.2549339, 2.00001, -0.21752062, -0.13766308, -0.23384264, 0.99380666, 2.00001, 2.00001, 2.00001, -0.18337879, 2.00001, 2.00001, 2.00001, 2.00001, -0.1875412, 2.00001, 2.00001, -0.5941312, -0.16164897, 2.00001, 2.00001, 2.00001, 2.00001, 2.2246916, 2.00001, -666.39716, -591.6071, -451.3697, -538.4275, -644.28754, -561.8567, -441.086, -366.1687, -448.46603, -373.41043, -389.65494, -536.83215, -570.4891, -423.80762, -289.0039, -215.21788, -36.293896, -410.9608, -478.00235, -127.511696, -314.00565, -229.3059, -387.8042, -338.72064, -308.52658, -468.43732, -309.69217, -112.21433, -185.35478, -258.11438, -310.57413, 10.781255, 129.93468, 386.08517, -138.06773, 1236.7384, -235.447, -491.73917, -527.64514, -194.21037, -210.43819, -270.63718, 136.92252, 353.65396, -90.04406, 623.55536, 52.5162, 1097.0519, -281.23853, -231.51306, -172.74544, -105.07025, -144.87663, 189.26982, -29.952991, 437.1538, 6.680269, 792.88544, 1171.0056, 1944.0391, 561.2446, 209.70674, 21.475067, 4433.393], "split_indices": [4, 4, 3, 4, 93, 25, 4, 42, 42, 48, 4, 1, 4, 93, 4, 4, 43, 6, 93, 1, 14, 94, 94, 4, 42, 93, 4, 4, 4, 4, 68, 4, 1, 4, 4, 4, 1, 43, 4, 25, 4, 5, 4, 1, 42, 39, 95, 4, 6, 57, 43, 6, 4, 93, 93, 0, 4, 94, 94, 93, 21, 3, 6, 0, 0, 0, 0, 0, 0, 0, 0, 0, 0, 0, 0, 0, 0, 0, 0, 0, 0, 0, 0, 0, 0, 0, 0, 0, 0, 0, 0, 0, 0, 0, 0, 0, 0, 0, 0, 0, 0, 0, 0, 0, 0, 0, 0, 0, 0, 0, 0, 0, 0, 0, 0, 0, 0, 0, 0, 0, 0, 0, 0, 0, 0, 0, 0], "split_type": [0, 0, 0, 0, 0, 0, 0, 0, 0, 0, 0, 0, 0, 0, 0, 0, 0, 0, 0, 0, 0, 0, 0, 0, 0, 0, 0, 0, 0, 0, 0, 0, 0, 0, 0, 0, 0, 0, 0, 0, 0, 0, 0, 0, 0, 0, 0, 0, 0, 0, 0, 0, 0, 0, 0, 0, 0, 0, 0, 0, 0, 0, 0, 0, 0, 0, 0, 0, 0, 0, 0, 0, 0, 0, 0, 0, 0, 0, 0, 0, 0, 0, 0, 0, 0, 0, 0, 0, 0, 0, 0, 0, 0, 0, 0, 0, 0, 0, 0, 0, 0, 0, 0, 0, 0, 0, 0, 0, 0, 0, 0, 0, 0, 0, 0, 0, 0, 0, 0, 0, 0, 0, 0, 0, 0, 0, 0], "sum_hessian": [109660.0, 59926.0, 49734.0, 29550.0, 30376.0, 24828.0, 24906.0, 9413.0, 20137.0, 1935.0, 28441.0, 10859.0, 13969.0, 13367.0, 11539.0, 2342.0, 7071.0, 2128.0, 18009.0, 311.0, 1624.0, 16422.0, 12019.0, 4536.0, 6323.0, 11910.0, 2059.0, 1017.0, 12350.0, 8289.0, 3250.0, 1034.0, 1308.0, 325.0, 6746.0, 1573.0, 555.0, 1015.0, 16994.0, 245.0, 66.0, 412.0, 1212.0, 1068.0, 15354.0, 812.0, 11207.0, 1410.0, 3126.0, 1642.0, 4681.0, 889.0, 11021.0, 1624.0, 435.0, 528.0, 489.0, 6521.0, 5829.0, 6578.0, 1711.0, 1398.0, 1852.0, 203.0, 831.0, 175.0, 1133.0, 157.0, 168.0, 2157.0, 4589.0, 790.0, 783.0, 86.0, 469.0, 60.0, 955.0, 8477.0, 8517.0, 1.0, 244.0, 65.0, 1.0, 256.0, 156.0, 528.0, 684.0, 1003.0, 65.0, 676.0, 14678.0, 131.0, 681.0, 154.0, 11053.0, 861.0, 549.0, 3107.0, 19.0, 117.0, 1525.0, 249.0, 4432.0, 424.0, 465.0, 7248.0, 3773.0, 101.0, 1523.0, 19.0, 416.0, 204.0, 324.0, 214.0, 275.0, 361.0, 6160.0, 378.0, 5451.0, 629.0, 5949.0, 1053.0, 658.0, 791.0, 607.0, 1848.0, 4.0], "tree_param": {"num_deleted": "0", "num_feature": "98", "num_nodes": "127", "size_leaf_vector": "1"}}, {"base_weights": [-0.009453041, -2019.0188, 2214.2534, -3263.851, -1202.8691, 644.39075, 4016.452, -4675.6665, -2966.219, -1765.2938, -624.9057, 1842.0708, -1915.2842, 2260.5474, 6467.2046, -5257.0776, -4243.6265, -3691.6753, -2622.7656, -3709.305, -1638.9187, -3058.918, -457.91162, 879.11993, 3266.8228, -1978.8274, 14733.278, -1734.4319, 2589.2012, 8428.532, 1937.1893, -5719.9697, -5044.8267, -3354.0513, -4376.153, -5539.1904, -3598.6562, -4786.16, -2571.6208, -3612.8042, -494.26627, -1567.4454, -4177.0996, -3742.9172, -2942.397, -2442.8386, -315.2833, -2401.8728, 1122.7854, -4701.6846, 3645.6746, -4116.3174, -1612.5906, 129.9593, 15641.924, -2315.8118, -1185.4263, 1569.3007, 3977.5708, 7025.042, 14498.017, 3680.3704, 479.21588, -485.57516, -581.7743, -496.71042, -634.2407, -294.5988, -391.39957, -343.8314, -452.52, -394.25168, -563.1375, -417.55988, -343.7108, -336.91006, -497.15494, -288.23578, -227.87073, -389.06454, -325.65634, -307.109, -146.42667, -609.5894, -391.72137, -336.1993, -414.06345, -238.21223, -312.84244, -305.21185, -233.57426, -476.31348, -28.404694, -202.54662, -260.16037, -176.30727, 134.56773, -494.80942, 111.491455, 289.63867, 616.2824, -348.26352, -473.11667, -83.37837, -225.42125, -185.80386, 205.29776, 5.150098, 1614.318, -248.36449, -197.93976, -158.46632, -92.40154, 84.83663, 231.3857, -27.942244, 428.07568, 17.170135, 776.13184, 1156.3368, 1853.0192, 505.19107, 188.77052, 35.824627, 4078.7214], "categories": [], "categories_nodes": [], "categories_segments": [], "categories_sizes": [], "default_left": [0, 0, 0, 0, 0, 0, 0, 0, 0, 0, 0, 0, 0, 0, 0, 0, 0, 0, 0, 1, 1, 0, 0, 0, 0, 0, 0, 0, 0, 0, 0, 0, 0, 0, 0, 0, 0, 0, 0, 0, 0, 0, 0, 0, 0, 0, 0, 0, 0, 0, 0, 0, 0, 0, 0, 0, 0, 0, 0, 0, 0, 0, 0, 0, 0, 0, 0, 0, 0, 0, 0, 0, 0, 0, 0, 0, 0, 0, 0, 0, 0, 0, 0, 0, 0, 0, 0, 0, 0, 0, 0, 0, 0, 0, 0, 0, 0, 0, 0, 0, 0, 0, 0, 0, 0, 0, 0, 0, 0, 0, 0, 0, 0, 0, 0, 0, 0, 0, 0, 0, 0, 0, 0, 0, 0], "id": 2, "left_children": [1, 3, 5, 7, 9, 11, 13, 15, 17, 19, 21, 23, 25, 27, 29, 31, 33, 35, 37, 39, 41, 43, 45, 47, 49, 51, 53, 55, 57, 59, 61, 63, 65, 67, 69, 71, 73, 75, 77, 79, -1, 81, 83, 85, 87, 89, 91, 93, 95, 97, 99, 101, 103, 105, 107, 109, 111, 113, 115, 117, 119, 121, 123, -1, -1, -1, -1, -1, -1, -1, -1, -1, -1, -1, -1, -1, -1, -1, -1, -1, -1, -1, -1, -1, -1, -1, -1, -1, -1, -1, -1, -1, -1, -1, -1, -1, -1, -1, -1, -1, -1, -1, -1, -1, -1, -1, -1, -1, -1, -1, -1, -1, -1, -1, -1, -1, -1, -1, -1, -1, -1, -1, -1, -1, -1], "loss_changes": [490256860000.0, 58272070000.0, 147970440000.0, 9530589000.0, 11261284000.0, 85701310000.0, 104766110000.0, 970653700.0, 4665065500.0, 4307722000.0, 6944690700.0, 26124850000.0, 9456114000.0, 18631533000.0, 90280360000.0, 136302600.0, 253288450.0, 1015660540.0, 1396998100.0, 109613060.0, 2984755200.0, 76418050.0, 4526956500.0, 9088616000.0, 23202177000.0, 6943301600.0, 449121280.0, 341650940.0, 18556084000.0, 60311110000.0, 7805760500.0, 15773696.0, 85583870.0, 56788736.0, 260513800.0, 20042752.0, 520642560.0, 60223490.0, 1126154200.0, 86010880.0, 0.0, 2483863600.0, 201020930.0, 9713152.0, 90728960.0, 62820350.0, 2071831200.0, 53822464.0, 6807787500.0, 505726460.0, 13810811000.0, 489248770.0, 3786342400.0, 15283380.0, 249241600.0, 24613120.0, 56666944.0, 4055527400.0, 7165649000.0, 29073440000.0, 15535473000.0, 3430203400.0, 8147882500.0, 0.0, 0.0, 0.0, 0.0, 0.0, 0.0, 0.0, 0.0, 0.0, 0.0, 0.0, 0.0, 0.0, 0.0, 0.0, 0.0, 0.0, 0.0, 0.0, 0.0, 0.0, 0.0, 0.0, 0.0, 0.0, 0.0, 0.0, 0.0, 0.0, 0.0, 0.0, 0.0, 0.0, 0.0, 0.0, 0.0, 0.0, 0.0, 0.0, 0.0, 0.0, 0.0, 0.0, 0.0, 0.0, 0.0, 0.0, 0.0, 0.0, 0.0, 0.0, 0.0, 0.0, 0.0, 0.0, 0.0, 0.0, 0.0, 0.0, 0.0, 0.0, 0.0], "parents": [2147483647, 0, 0, 1, 1, 2, 2, 3, 3, 4, 4, 5, 5, 6, 6, 7, 7, 8, 8, 9, 9, 10, 10, 11, 11, 12, 12, 13, 13, 14, 14, 15, 15, 16, 16, 17, 17, 18, 18, 19, 19, 20, 20, 21, 21, 22, 22, 23, 23, 24, 24, 25, 25, 26, 26, 27, 27, 28, 28, 29, 29, 30, 30, 31, 31, 32, 32, 33, 33, 34, 34, 35, 35, 36, 36, 37, 37, 38, 38, 39, 39, 41, 41, 42, 42, 43, 43, 44, 44, 45, 45, 46, 46, 47, 47, 48, 48, 49, 49, 50, 50, 51, 51, 52, 52, 53, 53, 54, 54, 55, 55, 56, 56, 57, 57, 58, 58, 59, 59, 60, 60, 61, 61, 62, 62], "right_children": [2, 4, 6, 8, 10, 12, 14, 16, 18, 20, 22, 24, 26, 28, 30, 32, 34, 36, 38, 40, 42, 44, 46, 48, 50, 52, 54, 56, 58, 60, 62, 64, 66, 68, 70, 72, 74, 76, 78, 80, -1, 82, 84, 86, 88, 90, 92, 94, 96, 98, 100, 102, 104, 106, 108, 110, 112, 114, 116, 118, 120, 122, 124, -1, -1, -1, -1, -1, -1, -1, -1, -1, -1, -1, -1, -1, -1, -1, -1, -1, -1, -1, -1, -1, -1, -1, -1, -1, -1, -1, -1, -1, -1, -1, -1, -1, -1, -1, -1, -1, -1, -1, -1, -1, -1, -1, -1, -1, -1, -1, -1, -1, -1, -1, -1, -1, -1, -1, -1, -1, -1, -1, -1, -1, -1], "split_conditions": [-0.2182177, -0.25252002, 0.21869425, 2.00001, -0.2375955, -0.021526009, -0.13154751, -0.2682252, -0.26583475, 2.00001, 2.00001, -0.18539982, 2.00001, 2.00001, 0.29055655, -0.2761672, 2.00001, 2.00001, 2.00001, 1.0474218, 1.0742294, 2.00001, 2.00001, 2.00001, 2.00001, 2.00001, 2.00001, -0.1776584, -0.17499377, -0.021526009, 2.00001, 1.0206143, 2.00001, -0.56626123, 1.0206143, 2.00001, -0.27420637, 1.0742294, 2.00001, 0.018054377, -494.26627, 2.00001, 2.00001, 2.00001, 2.00001, 2.00001, 2.00001, 2.00001, 2.00001, 2.00001, 2.00001, -0.15071388, -0.15053174, 0.682713, 2.00001, -0.19078755, -0.16164897, -0.19638592, 2.00001, 2.00001, 2.00001, 2.2246916, 2.00001, -485.57516, -581.7743, -496.71042, -634.2407, -294.5988, -391.39957, -343.8314, -452.52, -394.25168, -563.1375, -417.55988, -343.7108, -336.91006, -497.15494, -288.23578, -227.87073, -389.06454, -325.65634, -307.109, -146.42667, -609.5894, -391.72137, -336.1993, -414.06345, -238.21223, -312.84244, -305.21185, -233.57426, -476.31348, -28.404694, -202.54662, -260.16037, -176.30727, 134.56773, -494.80942, 111.491455, 289.63867, 616.2824, -348.26352, -473.11667, -83.37837, -225.42125, -185.80386, 205.29776, 5.150098, 1614.318, -248.36449, -197.93976, -158.46632, -92.40154, 84.83663, 231.3857, -27.942244, 428.07568, 17.170135, 776.13184, 1156.3368, 1853.0192, 505.19107, 188.77052, 35.824627, 4078.7214], "split_indices": [4, 4, 3, 42, 4, 4, 4, 4, 4, 93, 93, 4, 6, 93, 4, 4, 57, 43, 43, 1, 1, 48, 94, 93, 42, 42, 21, 4, 4, 4, 68, 1, 6, 3, 1, 57, 4, 1, 16, 0, 0, 94, 75, 6, 14, 48, 75, 14, 94, 25, 21, 5, 5, 0, 94, 4, 4, 4, 94, 93, 21, 3, 6, 0, 0, 0, 0, 0, 0, 0, 0, 0, 0, 0, 0, 0, 0, 0, 0, 0, 0, 0, 0, 0, 0, 0, 0, 0, 0, 0, 0, 0, 0, 0, 0, 0, 0, 0, 0, 0, 0, 0, 0, 0, 0, 0, 0, 0, 0, 0, 0, 0, 0, 0, 0, 0, 0, 0, 0, 0, 0, 0, 0, 0, 0], "split_type": [0, 0, 0, 0, 0, 0, 0, 0, 0, 0, 0, 0, 0, 0, 0, 0, 0, 0, 0, 0, 0, 0, 0, 0, 0, 0, 0, 0, 0, 0, 0, 0, 0, 0, 0, 0, 0, 0, 0, 0, 0, 0, 0, 0, 0, 0, 0, 0, 0, 0, 0, 0, 0, 0, 0, 0, 0, 0, 0, 0, 0, 0, 0, 0, 0, 0, 0, 0, 0, 0, 0, 0, 0, 0, 0, 0, 0, 0, 0, 0, 0, 0, 0, 0, 0, 0, 0, 0, 0, 0, 0, 0, 0, 0, 0, 0, 0, 0, 0, 0, 0, 0, 0, 0, 0, 0, 0, 0, 0, 0, 0, 0, 0, 0, 0, 0, 0, 0, 0, 0, 0, 0, 0, 0, 0], "sum_hessian": [109660.0, 57359.0, 52301.0, 22713.0, 34646.0, 27953.0, 24348.0, 3952.0, 18761.0, 17558.0, 17088.0, 19043.0, 8910.0, 14186.0, 10162.0, 1680.0, 2272.0, 6025.0, 12736.0, 1070.0, 16488.0, 1096.0, 15992.0, 11364.0, 7679.0, 8877.0, 33.0, 1078.0, 13108.0, 7091.0, 3071.0, 520.0, 1160.0, 298.0, 1974.0, 286.0, 5739.0, 292.0, 12444.0, 996.0, 74.0, 16038.0, 450.0, 155.0, 941.0, 1071.0, 14921.0, 785.0, 10579.0, 348.0, 7331.0, 1297.0, 7580.0, 2.0, 31.0, 522.0, 556.0, 7558.0, 5550.0, 5761.0, 1330.0, 1398.0, 1673.0, 58.0, 462.0, 1099.0, 61.0, 176.0, 122.0, 274.0, 1700.0, 18.0, 268.0, 1250.0, 4489.0, 36.0, 256.0, 6034.0, 6410.0, 554.0, 442.0, 1028.0, 15010.0, 51.0, 399.0, 84.0, 71.0, 238.0, 703.0, 156.0, 915.0, 103.0, 14818.0, 276.0, 509.0, 758.0, 9821.0, 334.0, 14.0, 5651.0, 1680.0, 642.0, 655.0, 3425.0, 4155.0, 1.0, 1.0, 1.0, 30.0, 344.0, 178.0, 218.0, 338.0, 3841.0, 3717.0, 369.0, 5181.0, 559.0, 5202.0, 772.0, 558.0, 791.0, 607.0, 1669.0, 4.0], "tree_param": {"num_deleted": "0", "num_feature": "98", "num_nodes": "125", "size_leaf_vector": "1"}}, {"base_weights": [-0.032292042, -1710.4298, 2125.7385, -2627.75, -710.0912, 556.5086, 3668.2158, -3405.6196, -2126.716, -2811.059, -565.5463, -1409.5251, 2136.4333, 3121.8115, 9499.449, -4449.784, -3097.9143, -2021.3975, -4030.1467, -2642.7034, -3213.729, -950.9995, 24.012373, -34.78774, -2269.1187, 1533.853, 5997.217, 1484.8676, 4317.6167, 5319.277, 13698.389, -4926.33, -4171.7534, -4021.2588, -2958.5981, -3491.9448, -1935.8845, -3694.0215, -4624.195, -2271.8684, -2809.915, -3581.3352, -2921.1353, -2509.187, -842.6275, -1918.5918, 165.05075, 1954.6223, -932.92755, -3843.883, -1752.7617, -2103.0652, 1824.2047, -885.1076, 6424.858, -1856.1676, 1758.0563, 5250.497, 1528.7896, 3698.3572, 7204.4443, 10923.646, 17693.135, -420.8099, -501.6809, -340.24014, -427.07565, -383.19836, -518.29, -335.73273, -268.4987, -337.55478, -406.68332, -315.4416, -185.45747, -555.435, -360.76065, -469.91452, -205.2788, -253.95857, -155.52957, -305.5477, -266.468, -431.02832, -343.44217, -199.84288, -305.43417, -243.23071, -385.64542, -491.9855, -80.72762, -127.29431, -204.01433, -279.90536, 20.85224, 121.06593, 348.72787, -311.90567, -38.0013, -170.42206, -400.71375, -464.0629, -160.0624, -182.60033, -234.22636, -152.78629, 208.72452, -221.77641, -28.693726, 533.4272, 917.97943, -218.81934, -160.12184, -118.601006, 193.78107, 415.6335, 866.52277, -39.43577, 283.28207, 228.66943, 438.9004, -37.516804, 741.2239, -248.75003, 1130.3345, 1912.1815, 367.17093], "categories": [], "categories_nodes": [], "categories_segments": [], "categories_sizes": [], "default_left": [0, 0, 0, 0, 0, 0, 0, 0, 1, 0, 0, 0, 0, 0, 0, 0, 0, 0, 0, 0, 0, 0, 0, 0, 0, 0, 0, 0, 0, 0, 0, 0, 0, 1, 0, 0, 0, 0, 0, 0, 0, 0, 0, 1, 0, 0, 0, 0, 0, 0, 0, 0, 0, 0, 0, 0, 0, 0, 0, 0, 0, 0, 1, 0, 0, 0, 0, 0, 0, 0, 0, 0, 0, 0, 0, 0, 0, 0, 0, 0, 0, 0, 0, 0, 0, 0, 0, 0, 0, 0, 0, 0, 0, 0, 0, 0, 0, 0, 0, 0, 0, 0, 0, 0, 0, 0, 0, 0, 0, 0, 0, 0, 0, 0, 0, 0, 0, 0, 0, 0, 0, 0, 0, 0, 0, 0, 0], "id": 3, "left_children": [1, 3, 5, 7, 9, 11, 13, 15, 17, 19, 21, 23, 25, 27, 29, 31, 33, 35, 37, 39, 41, 43, 45, 47, 49, 51, 53, 55, 57, 59, 61, 63, 65, 67, 69, 71, 73, 75, 77, 79, 81, 83, 85, 87, 89, 91, 93, 95, 97, 99, 101, 103, 105, 107, 109, 111, 113, 115, 117, 119, 121, 123, 125, -1, -1, -1, -1, -1, -1, -1, -1, -1, -1, -1, -1, -1, -1, -1, -1, -1, -1, -1, -1, -1, -1, -1, -1, -1, -1, -1, -1, -1, -1, -1, -1, -1, -1, -1, -1, -1, -1, -1, -1, -1, -1, -1, -1, -1, -1, -1, -1, -1, -1, -1, -1, -1, -1, -1, -1, -1, -1, -1, -1, -1, -1, -1, -1], "loss_changes": [398721480000.0, 55760700000.0, 118345990000.0, 12347097000.0, 8826509000.0, 75290730000.0, 78532770000.0, 3975741400.0, 3857457200.0, 118346750.0, 6181148700.0, 12762446000.0, 31255716000.0, 44126600000.0, 36997580000.0, 353607680.0, 1222246400.0, 2291212300.0, 184589310.0, 75776000.0, 48372736.0, 2775190500.0, 2946716400.0, 7427632600.0, 5396582400.0, 12280717000.0, 5344596000.0, 8691569000.0, 33886175000.0, 3212402700.0, 11478581000.0, 46149630.0, 121808900.0, 256075780.0, 900857860.0, 53389310.0, 1705435100.0, 84455420.0, 59928576.0, 76047100.0, 24276480.0, 10684672.0, 31998208.0, 101344770.0, 2212685800.0, 54536190.0, 1292607400.0, 1470108200.0, 3460653300.0, 566036500.0, 2191977500.0, 52717824.0, 9496773000.0, 84659310.0, 5082710000.0, 57444096.0, 4659337000.0, 36437460000.0, 8194242600.0, 547640800.0, 772954100.0, 3205644300.0, 8543625000.0, 0.0, 0.0, 0.0, 0.0, 0.0, 0.0, 0.0, 0.0, 0.0, 0.0, 0.0, 0.0, 0.0, 0.0, 0.0, 0.0, 0.0, 0.0, 0.0, 0.0, 0.0, 0.0, 0.0, 0.0, 0.0, 0.0, 0.0, 0.0, 0.0, 0.0, 0.0, 0.0, 0.0, 0.0, 0.0, 0.0, 0.0, 0.0, 0.0, 0.0, 0.0, 0.0, 0.0, 0.0, 0.0, 0.0, 0.0, 0.0, 0.0, 0.0, 0.0, 0.0, 0.0, 0.0, 0.0, 0.0, 0.0, 0.0, 0.0, 0.0, 0.0, 0.0, 0.0, 0.0], "parents": [2147483647, 0, 0, 1, 1, 2, 2, 3, 3, 4, 4, 5, 5, 6, 6, 7, 7, 8, 8, 9, 9, 10, 10, 11, 11, 12, 12, 13, 13, 14, 14, 15, 15, 16, 16, 17, 17, 18, 18, 19, 19, 20, 20, 21, 21, 22, 22, 23, 23, 24, 24, 25, 25, 26, 26, 27, 27, 28, 28, 29, 29, 30, 30, 31, 31, 32, 32, 33, 33, 34, 34, 35, 35, 36, 36, 37, 37, 38, 38, 39, 39, 40, 40, 41, 41, 42, 42, 43, 43, 44, 44, 45, 45, 46, 46, 47, 47, 48, 48, 49, 49, 50, 50, 51, 51, 52, 52, 53, 53, 54, 54, 55, 55, 56, 56, 57, 57, 58, 58, 59, 59, 60, 60, 61, 61, 62, 62], "right_children": [2, 4, 6, 8, 10, 12, 14, 16, 18, 20, 22, 24, 26, 28, 30, 32, 34, 36, 38, 40, 42, 44, 46, 48, 50, 52, 54, 56, 58, 60, 62, 64, 66, 68, 70, 72, 74, 76, 78, 80, 82, 84, 86, 88, 90, 92, 94, 96, 98, 100, 102, 104, 106, 108, 110, 112, 114, 116, 118, 120, 122, 124, 126, -1, -1, -1, -1, -1, -1, -1, -1, -1, -1, -1, -1, -1, -1, -1, -1, -1, -1, -1, -1, -1, -1, -1, -1, -1, -1, -1, -1, -1, -1, -1, -1, -1, -1, -1, -1, -1, -1, -1, -1, -1, -1, -1, -1, -1, -1, -1, -1, -1, -1, -1, -1, -1, -1, -1, -1, -1, -1, -1, -1, -1, -1, -1, -1], "split_conditions": [-0.2132228, -0.24511628, 0.14892045, -0.26144165, 2.00001, 2.00001, 2.00001, 2.00001, 1.0474218, 2.00001, -0.22829276, 0.8061536, -0.1507197, -0.16164897, -0.08621396, -0.27265507, 2.00001, 2.00001, 2.00001, 2.00001, -0.23111953, 2.00001, 2.00001, -0.08024449, 2.00001, 2.00001, 2.00001, 2.00001, 0.17614862, -0.14651382, 0.014232319, 1.0206143, 2.00001, 1.0474218, -0.26878688, 2.00001, 2.00001, 2.00001, 2.00001, -0.22574015, -0.69907725, 2.00001, 2.00001, 1.0474218, 2.00001, 2.00001, 2.00001, -0.17499377, 2.00001, 2.00001, 2.00001, 2.00001, 2.00001, -0.29678392, -0.110270716, -0.19078755, 2.00001, -0.08024449, 1.1780844, -0.19078755, 2.00001, 2.00001, 0.08234899, -420.8099, -501.6809, -340.24014, -427.07565, -383.19836, -518.29, -335.73273, -268.4987, -337.55478, -406.68332, -315.4416, -185.45747, -555.435, -360.76065, -469.91452, -205.2788, -253.95857, -155.52957, -305.5477, -266.468, -431.02832, -343.44217, -199.84288, -305.43417, -243.23071, -385.64542, -491.9855, -80.72762, -127.29431, -204.01433, -279.90536, 20.85224, 121.06593, 348.72787, -311.90567, -38.0013, -170.42206, -400.71375, -464.0629, -160.0624, -182.60033, -234.22636, -152.78629, 208.72452, -221.77641, -28.693726, 533.4272, 917.97943, -218.81934, -160.12184, -118.601006, 193.78107, 415.6335, 866.52277, -39.43577, 283.28207, 228.66943, 438.9004, -37.516804, 741.2239, -248.75003, 1130.3345, 1912.1815, 367.17093], "split_indices": [4, 4, 3, 4, 93, 25, 21, 42, 1, 6, 4, 1, 4, 4, 4, 4, 48, 93, 6, 14, 4, 94, 94, 4, 42, 93, 93, 93, 4, 4, 4, 1, 57, 1, 4, 6, 94, 75, 21, 4, 0, 42, 41, 1, 75, 39, 95, 4, 53, 57, 43, 6, 94, 0, 4, 4, 94, 4, 3, 4, 93, 93, 1, 0, 0, 0, 0, 0, 0, 0, 0, 0, 0, 0, 0, 0, 0, 0, 0, 0, 0, 0, 0, 0, 0, 0, 0, 0, 0, 0, 0, 0, 0, 0, 0, 0, 0, 0, 0, 0, 0, 0, 0, 0, 0, 0, 0, 0, 0, 0, 0, 0, 0, 0, 0, 0, 0, 0, 0, 0, 0, 0, 0, 0, 0, 0, 0], "split_type": [0, 0, 0, 0, 0, 0, 0, 0, 0, 0, 0, 0, 0, 0, 0, 0, 0, 0, 0, 0, 0, 0, 0, 0, 0, 0, 0, 0, 0, 0, 0, 0, 0, 0, 0, 0, 0, 0, 0, 0, 0, 0, 0, 0, 0, 0, 0, 0, 0, 0, 0, 0, 0, 0, 0, 0, 0, 0, 0, 0, 0, 0, 0, 0, 0, 0, 0, 0, 0, 0, 0, 0, 0, 0, 0, 0, 0, 0, 0, 0, 0, 0, 0, 0, 0, 0, 0, 0, 0, 0, 0, 0, 0, 0, 0, 0, 0, 0, 0, 0, 0, 0, 0, 0, 0, 0, 0, 0, 0, 0, 0, 0, 0, 0, 0, 0, 0, 0, 0, 0, 0, 0, 0, 0, 0, 0, 0], "sum_hessian": [109660.0, 60767.0, 48893.0, 31698.0, 29069.0, 24237.0, 24656.0, 12416.0, 19282.0, 1870.0, 27199.0, 10799.0, 13438.0, 22545.0, 2111.0, 2823.0, 9593.0, 18273.0, 1009.0, 1324.0, 546.0, 16446.0, 10753.0, 4155.0, 6644.0, 11625.0, 1813.0, 9518.0, 13027.0, 1059.0, 1052.0, 1034.0, 1789.0, 1254.0, 8339.0, 1002.0, 17271.0, 649.0, 360.0, 416.0, 908.0, 237.0, 309.0, 1068.0, 15378.0, 727.0, 10026.0, 1292.0, 2863.0, 1639.0, 5005.0, 859.0, 10766.0, 106.0, 1707.0, 719.0, 8799.0, 9761.0, 3266.0, 571.0, 488.0, 623.0, 429.0, 121.0, 913.0, 208.0, 1581.0, 1082.0, 172.0, 3389.0, 4950.0, 839.0, 163.0, 1078.0, 16193.0, 26.0, 623.0, 349.0, 11.0, 301.0, 115.0, 330.0, 578.0, 35.0, 202.0, 41.0, 268.0, 1013.0, 55.0, 131.0, 15247.0, 117.0, 610.0, 144.0, 9882.0, 871.0, 421.0, 577.0, 2286.0, 117.0, 1522.0, 249.0, 4756.0, 402.0, 457.0, 783.0, 9983.0, 32.0, 74.0, 1225.0, 482.0, 309.0, 410.0, 506.0, 8293.0, 7394.0, 2367.0, 1320.0, 1946.0, 189.0, 382.0, 13.0, 475.0, 17.0, 606.0, 389.0, 40.0], "tree_param": {"num_deleted": "0", "num_feature": "98", "num_nodes": "127", "size_leaf_vector": "1"}}, {"base_weights": [-0.07084998, -1460.8914, 2031.0542, -2341.7817, -542.2937, 352.84894, 3291.0237, -3046.1936, -1881.6385, -2484.231, -409.3176, -1454.5397, 2121.4878, 2792.368, 8363.15, -3995.2407, -2771.662, -2875.208, -1714.8425, -3058.3164, -2387.1023, -810.1325, 106.46449, -2451.6287, -574.79144, 1542.7994, 5156.4517, -1145.2058, 3107.939, 4893.178, 12141.121, -4382.2754, -3706.4067, -4379.153, -2706.3633, -2618.2844, -3720.9863, -2093.017, -1355.6953, -2839.6484, -3298.8743, -1915.2513, -2541.9238, -2243.2915, -709.65607, -1760.4436, 243.81583, -3644.8735, -1937.1174, 1985.0555, -1058.3821, -1854.0648, 1809.7003, 4278.655, 8085.142, -1503.6625, -314.2597, 1662.2158, 3980.0583, 3649.5134, 6717.385, 9896.419, 15458.855, -370.60287, -447.44464, -301.80756, -381.18237, -482.94952, -405.2169, -317.06897, -251.64604, -244.99693, -327.98032, -508.1075, -359.5688, -316.3054, -200.29596, -171.0884, -114.285645, -301.94104, -236.85347, -9.080127, -332.30392, -221.6016, -143.65918, -279.09595, -238.8726, -216.54002, -338.5154, -146.4879, -54.56264, -121.39418, -185.83705, -11.41773, 60.424175, -273.31503, -421.13312, -162.03537, -329.28903, -96.033676, 252.46602, -196.1216, -51.662464, -154.26266, -209.10909, -126.38242, 204.66628, -97.34727, 460.20758, -0.8743598, 847.94257, -178.98473, -129.90881, -128.60886, -12.266327, -336.6437, 175.62878, 515.3379, 108.852516, -218.58434, 378.33392, -118.94335, 689.9543, -225.25696, 1021.5176, 1718.9486, 319.46835], "categories": [], "categories_nodes": [], "categories_segments": [], "categories_sizes": [], "default_left": [0, 0, 0, 0, 0, 0, 0, 0, 0, 0, 0, 0, 0, 0, 0, 0, 0, 1, 0, 0, 0, 0, 0, 0, 0, 0, 0, 0, 0, 0, 0, 0, 0, 0, 0, 0, 0, 0, 0, 0, 0, 0, 0, 1, 0, 0, 0, 0, 0, 0, 0, 0, 0, 0, 0, 0, 0, 0, 0, 0, 0, 0, 1, 0, 0, 0, 0, 0, 0, 0, 0, 0, 0, 0, 0, 0, 0, 0, 0, 0, 0, 0, 0, 0, 0, 0, 0, 0, 0, 0, 0, 0, 0, 0, 0, 0, 0, 0, 0, 0, 0, 0, 0, 0, 0, 0, 0, 0, 0, 0, 0, 0, 0, 0, 0, 0, 0, 0, 0, 0, 0, 0, 0, 0, 0, 0, 0], "id": 4, "left_children": [1, 3, 5, 7, 9, 11, 13, 15, 17, 19, 21, 23, 25, 27, 29, 31, 33, 35, 37, 39, 41, 43, 45, 47, 49, 51, 53, 55, 57, 59, 61, 63, 65, 67, 69, 71, 73, 75, 77, 79, 81, 83, 85, 87, 89, 91, 93, 95, 97, 99, 101, 103, 105, 107, 109, 111, 113, 115, 117, 119, 121, 123, 125, -1, -1, -1, -1, -1, -1, -1, -1, -1, -1, -1, -1, -1, -1, -1, -1, -1, -1, -1, -1, -1, -1, -1, -1, -1, -1, -1, -1, -1, -1, -1, -1, -1, -1, -1, -1, -1, -1, -1, -1, -1, -1, -1, -1, -1, -1, -1, -1, -1, -1, -1, -1, -1, -1, -1, -1, -1, -1, -1, -1, -1, -1, -1, -1], "loss_changes": [325379130000.0, 51613327000.0, 97003060000.0, 10548265000.0, 8062510000.0, 62893343000.0, 66250473000.0, 3340550100.0, 3259482000.0, 104275970.0, 6042068500.0, 8534501400.0, 17456677000.0, 29650387000.0, 30682251000.0, 306155520.0, 1035829250.0, 605218800.0, 2288320500.0, 5676800.0, 120489980.0, 2366609400.0, 3277763300.0, 2793109500.0, 6403375600.0, 7576404000.0, 4058112000.0, 527034370.0, 27844150000.0, 2752374800.0, 8202928000.0, 59897856.0, 108802050.0, 37564930.0, 837992450.0, 234025980.0, 93693950.0, 785301500.0, 652344300.0, 6144384.0, 9776256.0, 58433024.0, 42510850.0, 88459780.0, 1903220200.0, 44624896.0, 1536300300.0, 697577500.0, 1364211700.0, 1308867800.0, 2126645800.0, 41730050.0, 5643344000.0, 2088720400.0, 1168085000.0, 70096130.0, 99458670.0, 3938422800.0, 46735557000.0, 578342900.0, 721149950.0, 2625372200.0, 9517449000.0, 0.0, 0.0, 0.0, 0.0, 0.0, 0.0, 0.0, 0.0, 0.0, 0.0, 0.0, 0.0, 0.0, 0.0, 0.0, 0.0, 0.0, 0.0, 0.0, 0.0, 0.0, 0.0, 0.0, 0.0, 0.0, 0.0, 0.0, 0.0, 0.0, 0.0, 0.0, 0.0, 0.0, 0.0, 0.0, 0.0, 0.0, 0.0, 0.0, 0.0, 0.0, 0.0, 0.0, 0.0, 0.0, 0.0, 0.0, 0.0, 0.0, 0.0, 0.0, 0.0, 0.0, 0.0, 0.0, 0.0, 0.0, 0.0, 0.0, 0.0, 0.0, 0.0, 0.0, 0.0], "parents": [2147483647, 0, 0, 1, 1, 2, 2, 3, 3, 4, 4, 5, 5, 6, 6, 7, 7, 8, 8, 9, 9, 10, 10, 11, 11, 12, 12, 13, 13, 14, 14, 15, 15, 16, 16, 17, 17, 18, 18, 19, 19, 20, 20, 21, 21, 22, 22, 23, 23, 24, 24, 25, 25, 26, 26, 27, 27, 28, 28, 29, 29, 30, 30, 31, 31, 32, 32, 33, 33, 34, 34, 35, 35, 36, 36, 37, 37, 38, 38, 39, 39, 40, 40, 41, 41, 42, 42, 43, 43, 44, 44, 45, 45, 46, 46, 47, 47, 48, 48, 49, 49, 50, 50, 51, 51, 52, 52, 53, 53, 54, 54, 55, 55, 56, 56, 57, 57, 58, 58, 59, 59, 60, 60, 61, 61, 62, 62], "right_children": [2, 4, 6, 8, 10, 12, 14, 16, 18, 20, 22, 24, 26, 28, 30, 32, 34, 36, 38, 40, 42, 44, 46, 48, 50, 52, 54, 56, 58, 60, 62, 64, 66, 68, 70, 72, 74, 76, 78, 80, 82, 84, 86, 88, 90, 92, 94, 96, 98, 100, 102, 104, 106, 108, 110, 112, 114, 116, 118, 120, 122, 124, 126, -1, -1, -1, -1, -1, -1, -1, -1, -1, -1, -1, -1, -1, -1, -1, -1, -1, -1, -1, -1, -1, -1, -1, -1, -1, -1, -1, -1, -1, -1, -1, -1, -1, -1, -1, -1, -1, -1, -1, -1, -1, -1, -1, -1, -1, -1, -1, -1, -1, -1, -1, -1, -1, -1, -1, -1, -1, -1, -1, -1, -1, -1, -1, -1], "split_conditions": [-0.20835997, -0.24436738, 0.009372795, -0.26100534, 2.00001, 2.00001, 2.00001, 2.00001, 2.00001, 2.00001, -0.22728643, 2.00001, -0.15645681, 2.00001, -0.08621396, -0.27123752, 2.00001, 1.0474218, 2.00001, 2.00001, 2.00001, 2.00001, 2.00001, 2.00001, -0.08024449, 2.00001, -0.11440806, -0.121888705, -0.16497724, -0.139421, 0.014232319, 1.0206143, 1.0206143, -0.27123752, -0.27054378, 2.00001, 2.00001, 2.00001, -0.25426355, -0.23018172, 2.00001, -0.13766308, -0.69907725, 0.99380666, 2.00001, 2.00001, 2.00001, -0.15133844, 0.22995262, -0.15146892, -0.56626123, 2.00001, 2.00001, 2.00001, 2.00001, -0.1776584, -0.9789335, 2.00001, 0.099473245, 2.00001, 2.00001, 2.00001, 0.08234899, -370.60287, -447.44464, -301.80756, -381.18237, -482.94952, -405.2169, -317.06897, -251.64604, -244.99693, -327.98032, -508.1075, -359.5688, -316.3054, -200.29596, -171.0884, -114.285645, -301.94104, -236.85347, -9.080127, -332.30392, -221.6016, -143.65918, -279.09595, -238.8726, -216.54002, -338.5154, -146.4879, -54.56264, -121.39418, -185.83705, -11.41773, 60.424175, -273.31503, -421.13312, -162.03537, -329.28903, -96.033676, 252.46602, -196.1216, -51.662464, -154.26266, -209.10909, -126.38242, 204.66628, -97.34727, 460.20758, -0.8743598, 847.94257, -178.98473, -129.90881, -128.60886, -12.266327, -336.6437, 175.62878, 515.3379, 108.852516, -218.58434, 378.33392, -118.94335, 689.9543, -225.25696, 1021.5176, 1718.9486, 319.46835], "split_indices": [4, 4, 3, 4, 93, 25, 21, 42, 48, 48, 4, 16, 4, 93, 4, 4, 43, 1, 16, 6, 14, 94, 94, 42, 4, 93, 4, 4, 4, 4, 4, 1, 1, 4, 4, 6, 75, 93, 4, 4, 25, 5, 0, 1, 8, 39, 16, 5, 5, 5, 3, 6, 94, 93, 93, 4, 0, 95, 4, 93, 94, 93, 1, 0, 0, 0, 0, 0, 0, 0, 0, 0, 0, 0, 0, 0, 0, 0, 0, 0, 0, 0, 0, 0, 0, 0, 0, 0, 0, 0, 0, 0, 0, 0, 0, 0, 0, 0, 0, 0, 0, 0, 0, 0, 0, 0, 0, 0, 0, 0, 0, 0, 0, 0, 0, 0, 0, 0, 0, 0, 0, 0, 0, 0, 0, 0, 0], "split_type": [0, 0, 0, 0, 0, 0, 0, 0, 0, 0, 0, 0, 0, 0, 0, 0, 0, 0, 0, 0, 0, 0, 0, 0, 0, 0, 0, 0, 0, 0, 0, 0, 0, 0, 0, 0, 0, 0, 0, 0, 0, 0, 0, 0, 0, 0, 0, 0, 0, 0, 0, 0, 0, 0, 0, 0, 0, 0, 0, 0, 0, 0, 0, 0, 0, 0, 0, 0, 0, 0, 0, 0, 0, 0, 0, 0, 0, 0, 0, 0, 0, 0, 0, 0, 0, 0, 0, 0, 0, 0, 0, 0, 0, 0, 0, 0, 0, 0, 0, 0, 0, 0, 0, 0, 0, 0, 0, 0, 0, 0, 0, 0, 0, 0, 0, 0, 0, 0, 0, 0, 0, 0, 0, 0, 0, 0, 0], "sum_hessian": [109660.0, 63785.0, 45875.0, 32560.0, 31225.0, 19673.0, 26202.0, 12863.0, 19697.0, 2000.0, 29225.0, 9730.0, 9943.0, 23858.0, 2344.0, 2883.0, 9980.0, 2829.0, 16868.0, 285.0, 1715.0, 16445.0, 12780.0, 4560.0, 5170.0, 8352.0, 1591.0, 1770.0, 22088.0, 1223.0, 1121.0, 1226.0, 1657.0, 387.0, 9593.0, 2173.0, 656.0, 8214.0, 8654.0, 156.0, 129.0, 427.0, 1288.0, 1076.0, 15369.0, 875.0, 11905.0, 1372.0, 3188.0, 821.0, 4349.0, 608.0, 7744.0, 1226.0, 365.0, 1236.0, 534.0, 8312.0, 13776.0, 729.0, 494.0, 671.0, 450.0, 152.0, 1074.0, 224.0, 1433.0, 157.0, 230.0, 2780.0, 6813.0, 1736.0, 437.0, 52.0, 604.0, 635.0, 7579.0, 3240.0, 5414.0, 109.0, 47.0, 1.0, 128.0, 260.0, 167.0, 484.0, 804.0, 1010.0, 66.0, 2741.0, 12628.0, 135.0, 740.0, 5973.0, 5932.0, 528.0, 844.0, 2586.0, 602.0, 127.0, 694.0, 1630.0, 2719.0, 266.0, 342.0, 554.0, 7190.0, 71.0, 1155.0, 17.0, 348.0, 512.0, 724.0, 87.0, 447.0, 152.0, 8160.0, 9799.0, 3977.0, 16.0, 713.0, 11.0, 483.0, 17.0, 654.0, 394.0, 56.0], "tree_param": {"num_deleted": "0", "num_feature": "98", "num_nodes": "127", "size_leaf_vector": "1"}}, {"base_weights": [-0.10701036, -1304.7463, 1843.7177, -2199.4492, -561.6862, 534.7707, 3187.2559, -2908.7078, -1860.818, -2288.811, -443.9405, -1153.5629, 2052.444, 1942.1018, 5071.377, -3711.555, -2642.308, -2748.1414, -1695.377, -2864.0361, -2184.3135, -926.2884, -7.3874884, -1408.7546, 2629.319, 1558.3993, 5323.967, -1313.7777, 2222.9814, 6973.465, 1446.9668, -4220.2744, -3564.1306, -3416.0352, -2521.246, -2534.7336, -3415.2178, -2025.6628, -1374.906, -3417.7893, -2745.5947, -1782.8256, -2315.1157, -1299.9292, -605.56506, -1660.137, 112.47277, -3153.251, -1075.9663, 1608.5634, 8355.604, -1641.083, 1816.9293, -747.93787, 5731.9795, -1609.518, -1129.1885, -1261.5715, 2449.999, -348.9315, 7689.284, 2920.9749, 214.24037, -378.91922, -440.94302, -349.92123, -464.76788, -326.3182, -426.71176, -277.0261, -220.7603, -164.70804, -266.47604, -348.20224, -157.30333, -295.54358, -194.80162, -173.42775, -116.52901, -354.19904, -144.25418, -260.56238, -310.4638, -205.88188, -130.85254, -256.8746, -215.44371, -124.18949, -326.62195, -176.25664, -45.196545, -186.24959, -142.21014, -22.239698, 44.16704, -254.25859, -367.04395, 141.34459, -124.21236, 100.28542, 351.30862, 727.1436, 1430.3569, -214.67703, -148.45747, -120.19501, 205.57117, -99.394806, 159.01494, -108.57902, 614.5215, -190.69519, -143.0587, -92.71535, -144.75603, -100.174904, -184.96938, 164.6844, 336.55267, -9.69115, -148.0675, 643.54224, 1172.5951, 415.57178, 130.77554, 11.110282, 3461.9333], "categories": [], "categories_nodes": [], "categories_segments": [], "categories_sizes": [], "default_left": [0, 0, 0, 0, 0, 0, 0, 0, 0, 0, 0, 0, 0, 0, 0, 0, 0, 1, 0, 0, 0, 0, 0, 0, 0, 0, 0, 0, 0, 0, 0, 0, 0, 1, 0, 0, 0, 0, 0, 0, 1, 0, 0, 1, 0, 0, 0, 0, 0, 0, 0, 0, 0, 0, 0, 0, 0, 0, 0, 0, 0, 0, 0, 0, 0, 0, 0, 0, 0, 0, 0, 0, 0, 0, 0, 0, 0, 0, 0, 0, 0, 0, 0, 0, 0, 0, 0, 0, 0, 0, 0, 0, 0, 0, 0, 0, 0, 0, 0, 0, 0, 0, 0, 0, 0, 0, 0, 0, 0, 0, 0, 0, 0, 0, 0, 0, 0, 0, 0, 0, 0, 0, 0, 0, 0, 0, 0], "id": 5, "left_children": [1, 3, 5, 7, 9, 11, 13, 15, 17, 19, 21, 23, 25, 27, 29, 31, 33, 35, 37, 39, 41, 43, 45, 47, 49, 51, 53, 55, 57, 59, 61, 63, 65, 67, 69, 71, 73, 75, 77, 79, 81, 83, 85, 87, 89, 91, 93, 95, 97, 99, 101, 103, 105, 107, 109, 111, 113, 115, 117, 119, 121, 123, 125, -1, -1, -1, -1, -1, -1, -1, -1, -1, -1, -1, -1, -1, -1, -1, -1, -1, -1, -1, -1, -1, -1, -1, -1, -1, -1, -1, -1, -1, -1, -1, -1, -1, -1, -1, -1, -1, -1, -1, -1, -1, -1, -1, -1, -1, -1, -1, -1, -1, -1, -1, -1, -1, -1, -1, -1, -1, -1, -1, -1, -1, -1, -1, -1], "loss_changes": [263794790000.0, 42694040000.0, 79911760000.0, 6992625700.0, 7133923300.0, 58982285000.0, 52597310000.0, 2003640300.0, 2890821600.0, 128329730.0, 6916600300.0, 10523234000.0, 19584230000.0, 12351558000.0, 61497737000.0, 160675840.0, 653819900.0, 432373760.0, 1757130800.0, 12981504.0, 95599620.0, 1869242400.0, 3416007200.0, 5923422000.0, 4013858800.0, 8715481000.0, 3943374800.0, 56758016.0, 9836691000.0, 30670782000.0, 5581347300.0, 25775104.0, 111968260.0, 110181380.0, 471785470.0, 266959870.0, 86575100.0, 585220100.0, 633914400.0, 8628864.0, 6283520.0, 58961664.0, 52701184.0, 818350100.0, 1491831300.0, 53516030.0, 1772510200.0, 507047940.0, 3548667000.0, 672478700.0, 566646300.0, 59178624.0, 7027927000.0, 59675030.0, 4204515300.0, 19092224.0, 41367870.0, 114433540.0, 8576270300.0, 148742400.0, 26901873000.0, 2781250600.0, 5936271000.0, 0.0, 0.0, 0.0, 0.0, 0.0, 0.0, 0.0, 0.0, 0.0, 0.0, 0.0, 0.0, 0.0, 0.0, 0.0, 0.0, 0.0, 0.0, 0.0, 0.0, 0.0, 0.0, 0.0, 0.0, 0.0, 0.0, 0.0, 0.0, 0.0, 0.0, 0.0, 0.0, 0.0, 0.0, 0.0, 0.0, 0.0, 0.0, 0.0, 0.0, 0.0, 0.0, 0.0, 0.0, 0.0, 0.0, 0.0, 0.0, 0.0, 0.0, 0.0, 0.0, 0.0, 0.0, 0.0, 0.0, 0.0, 0.0, 0.0, 0.0, 0.0, 0.0, 0.0, 0.0], "parents": [2147483647, 0, 0, 1, 1, 2, 2, 3, 3, 4, 4, 5, 5, 6, 6, 7, 7, 8, 8, 9, 9, 10, 10, 11, 11, 12, 12, 13, 13, 14, 14, 15, 15, 16, 16, 17, 17, 18, 18, 19, 19, 20, 20, 21, 21, 22, 22, 23, 23, 24, 24, 25, 25, 26, 26, 27, 27, 28, 28, 29, 29, 30, 30, 31, 31, 32, 32, 33, 33, 34, 34, 35, 35, 36, 36, 37, 37, 38, 38, 39, 39, 40, 40, 41, 41, 42, 42, 43, 43, 44, 44, 45, 45, 46, 46, 47, 47, 48, 48, 49, 49, 50, 50, 51, 51, 52, 52, 53, 53, 54, 54, 55, 55, 56, 56, 57, 57, 58, 58, 59, 59, 60, 60, 61, 61, 62, 62], "right_children": [2, 4, 6, 8, 10, 12, 14, 16, 18, 20, 22, 24, 26, 28, 30, 32, 34, 36, 38, 40, 42, 44, 46, 48, 50, 52, 54, 56, 58, 60, 62, 64, 66, 68, 70, 72, 74, 76, 78, 80, 82, 84, 86, 88, 90, 92, 94, 96, 98, 100, 102, 104, 106, 108, 110, 112, 114, 116, 118, 120, 122, 124, 126, -1, -1, -1, -1, -1, -1, -1, -1, -1, -1, -1, -1, -1, -1, -1, -1, -1, -1, -1, -1, -1, -1, -1, -1, -1, -1, -1, -1, -1, -1, -1, -1, -1, -1, -1, -1, -1, -1, -1, -1, -1, -1, -1, -1, -1, -1, -1, -1, -1, -1, -1, -1, -1, -1, -1, -1, -1, -1, -1, -1, -1, -1, -1, -1], "split_conditions": [-0.20769632, -0.24721085, 0.21869425, -0.26444894, 2.00001, 2.00001, -0.118339784, 2.00001, 2.00001, 2.00001, -0.23208573, 2.00001, -0.14173624, 2.00001, 0.29055655, -0.2761672, 2.00001, 1.0474218, 2.00001, -0.24397118, 2.00001, 2.00001, 2.00001, 2.00001, -0.12853186, 2.00001, 2.00001, -0.1776584, 2.00001, 2.00001, 2.00001, 2.00001, 2.00001, 1.0474218, 2.00001, 2.00001, 2.00001, 2.00001, -0.2571321, -0.30460942, 0.16277172, -0.12111226, -0.23384264, 1.0474218, 2.00001, 0.29791063, 2.00001, -0.15104455, -0.13690683, -0.16331728, -0.0352018, -0.68158627, 2.00001, 1.5047908, 2.00001, -0.5941312, 2.00001, 2.00001, -0.1695726, -0.0352018, -0.021526009, 2.2246916, 2.00001, -378.91922, -440.94302, -349.92123, -464.76788, -326.3182, -426.71176, -277.0261, -220.7603, -164.70804, -266.47604, -348.20224, -157.30333, -295.54358, -194.80162, -173.42775, -116.52901, -354.19904, -144.25418, -260.56238, -310.4638, -205.88188, -130.85254, -256.8746, -215.44371, -124.18949, -326.62195, -176.25664, -45.196545, -186.24959, -142.21014, -22.239698, 44.16704, -254.25859, -367.04395, 141.34459, -124.21236, 100.28542, 351.30862, 727.1436, 1430.3569, -214.67703, -148.45747, -120.19501, 205.57117, -99.394806, 159.01494, -108.57902, 614.5215, -190.69519, -143.0587, -92.71535, -144.75603, -100.174904, -184.96938, 164.6844, 336.55267, -9.69115, -148.0675, 643.54224, 1172.5951, 415.57178, 130.77554, 11.110282, 3461.9333], "split_indices": [4, 4, 3, 4, 93, 25, 4, 42, 48, 48, 4, 6, 4, 93, 4, 4, 48, 1, 16, 4, 14, 16, 94, 42, 4, 93, 93, 4, 94, 93, 68, 52, 6, 1, 16, 57, 21, 93, 4, 3, 1, 5, 4, 1, 48, 0, 16, 5, 4, 4, 4, 0, 94, 0, 94, 0, 6, 6, 4, 4, 4, 3, 6, 0, 0, 0, 0, 0, 0, 0, 0, 0, 0, 0, 0, 0, 0, 0, 0, 0, 0, 0, 0, 0, 0, 0, 0, 0, 0, 0, 0, 0, 0, 0, 0, 0, 0, 0, 0, 0, 0, 0, 0, 0, 0, 0, 0, 0, 0, 0, 0, 0, 0, 0, 0, 0, 0, 0, 0, 0, 0, 0, 0, 0, 0, 0, 0], "split_type": [0, 0, 0, 0, 0, 0, 0, 0, 0, 0, 0, 0, 0, 0, 0, 0, 0, 0, 0, 0, 0, 0, 0, 0, 0, 0, 0, 0, 0, 0, 0, 0, 0, 0, 0, 0, 0, 0, 0, 0, 0, 0, 0, 0, 0, 0, 0, 0, 0, 0, 0, 0, 0, 0, 0, 0, 0, 0, 0, 0, 0, 0, 0, 0, 0, 0, 0, 0, 0, 0, 0, 0, 0, 0, 0, 0, 0, 0, 0, 0, 0, 0, 0, 0, 0, 0, 0, 0, 0, 0, 0, 0, 0, 0, 0, 0, 0, 0, 0, 0, 0, 0, 0, 0, 0, 0, 0, 0, 0, 0, 0, 0, 0, 0, 0, 0, 0, 0, 0, 0, 0, 0, 0, 0, 0, 0, 0], "sum_hessian": [109660.0, 64220.0, 45440.0, 29136.0, 35084.0, 23017.0, 22423.0, 9413.0, 19723.0, 2238.0, 32846.0, 10896.0, 12121.0, 13502.0, 8921.0, 2342.0, 7071.0, 3097.0, 16626.0, 340.0, 1898.0, 15604.0, 17242.0, 10208.0, 688.0, 10532.0, 1589.0, 1072.0, 12430.0, 5850.0, 3071.0, 520.0, 1822.0, 953.0, 6118.0, 2350.0, 747.0, 8185.0, 8441.0, 55.0, 285.0, 470.0, 1428.0, 7206.0, 8398.0, 1165.0, 16077.0, 1634.0, 8574.0, 585.0, 103.0, 787.0, 9745.0, 100.0, 1489.0, 409.0, 663.0, 760.0, 11670.0, 521.0, 5329.0, 1398.0, 1673.0, 165.0, 355.0, 1723.0, 99.0, 812.0, 141.0, 3406.0, 2712.0, 302.0, 2048.0, 720.0, 27.0, 628.0, 7557.0, 3107.0, 5334.0, 51.0, 4.0, 211.0, 74.0, 295.0, 175.0, 548.0, 880.0, 7001.0, 205.0, 983.0, 7415.0, 626.0, 539.0, 7970.0, 8107.0, 752.0, 882.0, 536.0, 8038.0, 445.0, 140.0, 89.0, 14.0, 183.0, 604.0, 714.0, 9031.0, 91.0, 9.0, 85.0, 1404.0, 150.0, 259.0, 408.0, 255.0, 529.0, 231.0, 6218.0, 5452.0, 427.0, 94.0, 4068.0, 1261.0, 791.0, 607.0, 1669.0, 4.0], "tree_param": {"num_deleted": "0", "num_feature": "98", "num_nodes": "127", "size_leaf_vector": "1"}}, {"base_weights": [-0.094955586, -1138.6663, 1716.7974, -1846.9221, -331.1347, 110.1123, 2683.323, -2380.4617, -1407.6053, -1954.2411, -218.2095, 2897.924, -1010.63745, 1959.5844, 7562.9746, -3149.3132, -2145.9485, -1323.4938, -2726.6602, -2464.9028, -1874.6664, -1624.9344, -118.75923, 2489.2812, 7443.4536, -1565.65, 44.273952, -1184.2168, 2249.3115, 6650.459, 15695.193, -2948.5513, -3577.477, -2413.1787, -1813.6711, -2559.8738, -1251.941, -2198.2275, -3045.6655, -2342.6501, -2816.0698, -1462.3546, -2009.0942, -1830.9447, -1346.7349, -451.24985, 321.39407, 2900.8188, -1445.4679, 3548.5647, 10939.096, -2278.355, -836.76575, 1061.7454, -520.2655, -1394.5839, -773.4675, -1148.3885, 2502.0496, -300.65518, 7449.515, 13844.242, 21884.785, -209.73369, -304.02197, -319.53812, -378.57556, -229.17606, -320.49292, -221.24918, -166.50792, -272.67416, -223.99998, -235.04735, -117.777855, -404.56183, -211.85977, -313.40216, -151.2431, -252.2616, -201.95947, -329.14548, -240.41893, -171.27545, -100.54314, -213.62073, -177.32759, -209.58096, -157.27907, -46.852287, -161.56578, -40.43208, -290.9286, -285.54727, 36.615753, 158.64958, 346.7503, -211.3333, 206.75455, 202.50627, 435.69196, 986.98303, 2028.2852, -139.45964, -275.18698, 31.496653, -149.89873, 13.390208, 205.05443, -142.10434, 2.140904, -120.49998, -166.83025, -99.28443, -40.453255, -99.15679, -179.8054, 167.9173, 373.88507, 11.979273, -146.6721, -62.905285, 809.35864, -77.51331, 1428.3534, 228.49988, 2261.8738], "categories": [], "categories_nodes": [], "categories_segments": [], "categories_sizes": [], "default_left": [0, 0, 0, 0, 0, 0, 0, 0, 1, 0, 0, 0, 0, 0, 0, 1, 0, 0, 0, 1, 0, 0, 0, 0, 0, 0, 0, 0, 0, 0, 0, 0, 0, 1, 0, 1, 0, 0, 0, 0, 0, 0, 0, 0, 0, 1, 0, 0, 0, 0, 0, 0, 0, 0, 0, 0, 0, 0, 0, 0, 0, 0, 0, 0, 0, 0, 0, 0, 0, 0, 0, 0, 0, 0, 0, 0, 0, 0, 0, 0, 0, 0, 0, 0, 0, 0, 0, 0, 0, 0, 0, 0, 0, 0, 0, 0, 0, 0, 0, 0, 0, 0, 0, 0, 0, 0, 0, 0, 0, 0, 0, 0, 0, 0, 0, 0, 0, 0, 0, 0, 0, 0, 0, 0, 0, 0, 0], "id": 6, "left_children": [1, 3, 5, 7, 9, 11, 13, 15, 17, 19, 21, 23, 25, 27, 29, 31, 33, 35, 37, 39, 41, 43, 45, 47, 49, 51, 53, 55, 57, 59, 61, 63, 65, 67, 69, 71, 73, 75, 77, 79, 81, 83, 85, 87, 89, 91, 93, 95, 97, 99, 101, 103, 105, 107, 109, 111, 113, 115, 117, 119, 121, 123, 125, -1, -1, -1, -1, -1, -1, -1, -1, -1, -1, -1, -1, -1, -1, -1, -1, -1, -1, -1, -1, -1, -1, -1, -1, -1, -1, -1, -1, -1, -1, -1, -1, -1, -1, -1, -1, -1, -1, -1, -1, -1, -1, -1, -1, -1, -1, -1, -1, -1, -1, -1, -1, -1, -1, -1, -1, -1, -1, -1, -1, -1, -1, -1, -1], "loss_changes": [214367730000.0, 37710758000.0, 67901923000.0, 8230166500.0, 5646727000.0, 51321848000.0, 96404720000.0, 2853077000.0, 2134020100.0, 76813310.0, 4029882000.0, 8730292000.0, 6859661300.0, 21659812000.0, 26061275000.0, 307929100.0, 1075097600.0, 1599275000.0, 187837950.0, 4865536.0, 93392900.0, 106541570.0, 3937753300.0, 7004414000.0, 5243857000.0, 3986135000.0, 2321139700.0, 172342530.0, 18698240000.0, 17620582000.0, 3764125700.0, 190881800.0, 81652740.0, 640110600.0, 317691900.0, 46734336.0, 1392404500.0, 55862144.0, 92392450.0, 6765696.0, 4618048.0, 47590144.0, 35420160.0, 71233540.0, 191250300.0, 1766960900.0, 1647667500.0, 2909671400.0, 966319040.0, 219010050.0, 1837965300.0, 1620256800.0, 2896451600.0, 1322688500.0, 1268156400.0, 66799360.0, 54796544.0, 151853570.0, 20617101000.0, 160984260.0, 14808121000.0, 1783586800.0, 1099141100.0, 0.0, 0.0, 0.0, 0.0, 0.0, 0.0, 0.0, 0.0, 0.0, 0.0, 0.0, 0.0, 0.0, 0.0, 0.0, 0.0, 0.0, 0.0, 0.0, 0.0, 0.0, 0.0, 0.0, 0.0, 0.0, 0.0, 0.0, 0.0, 0.0, 0.0, 0.0, 0.0, 0.0, 0.0, 0.0, 0.0, 0.0, 0.0, 0.0, 0.0, 0.0, 0.0, 0.0, 0.0, 0.0, 0.0, 0.0, 0.0, 0.0, 0.0, 0.0, 0.0, 0.0, 0.0, 0.0, 0.0, 0.0, 0.0, 0.0, 0.0, 0.0, 0.0, 0.0, 0.0], "parents": [2147483647, 0, 0, 1, 1, 2, 2, 3, 3, 4, 4, 5, 5, 6, 6, 7, 7, 8, 8, 9, 9, 10, 10, 11, 11, 12, 12, 13, 13, 14, 14, 15, 15, 16, 16, 17, 17, 18, 18, 19, 19, 20, 20, 21, 21, 22, 22, 23, 23, 24, 24, 25, 25, 26, 26, 27, 27, 28, 28, 29, 29, 30, 30, 31, 31, 32, 32, 33, 33, 34, 34, 35, 35, 36, 36, 37, 37, 38, 38, 39, 39, 40, 40, 41, 41, 42, 42, 43, 43, 44, 44, 45, 45, 46, 46, 47, 47, 48, 48, 49, 49, 50, 50, 51, 51, 52, 52, 53, 53, 54, 54, 55, 55, 56, 56, 57, 57, 58, 58, 59, 59, 60, 60, 61, 61, 62, 62], "right_children": [2, 4, 6, 8, 10, 12, 14, 16, 18, 20, 22, 24, 26, 28, 30, 32, 34, 36, 38, 40, 42, 44, 46, 48, 50, 52, 54, 56, 58, 60, 62, 64, 66, 68, 70, 72, 74, 76, 78, 80, 82, 84, 86, 88, 90, 92, 94, 96, 98, 100, 102, 104, 106, 108, 110, 112, 114, 116, 118, 120, 122, 124, 126, -1, -1, -1, -1, -1, -1, -1, -1, -1, -1, -1, -1, -1, -1, -1, -1, -1, -1, -1, -1, -1, -1, -1, -1, -1, -1, -1, -1, -1, -1, -1, -1, -1, -1, -1, -1, -1, -1, -1, -1, -1, -1, -1, -1, -1, -1, -1, -1, -1, -1, -1, -1, -1, -1, -1, -1, -1, -1, -1, -1, -1, -1, -1, -1], "split_conditions": [-0.20474753, -0.24219255, 2.00001, -0.25823206, 2.00001, -0.53422534, -0.091046706, 2.00001, 0.99380666, 2.00001, 2.00001, 2.00001, -0.18250522, 2.00001, 0.03670769, 1.0474218, 2.00001, 2.00001, 1.0742294, 0.16277172, 2.00001, -0.12669593, -0.22421058, 1.3539346, -0.100934535, 2.00001, 0.35042477, -0.15446922, 2.00001, 2.00001, 0.13186152, 2.00001, -0.15219393, 0.96699905, -0.26878688, -0.13211164, 2.00001, 2.00001, 2.00001, -0.1521517, -0.15172322, -0.110950224, 0.29791063, -0.22633693, 2.00001, 1.0474218, 2.00001, -0.15645681, 0.7594414, -0.17896394, 0.099473245, -0.15133844, 2.00001, 0.24543759, 0.24543759, 2.00001, 0.5252938, -0.13690683, -0.16497724, -0.0352018, 2.00001, 2.00001, 0.079146616, -209.73369, -304.02197, -319.53812, -378.57556, -229.17606, -320.49292, -221.24918, -166.50792, -272.67416, -223.99998, -235.04735, -117.777855, -404.56183, -211.85977, -313.40216, -151.2431, -252.2616, -201.95947, -329.14548, -240.41893, -171.27545, -100.54314, -213.62073, -177.32759, -209.58096, -157.27907, -46.852287, -161.56578, -40.43208, -290.9286, -285.54727, 36.615753, 158.64958, 346.7503, -211.3333, 206.75455, 202.50627, 435.69196, 986.98303, 2028.2852, -139.45964, -275.18698, 31.496653, -149.89873, 13.390208, 205.05443, -142.10434, 2.140904, -120.49998, -166.83025, -99.28443, -40.453255, -99.15679, -179.8054, 167.9173, 373.88507, 11.979273, -146.6721, -62.905285, 809.35864, -77.51331, 1428.3534, 228.49988, 2261.8738], "split_indices": [4, 4, 28, 4, 93, 1, 4, 48, 1, 48, 94, 21, 3, 93, 4, 1, 16, 93, 1, 1, 14, 5, 4, 5, 4, 16, 1, 4, 94, 93, 4, 57, 5, 1, 4, 1, 94, 75, 21, 5, 5, 5, 0, 4, 14, 1, 95, 4, 3, 4, 4, 5, 52, 0, 0, 6, 0, 4, 4, 4, 94, 94, 3, 0, 0, 0, 0, 0, 0, 0, 0, 0, 0, 0, 0, 0, 0, 0, 0, 0, 0, 0, 0, 0, 0, 0, 0, 0, 0, 0, 0, 0, 0, 0, 0, 0, 0, 0, 0, 0, 0, 0, 0, 0, 0, 0, 0, 0, 0, 0, 0, 0, 0, 0, 0, 0, 0, 0, 0, 0, 0, 0, 0, 0, 0, 0, 0], "split_type": [0, 0, 0, 0, 0, 0, 0, 0, 0, 0, 0, 0, 0, 0, 0, 0, 0, 0, 0, 0, 0, 0, 0, 0, 0, 0, 0, 0, 0, 0, 0, 0, 0, 0, 0, 0, 0, 0, 0, 0, 0, 0, 0, 0, 0, 0, 0, 0, 0, 0, 0, 0, 0, 0, 0, 0, 0, 0, 0, 0, 0, 0, 0, 0, 0, 0, 0, 0, 0, 0, 0, 0, 0, 0, 0, 0, 0, 0, 0, 0, 0, 0, 0, 0, 0, 0, 0, 0, 0, 0, 0, 0, 0, 0, 0, 0, 0, 0, 0, 0, 0, 0, 0, 0, 0, 0, 0, 0, 0, 0, 0, 0, 0, 0, 0, 0, 0, 0, 0, 0, 0, 0, 0, 0, 0, 0, 0], "sum_hessian": [109660.0, 65935.0, 43725.0, 35126.0, 30809.0, 16424.0, 27301.0, 15860.0, 19266.0, 2003.0, 28806.0, 4709.0, 11715.0, 23776.0, 3525.0, 3704.0, 12156.0, 18113.0, 1153.0, 266.0, 1737.0, 1901.0, 26905.0, 4322.0, 387.0, 7676.0, 4039.0, 2006.0, 21770.0, 3171.0, 354.0, 2527.0, 1177.0, 6734.0, 5422.0, 989.0, 17124.0, 437.0, 716.0, 203.0, 63.0, 430.0, 1307.0, 1089.0, 812.0, 15327.0, 11578.0, 3913.0, 409.0, 184.0, 203.0, 3880.0, 3796.0, 1441.0, 2598.0, 1325.0, 681.0, 1507.0, 20263.0, 327.0, 2844.0, 275.0, 79.0, 248.0, 2279.0, 421.0, 756.0, 5842.0, 892.0, 1468.0, 3954.0, 645.0, 344.0, 1081.0, 16043.0, 16.0, 421.0, 676.0, 40.0, 126.0, 77.0, 26.0, 37.0, 276.0, 154.0, 844.0, 463.0, 534.0, 555.0, 191.0, 621.0, 15041.0, 286.0, 160.0, 11418.0, 1180.0, 2733.0, 344.0, 65.0, 65.0, 119.0, 184.0, 19.0, 1355.0, 2525.0, 1386.0, 2410.0, 744.0, 697.0, 975.0, 1623.0, 786.0, 539.0, 426.0, 255.0, 1216.0, 291.0, 12169.0, 8094.0, 241.0, 86.0, 210.0, 2634.0, 8.0, 267.0, 3.0, 76.0], "tree_param": {"num_deleted": "0", "num_feature": "98", "num_nodes": "127", "size_leaf_vector": "1"}}, {"base_weights": [-0.075728014, -1017.24365, 1558.251, -1662.3458, -291.51758, 98.694786, 2446.7976, -2109.5315, -1236.0035, -1755.1249, -189.63913, 2617.1106, -910.44464, 1751.3132, 6588.881, -2883.77, -1916.2273, -1121.0457, -2097.6038, -2225.5393, -1682.3944, -1461.9271, -99.77421, 2247.494, 6720.063, -2678.1814, -616.9347, -1078.2139, 2011.372, 5824.947, 14136.494, -3197.5522, -2636.4717, -2342.7983, -1742.0059, -2264.8857, -1059.0537, -1314.3546, -2330.3306, -2321.9797, -1880.3469, -1311.5216, -1802.7993, -3218.402, -1434.3193, -389.59204, 318.8807, -1466.7086, 2609.721, 3202.3428, 9859.968, -864.9992, -2814.5774, -1092.613, 120.36041, -1251.5608, -727.154, -1021.7827, 2236.2678, -260.91595, 6529.993, 12999.249, 22529.07, -375.42502, -310.7803, -194.4763, -274.1241, -353.58124, -227.56693, -273.24478, -168.30424, -219.69041, -324.02023, -133.2491, -83.769295, -167.91876, -104.543205, -434.35992, -225.32866, -155.39131, -239.1709, -190.56973, -14.163867, -165.05405, -98.9201, -191.76942, -159.01244, -85.46868, -345.8266, -163.7141, -121.184654, -395.62683, -36.25863, -266.30978, 36.19627, -218.0793, 302.06235, 155.45728, 312.58804, 117.47721, 372.20203, 907.47894, 2069.7993, -151.66403, -9.099881, -250.40999, -361.9311, -125.55641, 109.212456, 203.62386, -14.4353485, -107.78158, -149.97014, -45.103504, -97.892075, -88.223625, -164.66759, 164.80202, 351.44003, 6.9627566, -132.17351, -65.48708, 711.4574, -121.18213, 1346.9159, 155.11253, 2356.509], "categories": [], "categories_nodes": [], "categories_segments": [], "categories_sizes": [], "default_left": [0, 0, 0, 0, 0, 0, 0, 0, 0, 0, 0, 0, 0, 0, 0, 0, 0, 0, 0, 0, 0, 0, 0, 0, 0, 0, 0, 0, 0, 0, 0, 0, 0, 0, 0, 1, 0, 0, 0, 0, 0, 0, 0, 0, 0, 0, 0, 0, 0, 0, 0, 0, 0, 0, 0, 0, 0, 0, 0, 0, 0, 0, 0, 0, 0, 0, 0, 0, 0, 0, 0, 0, 0, 0, 0, 0, 0, 0, 0, 0, 0, 0, 0, 0, 0, 0, 0, 0, 0, 0, 0, 0, 0, 0, 0, 0, 0, 0, 0, 0, 0, 0, 0, 0, 0, 0, 0, 0, 0, 0, 0, 0, 0, 0, 0, 0, 0, 0, 0, 0, 0, 0, 0, 0, 0, 0, 0], "id": 7, "left_children": [1, 3, 5, 7, 9, 11, 13, 15, 17, 19, 21, 23, 25, 27, 29, 31, 33, 35, 37, 39, 41, 43, 45, 47, 49, 51, 53, 55, 57, 59, 61, 63, 65, 67, 69, 71, 73, 75, 77, 79, 81, 83, 85, 87, 89, 91, 93, 95, 97, 99, 101, 103, 105, 107, 109, 111, 113, 115, 117, 119, 121, 123, 125, -1, -1, -1, -1, -1, -1, -1, -1, -1, -1, -1, -1, -1, -1, -1, -1, -1, -1, -1, -1, -1, -1, -1, -1, -1, -1, -1, -1, -1, -1, -1, -1, -1, -1, -1, -1, -1, -1, -1, -1, -1, -1, -1, -1, -1, -1, -1, -1, -1, -1, -1, -1, -1, -1, -1, -1, -1, -1, -1, -1, -1, -1, -1, -1], "loss_changes": [173823030000.0, 31063372000.0, 56167793000.0, 6694494000.0, 4655778000.0, 41656463000.0, 77541260000.0, 2560163800.0, 1779023900.0, 65777664.0, 3337836800.0, 7095855000.0, 6069910500.0, 16964829000.0, 22231613000.0, 257185800.0, 1015636000.0, 1122924500.0, 382648320.0, 4589056.0, 76406780.0, 88780540.0, 3308893200.0, 5793018000.0, 4242958300.0, 409585660.0, 3520261400.0, 117209860.0, 14403715000.0, 15088206000.0, 3095404500.0, 63475710.0, 133812220.0, 310376450.0, 564564000.0, 46919424.0, 910198800.0, 46024960.0, 243042300.0, 7316096.0, 2551008.0, 46010240.0, 29425152.0, 13486368.0, 83658240.0, 1550776300.0, 1434170500.0, 1233847000.0, 2130614300.0, 189505150.0, 1548165100.0, 59377690.0, 377956350.0, 2173358600.0, 1996981200.0, 54344320.0, 44327776.0, 125687170.0, 14771986000.0, 128428790.0, 13239288000.0, 2119868400.0, 854523900.0, 0.0, 0.0, 0.0, 0.0, 0.0, 0.0, 0.0, 0.0, 0.0, 0.0, 0.0, 0.0, 0.0, 0.0, 0.0, 0.0, 0.0, 0.0, 0.0, 0.0, 0.0, 0.0, 0.0, 0.0, 0.0, 0.0, 0.0, 0.0, 0.0, 0.0, 0.0, 0.0, 0.0, 0.0, 0.0, 0.0, 0.0, 0.0, 0.0, 0.0, 0.0, 0.0, 0.0, 0.0, 0.0, 0.0, 0.0, 0.0, 0.0, 0.0, 0.0, 0.0, 0.0, 0.0, 0.0, 0.0, 0.0, 0.0, 0.0, 0.0, 0.0, 0.0, 0.0, 0.0], "parents": [2147483647, 0, 0, 1, 1, 2, 2, 3, 3, 4, 4, 5, 5, 6, 6, 7, 7, 8, 8, 9, 9, 10, 10, 11, 11, 12, 12, 13, 13, 14, 14, 15, 15, 16, 16, 17, 17, 18, 18, 19, 19, 20, 20, 21, 21, 22, 22, 23, 23, 24, 24, 25, 25, 26, 26, 27, 27, 28, 28, 29, 29, 30, 30, 31, 31, 32, 32, 33, 33, 34, 34, 35, 35, 36, 36, 37, 37, 38, 38, 39, 39, 40, 40, 41, 41, 42, 42, 43, 43, 44, 44, 45, 45, 46, 46, 47, 47, 48, 48, 49, 49, 50, 50, 51, 51, 52, 52, 53, 53, 54, 54, 55, 55, 56, 56, 57, 57, 58, 58, 59, 59, 60, 60, 61, 61, 62, 62], "right_children": [2, 4, 6, 8, 10, 12, 14, 16, 18, 20, 22, 24, 26, 28, 30, 32, 34, 36, 38, 40, 42, 44, 46, 48, 50, 52, 54, 56, 58, 60, 62, 64, 66, 68, 70, 72, 74, 76, 78, 80, 82, 84, 86, 88, 90, 92, 94, 96, 98, 100, 102, 104, 106, 108, 110, 112, 114, 116, 118, 120, 122, 124, 126, -1, -1, -1, -1, -1, -1, -1, -1, -1, -1, -1, -1, -1, -1, -1, -1, -1, -1, -1, -1, -1, -1, -1, -1, -1, -1, -1, -1, -1, -1, -1, -1, -1, -1, -1, -1, -1, -1, -1, -1, -1, -1, -1, -1, -1, -1, -1, -1, -1, -1, -1, -1, -1, -1, -1, -1, -1, -1, -1, -1, -1, -1, -1, -1], "split_conditions": [-0.2040237, -0.24219255, 2.00001, -0.2571321, 2.00001, -0.53422534, -0.09612185, 2.00001, 2.00001, 2.00001, 2.00001, 2.00001, 2.00001, 2.00001, 0.03670769, -0.2693118, -0.26878688, 2.00001, 2.00001, -0.21990608, 2.00001, 2.00001, -0.22306885, 2.00001, -0.100934535, 2.00001, -0.18250522, -0.15446922, 2.00001, 2.00001, 0.17614862, -0.27956903, 2.00001, 2.00001, 2.00001, 1.0474218, 2.00001, -0.24863176, 2.00001, -0.74868596, 0.083481535, -0.051909685, 0.29791063, 2.00001, -0.15211363, 2.00001, 2.00001, 0.7245545, -0.54165816, -0.192842, 0.13186152, -0.56626123, 2.00001, 2.00001, 0.03670769, 2.00001, 2.00001, -0.13690683, -0.15645681, -0.0352018, 2.00001, 2.00001, 0.079146616, -375.42502, -310.7803, -194.4763, -274.1241, -353.58124, -227.56693, -273.24478, -168.30424, -219.69041, -324.02023, -133.2491, -83.769295, -167.91876, -104.543205, -434.35992, -225.32866, -155.39131, -239.1709, -190.56973, -14.163867, -165.05405, -98.9201, -191.76942, -159.01244, -85.46868, -345.8266, -163.7141, -121.184654, -395.62683, -36.25863, -266.30978, 36.19627, -218.0793, 302.06235, 155.45728, 312.58804, 117.47721, 372.20203, 907.47894, 2069.7993, -151.66403, -9.099881, -250.40999, -361.9311, -125.55641, 109.212456, 203.62386, -14.4353485, -107.78158, -149.97014, -45.103504, -97.892075, -88.223625, -164.66759, 164.80202, 351.44003, 6.9627566, -132.17351, -65.48708, 711.4574, -121.18213, 1346.9159, 155.11253, 2356.509], "split_indices": [4, 4, 28, 4, 93, 1, 4, 42, 6, 48, 94, 21, 42, 93, 4, 4, 4, 93, 57, 4, 14, 43, 4, 53, 4, 57, 3, 4, 94, 93, 4, 4, 57, 43, 93, 1, 16, 4, 75, 1, 5, 0, 0, 22, 5, 75, 95, 3, 0, 4, 4, 3, 58, 21, 4, 6, 6, 4, 4, 4, 94, 93, 3, 0, 0, 0, 0, 0, 0, 0, 0, 0, 0, 0, 0, 0, 0, 0, 0, 0, 0, 0, 0, 0, 0, 0, 0, 0, 0, 0, 0, 0, 0, 0, 0, 0, 0, 0, 0, 0, 0, 0, 0, 0, 0, 0, 0, 0, 0, 0, 0, 0, 0, 0, 0, 0, 0, 0, 0, 0, 0, 0, 0, 0, 0, 0, 0], "split_type": [0, 0, 0, 0, 0, 0, 0, 0, 0, 0, 0, 0, 0, 0, 0, 0, 0, 0, 0, 0, 0, 0, 0, 0, 0, 0, 0, 0, 0, 0, 0, 0, 0, 0, 0, 0, 0, 0, 0, 0, 0, 0, 0, 0, 0, 0, 0, 0, 0, 0, 0, 0, 0, 0, 0, 0, 0, 0, 0, 0, 0, 0, 0, 0, 0, 0, 0, 0, 0, 0, 0, 0, 0, 0, 0, 0, 0, 0, 0, 0, 0, 0, 0, 0, 0, 0, 0, 0, 0, 0, 0, 0, 0, 0, 0, 0, 0, 0, 0, 0, 0, 0, 0, 0, 0, 0, 0, 0, 0, 0, 0, 0, 0, 0, 0, 0, 0, 0, 0, 0, 0, 0, 0, 0, 0, 0, 0], "sum_hessian": [109660.0, 66351.0, 43309.0, 35126.0, 31225.0, 16389.0, 26920.0, 17142.0, 17984.0, 2031.0, 29194.0, 4688.0, 11701.0, 23051.0, 3869.0, 3422.0, 13720.0, 15869.0, 2115.0, 268.0, 1763.0, 1925.0, 27269.0, 4302.0, 386.0, 1665.0, 10036.0, 1940.0, 21111.0, 3515.0, 354.0, 1503.0, 1919.0, 3975.0, 9745.0, 814.0, 15055.0, 486.0, 1629.0, 205.0, 63.0, 435.0, 1328.0, 28.0, 1897.0, 16114.0, 11155.0, 382.0, 3920.0, 183.0, 203.0, 117.0, 1548.0, 6100.0, 3936.0, 1297.0, 643.0, 1457.0, 19654.0, 365.0, 3150.0, 314.0, 40.0, 203.0, 1300.0, 255.0, 1664.0, 209.0, 3766.0, 545.0, 9200.0, 764.0, 50.0, 6733.0, 8322.0, 204.0, 282.0, 58.0, 1571.0, 19.0, 186.0, 62.0, 1.0, 210.0, 225.0, 857.0, 471.0, 3.0, 25.0, 989.0, 908.0, 120.0, 15994.0, 158.0, 10997.0, 330.0, 52.0, 1289.0, 2631.0, 38.0, 145.0, 191.0, 12.0, 63.0, 54.0, 1120.0, 428.0, 5677.0, 423.0, 477.0, 3459.0, 766.0, 531.0, 308.0, 335.0, 1193.0, 264.0, 13461.0, 6193.0, 279.0, 86.0, 237.0, 2913.0, 10.0, 304.0, 2.0, 38.0], "tree_param": {"num_deleted": "0", "num_feature": "98", "num_nodes": "127", "size_leaf_vector": "1"}}, {"base_weights": [-0.05824959, -901.06915, 1427.3545, -1445.9281, -186.53604, 88.39454, 2262.5232, -1898.7053, -1076.2421, -1556.1488, -91.45845, 2377.419, -822.5513, 1720.5015, 6665.8486, -2556.5757, -1705.1584, -1827.8348, -962.5089, -1422.5939, -1843.2802, -414.78345, 229.12718, 2768.2236, -1047.9381, -2410.8271, -557.78284, -898.2547, 1966.2329, 5805.037, 12733.372, -2834.3933, -2313.5415, -1941.9718, -1413.7062, -1660.2783, -2565.2454, -1255.9366, -691.47015, -1143.4094, -1541.4648, -1167.6903, -1944.2549, -2677.8333, -369.065, -3746.0437, 267.60428, 2425.8757, 6172.704, -1761.1749, 1948.1934, -1890.6343, -2836.751, -2474.0278, -405.8958, -1025.0515, -169.0303, 1568.9501, 3581.4824, -328.08173, 6489.658, 11165.2295, 17984.297, -274.6459, -338.07855, -145.05928, -241.10588, -186.47667, -282.10153, -166.35109, -124.89355, -397.8523, -161.97392, -61.372936, -263.5538, -200.44225, -119.05658, -490.68698, -67.13045, -144.45453, -79.84175, -161.77373, -120.505875, -142.68825, -50.345543, -217.34122, -169.65437, -308.19867, -234.9124, -143.58337, -26.593527, -224.25723, -407.94797, -78.200424, 38.431087, 123.68925, 291.779, 313.87317, 922.21747, -282.1089, -145.14624, -670.6082, 211.69885, -275.27414, -137.44762, -385.06448, -246.58984, -32.042305, -284.50644, -55.6105, 227.3354, -110.18014, -57.936714, -94.27993, 1.4678668, -359.73163, 165.30962, -142.85167, 398.1207, 12.346904, -119.10805, -29.555967, 700.7261, -190.34908, 1156.2444, 206.63634, 1857.764], "categories": [], "categories_nodes": [], "categories_segments": [], "categories_sizes": [], "default_left": [0, 0, 0, 0, 0, 0, 0, 0, 0, 0, 0, 0, 0, 0, 0, 0, 0, 1, 0, 0, 0, 0, 0, 0, 0, 0, 0, 0, 0, 0, 0, 1, 0, 1, 0, 0, 0, 0, 0, 0, 0, 0, 0, 0, 0, 0, 0, 0, 0, 0, 0, 0, 0, 0, 0, 0, 0, 0, 0, 0, 0, 0, 0, 0, 0, 0, 0, 0, 0, 0, 0, 0, 0, 0, 0, 0, 0, 0, 0, 0, 0, 0, 0, 0, 0, 0, 0, 0, 0, 0, 0, 0, 0, 0, 0, 0, 0, 0, 0, 0, 0, 0, 0, 0, 0, 0, 0, 0, 0, 0, 0, 0, 0, 0, 0, 0, 0, 0, 0, 0, 0, 0, 0, 0, 0, 0, 0], "id": 8, "left_children": [1, 3, 5, 7, 9, 11, 13, 15, 17, 19, 21, 23, 25, 27, 29, 31, 33, 35, 37, 39, 41, 43, 45, 47, 49, 51, 53, 55, 57, 59, 61, 63, 65, 67, 69, 71, 73, 75, 77, 79, 81, 83, 85, 87, 89, 91, 93, 95, 97, 99, 101, 103, 105, 107, 109, 111, 113, 115, 117, 119, 121, 123, 125, -1, -1, -1, -1, -1, -1, -1, -1, -1, -1, -1, -1, -1, -1, -1, -1, -1, -1, -1, -1, -1, -1, -1, -1, -1, -1, -1, -1, -1, -1, -1, -1, -1, -1, -1, -1, -1, -1, -1, -1, -1, -1, -1, -1, -1, -1, -1, -1, -1, -1, -1, -1, -1, -1, -1, -1, -1, -1, -1, -1, -1, -1, -1, -1], "loss_changes": [141037880000.0, 26172527000.0, 47453060000.0, 6382371000.0, 3787421400.0, 33994514000.0, 62362485000.0, 2178441200.0, 1793343500.0, 69778430.0, 2819362600.0, 6215557000.0, 4902821000.0, 14976901000.0, 14884733000.0, 256430080.0, 911695900.0, 336636930.0, 1449923600.0, 41147904.0, 38387330.0, 1400108500.0, 2090035500.0, 4840564700.0, 1020619900.0, 363759600.0, 2908650500.0, 184476030.0, 13646791000.0, 10541269000.0, 2722340900.0, 77821950.0, 171792380.0, 490643460.0, 242539520.0, 205103620.0, 68205570.0, 426135550.0, 802992100.0, 39363584.0, 21245952.0, 13054784.0, 25660160.0, 28363648.0, 1460074900.0, 56523264.0, 1657429100.0, 2211321900.0, 3486817300.0, 122288640.0, 148590270.0, 331289100.0, 334174200.0, 585602560.0, 3729540600.0, 57546496.0, 42231890.0, 7429660700.0, 8414683000.0, 98738060.0, 7932272600.0, 1454743600.0, 717197300.0, 0.0, 0.0, 0.0, 0.0, 0.0, 0.0, 0.0, 0.0, 0.0, 0.0, 0.0, 0.0, 0.0, 0.0, 0.0, 0.0, 0.0, 0.0, 0.0, 0.0, 0.0, 0.0, 0.0, 0.0, 0.0, 0.0, 0.0, 0.0, 0.0, 0.0, 0.0, 0.0, 0.0, 0.0, 0.0, 0.0, 0.0, 0.0, 0.0, 0.0, 0.0, 0.0, 0.0, 0.0, 0.0, 0.0, 0.0, 0.0, 0.0, 0.0, 0.0, 0.0, 0.0, 0.0, 0.0, 0.0, 0.0, 0.0, 0.0, 0.0, 0.0, 0.0, 0.0, 0.0], "parents": [2147483647, 0, 0, 1, 1, 2, 2, 3, 3, 4, 4, 5, 5, 6, 6, 7, 7, 8, 8, 9, 9, 10, 10, 11, 11, 12, 12, 13, 13, 14, 14, 15, 15, 16, 16, 17, 17, 18, 18, 19, 19, 20, 20, 21, 21, 22, 22, 23, 23, 24, 24, 25, 25, 26, 26, 27, 27, 28, 28, 29, 29, 30, 30, 31, 31, 32, 32, 33, 33, 34, 34, 35, 35, 36, 36, 37, 37, 38, 38, 39, 39, 40, 40, 41, 41, 42, 42, 43, 43, 44, 44, 45, 45, 46, 46, 47, 47, 48, 48, 49, 49, 50, 50, 51, 51, 52, 52, 53, 53, 54, 54, 55, 55, 56, 56, 57, 57, 58, 58, 59, 59, 60, 60, 61, 61, 62, 62], "right_children": [2, 4, 6, 8, 10, 12, 14, 16, 18, 20, 22, 24, 26, 28, 30, 32, 34, 36, 38, 40, 42, 44, 46, 48, 50, 52, 54, 56, 58, 60, 62, 64, 66, 68, 70, 72, 74, 76, 78, 80, 82, 84, 86, 88, 90, 92, 94, 96, 98, 100, 102, 104, 106, 108, 110, 112, 114, 116, 118, 120, 122, 124, 126, -1, -1, -1, -1, -1, -1, -1, -1, -1, -1, -1, -1, -1, -1, -1, -1, -1, -1, -1, -1, -1, -1, -1, -1, -1, -1, -1, -1, -1, -1, -1, -1, -1, -1, -1, -1, -1, -1, -1, -1, -1, -1, -1, -1, -1, -1, -1, -1, -1, -1, -1, -1, -1, -1, -1, -1, -1, -1, -1, -1, -1, -1, -1, -1], "split_conditions": [-0.20241557, -0.23956472, 2.00001, -0.2571321, 2.00001, -0.53422534, -0.08024449, 2.00001, 2.00001, 2.00001, 2.00001, 0.22995262, 2.00001, 2.00001, 0.03670769, -0.2682252, 2.00001, 1.0742294, 2.00001, 2.00001, 2.00001, 2.00001, 2.00001, 2.00001, 0.7594414, -0.15104455, 2.00001, -0.118339784, -0.13441941, 2.00001, 0.13186152, 1.1814597, 2.00001, 1.0206143, -0.26583475, 2.00001, 2.00001, 2.00001, 2.00001, -0.22574015, 0.8926052, -0.058511756, -0.21990608, -0.26180187, 2.00001, -0.13211164, 2.00001, -0.15645681, -0.09612185, -0.20932883, -0.12821735, -0.72325236, 0.099473245, 2.00001, 2.00001, 1.2424254, -1.0663886, 2.00001, 2.00001, -0.0352018, 2.00001, 2.00001, 0.079146616, -274.6459, -338.07855, -145.05928, -241.10588, -186.47667, -282.10153, -166.35109, -124.89355, -397.8523, -161.97392, -61.372936, -263.5538, -200.44225, -119.05658, -490.68698, -67.13045, -144.45453, -79.84175, -161.77373, -120.505875, -142.68825, -50.345543, -217.34122, -169.65437, -308.19867, -234.9124, -143.58337, -26.593527, -224.25723, -407.94797, -78.200424, 38.431087, 123.68925, 291.779, 313.87317, 922.21747, -282.1089, -145.14624, -670.6082, 211.69885, -275.27414, -137.44762, -385.06448, -246.58984, -32.042305, -284.50644, -55.6105, 227.3354, -110.18014, -57.936714, -94.27993, 1.4678668, -359.73163, 165.30962, -142.85167, 398.1207, 12.346904, -119.10805, -29.555967, 700.7261, -190.34908, 1156.2444, 206.63634, 1857.764], "split_indices": [4, 4, 28, 4, 93, 1, 4, 48, 48, 6, 16, 5, 42, 93, 4, 4, 16, 1, 16, 14, 41, 95, 75, 21, 3, 5, 48, 4, 4, 93, 4, 1, 57, 1, 4, 75, 90, 93, 85, 4, 0, 5, 4, 0, 94, 1, 48, 4, 4, 0, 2, 3, 4, 57, 21, 0, 0, 95, 94, 4, 94, 94, 3, 0, 0, 0, 0, 0, 0, 0, 0, 0, 0, 0, 0, 0, 0, 0, 0, 0, 0, 0, 0, 0, 0, 0, 0, 0, 0, 0, 0, 0, 0, 0, 0, 0, 0, 0, 0, 0, 0, 0, 0, 0, 0, 0, 0, 0, 0, 0, 0, 0, 0, 0, 0, 0, 0, 0, 0, 0, 0, 0, 0, 0, 0, 0, 0], "split_type": [0, 0, 0, 0, 0, 0, 0, 0, 0, 0, 0, 0, 0, 0, 0, 0, 0, 0, 0, 0, 0, 0, 0, 0, 0, 0, 0, 0, 0, 0, 0, 0, 0, 0, 0, 0, 0, 0, 0, 0, 0, 0, 0, 0, 0, 0, 0, 0, 0, 0, 0, 0, 0, 0, 0, 0, 0, 0, 0, 0, 0, 0, 0, 0, 0, 0, 0, 0, 0, 0, 0, 0, 0, 0, 0, 0, 0, 0, 0, 0, 0, 0, 0, 0, 0, 0, 0, 0, 0, 0, 0, 0, 0, 0, 0, 0, 0, 0, 0, 0, 0, 0, 0, 0, 0, 0, 0, 0, 0, 0, 0, 0, 0, 0, 0, 0, 0, 0, 0, 0, 0, 0, 0, 0, 0, 0, 0], "sum_hessian": [109660.0, 67226.0, 42434.0, 38141.0, 29085.0, 16301.0, 26133.0, 17142.0, 20999.0, 1887.0, 27198.0, 4640.0, 11661.0, 23270.0, 2863.0, 3894.0, 13248.0, 2758.0, 18241.0, 1292.0, 595.0, 13541.0, 13657.0, 4165.0, 475.0, 1665.0, 9996.0, 1996.0, 21274.0, 2509.0, 354.0, 1812.0, 2082.0, 7306.0, 5942.0, 2250.0, 508.0, 8757.0, 9484.0, 389.0, 903.0, 79.0, 516.0, 267.0, 13274.0, 130.0, 13527.0, 3786.0, 379.0, 384.0, 91.0, 752.0, 913.0, 733.0, 9263.0, 1700.0, 296.0, 17076.0, 4198.0, 252.0, 2257.0, 275.0, 79.0, 1566.0, 246.0, 213.0, 1869.0, 6719.0, 587.0, 2358.0, 3584.0, 37.0, 2213.0, 18.0, 490.0, 701.0, 8056.0, 44.0, 9440.0, 206.0, 183.0, 733.0, 170.0, 56.0, 23.0, 264.0, 252.0, 116.0, 151.0, 1169.0, 12105.0, 25.0, 105.0, 1353.0, 12174.0, 1109.0, 2677.0, 191.0, 188.0, 85.0, 299.0, 1.0, 90.0, 280.0, 472.0, 242.0, 671.0, 108.0, 625.0, 8772.0, 491.0, 1449.0, 251.0, 56.0, 240.0, 273.0, 16803.0, 310.0, 3888.0, 166.0, 86.0, 160.0, 2097.0, 8.0, 267.0, 3.0, 76.0], "tree_param": {"num_deleted": "0", "num_feature": "98", "num_nodes": "127", "size_leaf_vector": "1"}}, {"base_weights": [-0.079921454, -1003.9979, 1050.4109, -1594.5662, -601.8766, 767.51996, 3391.9639, -2323.6123, -1440.8771, -1895.0323, -538.67975, 5.04115, 1617.086, 1874.7944, 5123.3286, -2610.6467, -2146.46, -1823.6212, -1274.1781, -3661.0571, -1760.5983, -1636.2793, -466.70663, 612.14685, -1124.4103, 930.1987, 2691.912, 1185.4738, 2605.7698, 6320.729, 1918.4023, -3105.2415, -2531.0864, -2016.8835, -2750.478, -2456.141, -1725.3184, -2160.4666, -1222.9526, -545.21014, -3714.202, -4346.9478, -1651.3334, -1971.6156, -1508.7291, -704.40204, -166.10367, -75.09469, 1149.7817, -281.054, -1434.1951, 233.87715, 1390.8076, 3655.019, 876.9386, 269.43054, 1454.9861, -1307.6154, 2703.2935, 5195.142, 10193.628, 4401.083, 613.97876, -152.93614, -317.8589, -247.9993, -356.46115, -303.46323, -196.06464, -194.02438, -288.94507, -237.6322, -350.1817, -262.71515, -167.04259, -328.01556, -206.92517, -209.7687, -116.906876, -12.178443, -69.60308, -27.950464, -374.3968, -369.9302, -505.3868, -111.41758, -183.12093, -223.04497, -173.92805, -167.89333, -131.19012, -164.8311, -64.03939, -47.116245, 12.923476, -303.09158, 0.377728, 47.390366, 197.14702, 109.67165, -62.64394, -192.85107, -96.10535, -298.9589, 28.2052, -345.57437, 148.27995, 255.30286, 537.8012, -28.878035, 154.60408, -305.56116, 35.320442, 123.36987, 201.87706, 64.343704, -156.36047, -122.97515, 279.2415, -130.19072, 534.8837, -505.73233, 1041.5612, -243.17691, 460.5399, -189.51527, 133.30539], "categories": [], "categories_nodes": [], "categories_segments": [], "categories_sizes": [], "default_left": [0, 0, 0, 0, 0, 0, 0, 0, 0, 0, 0, 0, 0, 0, 0, 0, 0, 0, 0, 0, 0, 0, 0, 0, 0, 0, 0, 0, 0, 0, 0, 0, 0, 0, 0, 1, 0, 0, 0, 0, 0, 0, 0, 0, 0, 0, 0, 0, 0, 0, 0, 0, 0, 0, 0, 0, 0, 0, 0, 0, 0, 0, 0, 0, 0, 0, 0, 0, 0, 0, 0, 0, 0, 0, 0, 0, 0, 0, 0, 0, 0, 0, 0, 0, 0, 0, 0, 0, 0, 0, 0, 0, 0, 0, 0, 0, 0, 0, 0, 0, 0, 0, 0, 0, 0, 0, 0, 0, 0, 0, 0, 0, 0, 0, 0, 0, 0, 0, 0, 0, 0, 0, 0, 0, 0, 0, 0], "id": 9, "left_children": [1, 3, 5, 7, 9, 11, 13, 15, 17, 19, 21, 23, 25, 27, 29, 31, 33, 35, 37, 39, 41, 43, 45, 47, 49, 51, 53, 55, 57, 59, 61, 63, 65, 67, 69, 71, 73, 75, 77, 79, 81, 83, 85, 87, 89, 91, 93, 95, 97, 99, 101, 103, 105, 107, 109, 111, 113, 115, 117, 119, 121, 123, 125, -1, -1, -1, -1, -1, -1, -1, -1, -1, -1, -1, -1, -1, -1, -1, -1, -1, -1, -1, -1, -1, -1, -1, -1, -1, -1, -1, -1, -1, -1, -1, -1, -1, -1, -1, -1, -1, -1, -1, -1, -1, -1, -1, -1, -1, -1, -1, -1, -1, -1, -1, -1, -1, -1, -1, -1, -1, -1, -1, -1, -1, -1, -1, -1], "loss_changes": [115650265000.0, 13315502000.0, 35494306000.0, 2541674500.0, 2725353500.0, 30972107000.0, 15162634000.0, 195399680.0, 1194750000.0, 362495500.0, 2511992800.0, 17279551000.0, 16693797000.0, 1548850200.0, 10337829000.0, 51323904.0, 186205180.0, 349556740.0, 590878700.0, 16024320.0, 401457150.0, 80731140.0, 2132866600.0, 6055945000.0, 2301287400.0, 4425454600.0, 15409037000.0, 391414530.0, 573715460.0, 8504328000.0, 2377571000.0, 18718464.0, 59860480.0, 109722620.0, 42811650.0, 55362560.0, 239566850.0, 66032896.0, 580171800.0, 106818.25, 9892992.0, 7858560.0, 132167170.0, 28353536.0, 45436160.0, 1006110700.0, 1187790800.0, 1677392000.0, 5106168000.0, 1127528000.0, 1505043500.0, 854161860.0, 3707849700.0, 10922902000.0, 2385641000.0, 101914950.0, 150463230.0, 19485676.0, 514491400.0, 1527779300.0, 1545666600.0, 364402700.0, 873981000.0, 0.0, 0.0, 0.0, 0.0, 0.0, 0.0, 0.0, 0.0, 0.0, 0.0, 0.0, 0.0, 0.0, 0.0, 0.0, 0.0, 0.0, 0.0, 0.0, 0.0, 0.0, 0.0, 0.0, 0.0, 0.0, 0.0, 0.0, 0.0, 0.0, 0.0, 0.0, 0.0, 0.0, 0.0, 0.0, 0.0, 0.0, 0.0, 0.0, 0.0, 0.0, 0.0, 0.0, 0.0, 0.0, 0.0, 0.0, 0.0, 0.0, 0.0, 0.0, 0.0, 0.0, 0.0, 0.0, 0.0, 0.0, 0.0, 0.0, 0.0, 0.0, 0.0, 0.0, 0.0], "parents": [2147483647, 0, 0, 1, 1, 2, 2, 3, 3, 4, 4, 5, 5, 6, 6, 7, 7, 8, 8, 9, 9, 10, 10, 11, 11, 12, 12, 13, 13, 14, 14, 15, 15, 16, 16, 17, 17, 18, 18, 19, 19, 20, 20, 21, 21, 22, 22, 23, 23, 24, 24, 25, 25, 26, 26, 27, 27, 28, 28, 29, 29, 30, 30, 31, 31, 32, 32, 33, 33, 34, 34, 35, 35, 36, 36, 37, 37, 38, 38, 39, 39, 40, 40, 41, 41, 42, 42, 43, 43, 44, 44, 45, 45, 46, 46, 47, 47, 48, 48, 49, 49, 50, 50, 51, 51, 52, 52, 53, 53, 54, 54, 55, 55, 56, 56, 57, 57, 58, 58, 59, 59, 60, 60, 61, 61, 62, 62], "right_children": [2, 4, 6, 8, 10, 12, 14, 16, 18, 20, 22, 24, 26, 28, 30, 32, 34, 36, 38, 40, 42, 44, 46, 48, 50, 52, 54, 56, 58, 60, 62, 64, 66, 68, 70, 72, 74, 76, 78, 80, 82, 84, 86, 88, 90, 92, 94, 96, 98, 100, 102, 104, 106, 108, 110, 112, 114, 116, 118, 120, 122, 124, 126, -1, -1, -1, -1, -1, -1, -1, -1, -1, -1, -1, -1, -1, -1, -1, -1, -1, -1, -1, -1, -1, -1, -1, -1, -1, -1, -1, -1, -1, -1, -1, -1, -1, -1, -1, -1, -1, -1, -1, -1, -1, -1, -1, -1, -1, -1, -1, -1, -1, -1, -1, -1, -1, -1, -1, -1, -1, -1, -1, -1, -1, -1, -1, -1], "split_conditions": [-0.21990608, -0.25252002, 2.00001, 2.00001, 2.00001, 0.21869425, -0.14651382, -0.2693118, -0.26629612, 2.00001, 2.00001, -0.07212694, -0.13154751, -0.19078755, 2.00001, -0.27956903, 2.00001, -0.2761672, 2.00001, 1.0206143, 2.00001, -0.24436738, -0.23632506, 2.00001, -0.15133844, -0.18973608, 0.2149343, 2.00001, 2.00001, 0.014232319, -0.004299625, 2.00001, 2.00001, 2.00001, 1.0474218, 1.0474218, 2.00001, 2.00001, 2.00001, 0.08801844, 2.00001, -0.23632506, 1.0474218, -0.419221, -0.03441867, 2.00001, 2.00001, 2.00001, -0.192842, 0.75253844, 2.00001, 2.00001, 2.00001, 2.00001, 1.1780844, 2.00001, -0.20073389, 2.00001, 2.00001, 2.00001, 2.00001, 2.00001, 0.16277172, -152.93614, -317.8589, -247.9993, -356.46115, -303.46323, -196.06464, -194.02438, -288.94507, -237.6322, -350.1817, -262.71515, -167.04259, -328.01556, -206.92517, -209.7687, -116.906876, -12.178443, -69.60308, -27.950464, -374.3968, -369.9302, -505.3868, -111.41758, -183.12093, -223.04497, -173.92805, -167.89333, -131.19012, -164.8311, -64.03939, -47.116245, 12.923476, -303.09158, 0.377728, 47.390366, 197.14702, 109.67165, -62.64394, -192.85107, -96.10535, -298.9589, 28.2052, -345.57437, 148.27995, 255.30286, 537.8012, -28.878035, 154.60408, -305.56116, 35.320442, 123.36987, 201.87706, 64.343704, -156.36047, -122.97515, 279.2415, -130.19072, 534.8837, -505.73233, 1041.5612, -243.17691, 460.5399, -189.51527, 133.30539], "split_indices": [4, 4, 21, 42, 42, 3, 4, 4, 4, 75, 93, 4, 4, 4, 46, 4, 6, 4, 94, 1, 76, 4, 4, 16, 5, 4, 4, 8, 93, 4, 4, 94, 6, 93, 1, 1, 93, 43, 93, 0, 12, 4, 1, 0, 0, 94, 16, 42, 4, 1, 16, 95, 95, 16, 3, 75, 4, 40, 94, 93, 93, 93, 1, 0, 0, 0, 0, 0, 0, 0, 0, 0, 0, 0, 0, 0, 0, 0, 0, 0, 0, 0, 0, 0, 0, 0, 0, 0, 0, 0, 0, 0, 0, 0, 0, 0, 0, 0, 0, 0, 0, 0, 0, 0, 0, 0, 0, 0, 0, 0, 0, 0, 0, 0, 0, 0, 0, 0, 0, 0, 0, 0, 0, 0, 0, 0, 0], "split_type": [0, 0, 0, 0, 0, 0, 0, 0, 0, 0, 0, 0, 0, 0, 0, 0, 0, 0, 0, 0, 0, 0, 0, 0, 0, 0, 0, 0, 0, 0, 0, 0, 0, 0, 0, 0, 0, 0, 0, 0, 0, 0, 0, 0, 0, 0, 0, 0, 0, 0, 0, 0, 0, 0, 0, 0, 0, 0, 0, 0, 0, 0, 0, 0, 0, 0, 0, 0, 0, 0, 0, 0, 0, 0, 0, 0, 0, 0, 0, 0, 0, 0, 0, 0, 0, 0, 0, 0, 0, 0, 0, 0, 0, 0, 0, 0, 0, 0, 0, 0, 0, 0, 0, 0, 0, 0, 0, 0, 0, 0, 0, 0, 0, 0, 0, 0, 0, 0, 0, 0, 0, 0, 0, 0, 0, 0, 0], "sum_hessian": [109660.0, 56073.0, 53587.0, 22713.0, 33360.0, 47812.0, 5775.0, 3952.0, 18761.0, 1553.0, 31807.0, 25198.0, 22614.0, 3079.0, 2696.0, 1503.0, 2449.0, 5689.0, 13072.0, 108.0, 1445.0, 1956.0, 29851.0, 16389.0, 8809.0, 13798.0, 8816.0, 1586.0, 1493.0, 1962.0, 734.0, 203.0, 1300.0, 2020.0, 429.0, 762.0, 4927.0, 712.0, 12360.0, 2.0, 106.0, 57.0, 1388.0, 535.0, 1421.0, 16669.0, 13182.0, 7194.0, 9195.0, 2367.0, 6442.0, 5494.0, 8304.0, 5759.0, 3057.0, 361.0, 1225.0, 36.0, 1457.0, 1522.0, 440.0, 252.0, 482.0, 10.0, 193.0, 1242.0, 58.0, 103.0, 1917.0, 65.0, 364.0, 711.0, 51.0, 280.0, 4647.0, 51.0, 661.0, 715.0, 11645.0, 1.0, 1.0, 1.0, 105.0, 33.0, 24.0, 350.0, 1038.0, 249.0, 286.0, 758.0, 663.0, 1057.0, 15612.0, 6484.0, 6698.0, 186.0, 7008.0, 5046.0, 4149.0, 474.0, 1893.0, 3149.0, 3293.0, 80.0, 5414.0, 154.0, 8150.0, 3514.0, 2245.0, 1115.0, 1942.0, 8.0, 353.0, 882.0, 343.0, 4.0, 32.0, 32.0, 1425.0, 35.0, 1487.0, 6.0, 434.0, 7.0, 245.0, 107.0, 375.0], "tree_param": {"num_deleted": "0", "num_feature": "98", "num_nodes": "127", "size_leaf_vector": "1"}}, {"base_weights": [-0.119257174, -924.26587, 924.56683, -1435.2828, -563.02344, 674.3548, 3009.964, -2020.411, -1279.3381, -1147.0889, -439.71323, 2.8785672, 1436.267, 1462.818, 4436.1006, -2284.7683, -1815.4125, -1497.2789, -1029.9949, -1031.6132, -2486.0005, -718.62463, -205.4969, 522.46533, -1011.99677, 860.1459, 2519.9153, 895.6715, 1967.7004, 5429.003, 1911.9364, -2204.599, -2797.3604, -1103.8274, -1906.3931, -1889.2968, -1352.9852, -1283.066, -887.90753, -3876.0386, -999.6328, -2613.3276, -573.7922, -2539.3574, -687.21716, -482.77972, 67.427986, 81.351776, 1173.3674, -1047.9332, 5434.667, -1034.4052, 1023.21967, 3599.2349, 789.2856, 46.808624, 1114.0669, 2409.476, 1210.4651, 4346.371, 8782.295, 3625.845, 552.46436, -252.55557, -209.52725, -13.618591, -282.5896, -151.50609, -81.08028, -177.89488, -239.41634, -149.52754, -204.31517, -130.63081, -227.45813, -164.45384, -120.02151, -104.92029, -71.93947, 18.731504, -418.6241, -132.47557, -74.1035, -172.39342, -278.21634, -214.91638, -15.604125, -264.7628, -126.746056, -144.32953, -61.58679, -432.99802, -46.48883, -79.58068, 15.662305, 39.515545, -35.862427, 28.281235, 177.43703, -33.084927, -130.82542, 33.861145, 642.0761, -48.09036, -110.379295, 32.275646, 150.0695, -46.567123, 406.94006, -25.992828, 139.15158, -319.8297, 11.928558, -115.78192, 115.676796, -77.12667, 246.53885, -152.13496, 130.55759, 332.16962, 509.45425, -479.68967, 905.0595, -107.14898, 380.74594, -170.73918, 120.01027], "categories": [], "categories_nodes": [], "categories_segments": [], "categories_sizes": [], "default_left": [0, 0, 0, 0, 0, 0, 0, 0, 0, 1, 0, 0, 0, 0, 0, 1, 0, 0, 0, 0, 0, 0, 0, 0, 0, 0, 0, 0, 0, 0, 0, 0, 0, 0, 0, 0, 1, 0, 0, 0, 0, 0, 0, 0, 0, 0, 0, 0, 0, 0, 0, 0, 0, 0, 0, 0, 0, 0, 0, 0, 0, 0, 0, 0, 0, 0, 0, 0, 0, 0, 0, 0, 0, 0, 0, 0, 0, 0, 0, 0, 0, 0, 0, 0, 0, 0, 0, 0, 0, 0, 0, 0, 0, 0, 0, 0, 0, 0, 0, 0, 0, 0, 0, 0, 0, 0, 0, 0, 0, 0, 0, 0, 0, 0, 0, 0, 0, 0, 0, 0, 0, 0, 0, 0, 0, 0, 0], "id": 10, "left_children": [1, 3, 5, 7, 9, 11, 13, 15, 17, 19, 21, 23, 25, 27, 29, 31, 33, 35, 37, 39, 41, 43, 45, 47, 49, 51, 53, 55, 57, 59, 61, 63, 65, 67, 69, 71, 73, 75, 77, 79, 81, 83, 85, 87, 89, 91, 93, 95, 97, 99, 101, 103, 105, 107, 109, 111, 113, 115, 117, 119, 121, 123, 125, -1, -1, -1, -1, -1, -1, -1, -1, -1, -1, -1, -1, -1, -1, -1, -1, -1, -1, -1, -1, -1, -1, -1, -1, -1, -1, -1, -1, -1, -1, -1, -1, -1, -1, -1, -1, -1, -1, -1, -1, -1, -1, -1, -1, -1, -1, -1, -1, -1, -1, -1, -1, -1, -1, -1, -1, -1, -1, -1, -1, -1, -1, -1, -1], "loss_changes": [93711170000.0, 10124005000.0, 28599968000.0, 2070007800.0, 2313826300.0, 25040040000.0, 12949737000.0, 254785540.0, 973189100.0, 863416300.0, 1733201900.0, 13719704000.0, 14312071000.0, 805150700.0, 7646208000.0, 79431680.0, 172435460.0, 538724350.0, 299796480.0, 465327100.0, 106603520.0, 690817540.0, 1091603100.0, 4940694500.0, 2046705700.0, 4626372600.0, 14861922000.0, 246328060.0, 495530000.0, 7919624000.0, 2011125800.0, 58079230.0, 20726272.0, 35886050.0, 144249860.0, 152864770.0, 298063870.0, 88080900.0, 145013250.0, 72630460.0, 427974660.0, 57670910.0, 18749918.0, 24874496.0, 641441800.0, 490478340.0, 559887550.0, 1416423700.0, 3719855000.0, 1635187700.0, 244060030.0, 45057410.0, 4609961000.0, 9368596000.0, 1932614800.0, 64589852.0, 103880830.0, 169074690.0, 145149700.0, 1254922200.0, 1988927500.0, 329965570.0, 708953100.0, 0.0, 0.0, 0.0, 0.0, 0.0, 0.0, 0.0, 0.0, 0.0, 0.0, 0.0, 0.0, 0.0, 0.0, 0.0, 0.0, 0.0, 0.0, 0.0, 0.0, 0.0, 0.0, 0.0, 0.0, 0.0, 0.0, 0.0, 0.0, 0.0, 0.0, 0.0, 0.0, 0.0, 0.0, 0.0, 0.0, 0.0, 0.0, 0.0, 0.0, 0.0, 0.0, 0.0, 0.0, 0.0, 0.0, 0.0, 0.0, 0.0, 0.0, 0.0, 0.0, 0.0, 0.0, 0.0, 0.0, 0.0, 0.0, 0.0, 0.0, 0.0, 0.0, 0.0, 0.0], "parents": [2147483647, 0, 0, 1, 1, 2, 2, 3, 3, 4, 4, 5, 5, 6, 6, 7, 7, 8, 8, 9, 9, 10, 10, 11, 11, 12, 12, 13, 13, 14, 14, 15, 15, 16, 16, 17, 17, 18, 18, 19, 19, 20, 20, 21, 21, 22, 22, 23, 23, 24, 24, 25, 25, 26, 26, 27, 27, 28, 28, 29, 29, 30, 30, 31, 31, 32, 32, 33, 33, 34, 34, 35, 35, 36, 36, 37, 37, 38, 38, 39, 39, 40, 40, 41, 41, 42, 42, 43, 43, 44, 44, 45, 45, 46, 46, 47, 47, 48, 48, 49, 49, 50, 50, 51, 51, 52, 52, 53, 53, 54, 54, 55, 55, 56, 56, 57, 57, 58, 58, 59, 59, 60, 60, 61, 61, 62, 62], "right_children": [2, 4, 6, 8, 10, 12, 14, 16, 18, 20, 22, 24, 26, 28, 30, 32, 34, 36, 38, 40, 42, 44, 46, 48, 50, 52, 54, 56, 58, 60, 62, 64, 66, 68, 70, 72, 74, 76, 78, 80, 82, 84, 86, 88, 90, 92, 94, 96, 98, 100, 102, 104, 106, 108, 110, 112, 114, 116, 118, 120, 122, 124, 126, -1, -1, -1, -1, -1, -1, -1, -1, -1, -1, -1, -1, -1, -1, -1, -1, -1, -1, -1, -1, -1, -1, -1, -1, -1, -1, -1, -1, -1, -1, -1, -1, -1, -1, -1, -1, -1, -1, -1, -1, -1, -1, -1, -1, -1, -1, -1, -1, -1, -1, -1, -1, -1, -1, -1, -1, -1, -1, -1, -1, -1, -1, -1, -1], "split_conditions": [-0.22141558, -0.25252002, 2.00001, 2.00001, 2.00001, 0.21869425, -0.16011272, -0.26679426, 2.00001, 1.0206143, 2.00001, -0.07212694, -0.121888705, -0.19812778, 2.00001, 1.1814597, 2.00001, -0.2682252, -0.26399425, 2.00001, 2.00001, 2.00001, -0.2399542, -0.192842, 2.00001, 2.00001, 0.2149343, 2.00001, 2.00001, -0.004299625, -0.004299625, -0.2761672, 2.00001, -0.24431086, 2.00001, 2.00001, 1.0474218, -1.3112628, -0.016927654, 2.00001, -0.23632506, -0.20932883, 2.00001, -0.22526371, 2.00001, 2.00001, 2.00001, 2.00001, 2.00001, -0.15133844, 2.00001, 2.00001, -0.18870467, 2.00001, 1.1780844, 2.00001, 2.00001, 2.00001, 2.00001, -0.110270716, 2.00001, 2.00001, 0.16277172, -252.55557, -209.52725, -13.618591, -282.5896, -151.50609, -81.08028, -177.89488, -239.41634, -149.52754, -204.31517, -130.63081, -227.45813, -164.45384, -120.02151, -104.92029, -71.93947, 18.731504, -418.6241, -132.47557, -74.1035, -172.39342, -278.21634, -214.91638, -15.604125, -264.7628, -126.746056, -144.32953, -61.58679, -432.99802, -46.48883, -79.58068, 15.662305, 39.515545, -35.862427, 28.281235, 177.43703, -33.084927, -130.82542, 33.861145, 642.0761, -48.09036, -110.379295, 32.275646, 150.0695, -46.567123, 406.94006, -25.992828, 139.15158, -319.8297, 11.928558, -115.78192, 115.676796, -77.12667, 246.53885, -152.13496, 130.55759, 332.16962, 509.45425, -479.68967, 905.0595, -107.14898, 380.74594, -170.73918, 120.01027], "split_indices": [4, 4, 21, 48, 8, 3, 4, 4, 16, 1, 16, 4, 4, 4, 46, 1, 57, 4, 4, 75, 21, 95, 4, 4, 25, 93, 4, 8, 6, 4, 4, 4, 25, 0, 6, 57, 1, 0, 0, 32, 4, 0, 52, 4, 93, 85, 48, 6, 16, 5, 93, 14, 4, 93, 3, 75, 94, 93, 94, 4, 93, 93, 1, 0, 0, 0, 0, 0, 0, 0, 0, 0, 0, 0, 0, 0, 0, 0, 0, 0, 0, 0, 0, 0, 0, 0, 0, 0, 0, 0, 0, 0, 0, 0, 0, 0, 0, 0, 0, 0, 0, 0, 0, 0, 0, 0, 0, 0, 0, 0, 0, 0, 0, 0, 0, 0, 0, 0, 0, 0, 0, 0, 0, 0, 0, 0, 0], "split_type": [0, 0, 0, 0, 0, 0, 0, 0, 0, 0, 0, 0, 0, 0, 0, 0, 0, 0, 0, 0, 0, 0, 0, 0, 0, 0, 0, 0, 0, 0, 0, 0, 0, 0, 0, 0, 0, 0, 0, 0, 0, 0, 0, 0, 0, 0, 0, 0, 0, 0, 0, 0, 0, 0, 0, 0, 0, 0, 0, 0, 0, 0, 0, 0, 0, 0, 0, 0, 0, 0, 0, 0, 0, 0, 0, 0, 0, 0, 0, 0, 0, 0, 0, 0, 0, 0, 0, 0, 0, 0, 0, 0, 0, 0, 0, 0, 0, 0, 0, 0, 0, 0, 0, 0, 0, 0, 0, 0, 0, 0, 0, 0, 0, 0, 0, 0, 0, 0, 0, 0, 0, 0, 0, 0, 0, 0, 0], "sum_hessian": [109660.0, 54846.0, 54814.0, 22713.0, 32133.0, 48943.0, 5871.0, 4777.0, 17936.0, 5600.0, 26533.0, 26016.0, 22927.0, 2817.0, 3054.0, 2082.0, 2695.0, 9568.0, 8368.0, 5157.0, 443.0, 12110.0, 14423.0, 17207.0, 8809.0, 14970.0, 7957.0, 1328.0, 1489.0, 2191.0, 863.0, 1805.0, 277.0, 307.0, 2388.0, 2571.0, 6997.0, 3006.0, 5362.0, 56.0, 5101.0, 415.0, 28.0, 204.0, 11906.0, 7154.0, 7269.0, 10257.0, 6950.0, 8761.0, 48.0, 1186.0, 13784.0, 4900.0, 3057.0, 272.0, 1056.0, 939.0, 550.0, 1658.0, 533.0, 381.0, 482.0, 453.0, 1352.0, 3.0, 274.0, 126.0, 181.0, 1897.0, 491.0, 725.0, 1846.0, 6662.0, 335.0, 557.0, 2449.0, 2737.0, 2625.0, 4.0, 52.0, 2258.0, 2843.0, 68.0, 347.0, 5.0, 23.0, 187.0, 17.0, 1025.0, 10881.0, 32.0, 7122.0, 680.0, 6589.0, 5987.0, 4270.0, 2801.0, 4149.0, 2334.0, 6427.0, 8.0, 40.0, 133.0, 1053.0, 5588.0, 8196.0, 508.0, 4392.0, 1115.0, 1942.0, 5.0, 267.0, 19.0, 1037.0, 16.0, 923.0, 18.0, 532.0, 702.0, 956.0, 10.0, 523.0, 14.0, 367.0, 107.0, 375.0], "tree_param": {"num_deleted": "0", "num_feature": "98", "num_nodes": "127", "size_leaf_vector": "1"}}, {"base_weights": [-0.1297395, -651.3595, 1065.8464, -1127.8192, -203.4107, 52.810204, 1713.8951, -1833.918, -1011.47986, -1270.7506, -129.54477, 1794.6058, -633.79614, 1341.5457, 5631.667, -2122.0847, -1684.3668, -1311.0494, -807.45795, -1148.8467, -1537.6974, -1173.3513, -55.491425, 2104.6309, -894.3146, -1232.1616, -122.63501, -1315.0013, 1522.9323, -805.8777, 6236.787, -1590.6471, -2195.6653, -2563.6, -1621.0217, -1012.03894, -1439.9286, -2352.721, -778.26025, -1250.6722, -885.28723, -911.36053, -1621.5552, -1362.9423, -961.8426, -368.8613, 179.44522, 1848.3257, 4685.4976, -1499.0953, 1674.2008, -1778.4374, -725.6683, 686.32916, -591.81964, -1122.6775, -1859.5839, -878.2363, 1768.0364, -572.1857, -2564.4258, 5759.9976, 13706.173, -100.40842, -185.25938, -162.70787, -224.31087, -169.8563, -266.35852, -306.8665, -157.95097, -118.81933, -78.46864, -238.83765, -139.13663, -193.42145, -258.72083, -137.3201, -71.13076, -139.44943, -110.81884, -176.52121, -81.17668, -104.72611, 11.044034, -227.03389, -155.48532, -259.73547, -133.64232, -38.729576, -114.33245, -95.37739, -24.866642, -29.037098, 36.28894, 80.39045, 236.58337, 420.06345, 1884.0941, -569.7166, -142.8865, -734.4088, 185.60051, -87.35861, -210.0052, -57.922535, -408.8863, -11.975459, 141.97176, 148.22017, -70.32816, -135.06212, -64.442795, -234.3577, -141.86705, -98.33192, -27.397226, 145.11578, 341.86874, 408.0292, -62.416653, 30.879547, -422.83234, -95.363014, 623.51996, -575.08514, 1408.469], "categories": [], "categories_nodes": [], "categories_segments": [], "categories_sizes": [], "default_left": [0, 0, 0, 0, 0, 0, 0, 0, 0, 0, 0, 0, 0, 0, 0, 0, 0, 0, 0, 1, 0, 0, 0, 0, 0, 0, 0, 0, 0, 0, 0, 0, 0, 0, 0, 0, 0, 0, 0, 0, 0, 0, 0, 0, 0, 0, 0, 0, 0, 0, 0, 0, 0, 0, 0, 0, 0, 0, 0, 0, 0, 0, 0, 0, 0, 0, 0, 0, 0, 0, 0, 0, 0, 0, 0, 0, 0, 0, 0, 0, 0, 0, 0, 0, 0, 0, 0, 0, 0, 0, 0, 0, 0, 0, 0, 0, 0, 0, 0, 0, 0, 0, 0, 0, 0, 0, 0, 0, 0, 0, 0, 0, 0, 0, 0, 0, 0, 0, 0, 0, 0, 0, 0, 0, 0, 0, 0], "id": 11, "left_children": [1, 3, 5, 7, 9, 11, 13, 15, 17, 19, 21, 23, 25, 27, 29, 31, 33, 35, 37, 39, 41, 43, 45, 47, 49, 51, 53, 55, 57, 59, 61, 63, 65, 67, 69, 71, 73, 75, 77, 79, 81, 83, 85, 87, 89, 91, 93, 95, 97, 99, 101, 103, 105, 107, 109, 111, 113, 115, 117, 119, 121, 123, 125, -1, -1, -1, -1, -1, -1, -1, -1, -1, -1, -1, -1, -1, -1, -1, -1, -1, -1, -1, -1, -1, -1, -1, -1, -1, -1, -1, -1, -1, -1, -1, -1, -1, -1, -1, -1, -1, -1, -1, -1, -1, -1, -1, -1, -1, -1, -1, -1, -1, -1, -1, -1, -1, -1, -1, -1, -1, -1, -1, -1, -1, -1, -1, -1], "loss_changes": [76126855000.0, 14528776000.0, 27302302000.0, 2707927000.0, 2766175700.0, 19406264000.0, 36991492000.0, 197468160.0, 1730007000.0, 72135940.0, 2536680200.0, 3826586600.0, 3559766500.0, 11163369000.0, 8578998300.0, 58682370.0, 167162880.0, 440670200.0, 758453250.0, 40839040.0, 35761410.0, 85866750.0, 2256214500.0, 2712707000.0, 740369340.0, 1482294800.0, 2383243500.0, 153026820.0, 12762788000.0, 76614800.0, 7086432000.0, 28408512.0, 33954304.0, 13206272.0, 167744510.0, 137597180.0, 365839360.0, 25613696.0, 657859600.0, 21508608.0, 26967008.0, 12057912.0, 23473664.0, 33978110.0, 107059390.0, 922917900.0, 1509636500.0, 2021717000.0, 2467199000.0, 105369860.0, 162830880.0, 748688900.0, 1368796400.0, 1362822300.0, 919729800.0, 118718080.0, 78833790.0, 127297540.0, 10286162000.0, 43417640.0, 106482100.0, 6045245400.0, 964773900.0, 0.0, 0.0, 0.0, 0.0, 0.0, 0.0, 0.0, 0.0, 0.0, 0.0, 0.0, 0.0, 0.0, 0.0, 0.0, 0.0, 0.0, 0.0, 0.0, 0.0, 0.0, 0.0, 0.0, 0.0, 0.0, 0.0, 0.0, 0.0, 0.0, 0.0, 0.0, 0.0, 0.0, 0.0, 0.0, 0.0, 0.0, 0.0, 0.0, 0.0, 0.0, 0.0, 0.0, 0.0, 0.0, 0.0, 0.0, 0.0, 0.0, 0.0, 0.0, 0.0, 0.0, 0.0, 0.0, 0.0, 0.0, 0.0, 0.0, 0.0, 0.0, 0.0, 0.0, 0.0], "parents": [2147483647, 0, 0, 1, 1, 2, 2, 3, 3, 4, 4, 5, 5, 6, 6, 7, 7, 8, 8, 9, 9, 10, 10, 11, 11, 12, 12, 13, 13, 14, 14, 15, 15, 16, 16, 17, 17, 18, 18, 19, 19, 20, 20, 21, 21, 22, 22, 23, 23, 24, 24, 25, 25, 26, 26, 27, 27, 28, 28, 29, 29, 30, 30, 31, 31, 32, 32, 33, 33, 34, 34, 35, 35, 36, 36, 37, 37, 38, 38, 39, 39, 40, 40, 41, 41, 42, 42, 43, 43, 44, 44, 45, 45, 46, 46, 47, 47, 48, 48, 49, 49, 50, 50, 51, 51, 52, 52, 53, 53, 54, 54, 55, 55, 56, 56, 57, 57, 58, 58, 59, 59, 60, 60, 61, 61, 62, 62], "right_children": [2, 4, 6, 8, 10, 12, 14, 16, 18, 20, 22, 24, 26, 28, 30, 32, 34, 36, 38, 40, 42, 44, 46, 48, 50, 52, 54, 56, 58, 60, 62, 64, 66, 68, 70, 72, 74, 76, 78, 80, 82, 84, 86, 88, 90, 92, 94, 96, 98, 100, 102, 104, 106, 108, 110, 112, 114, 116, 118, 120, 122, 124, 126, -1, -1, -1, -1, -1, -1, -1, -1, -1, -1, -1, -1, -1, -1, -1, -1, -1, -1, -1, -1, -1, -1, -1, -1, -1, -1, -1, -1, -1, -1, -1, -1, -1, -1, -1, -1, -1, -1, -1, -1, 