{"model_name": "pipeline_Bourgogne-Franche-Comt\u00e9_90-120m2", "feature_order": {"numerical": ["surface_habitable_logement", "annee_construction", "hauteur_sous_plafond", "ubat_w_par_m2_k", "besoin_chauffage", "apport_solaire_saison_chauffe"], "categorical": ["type_batiment", "zone_climatique", "classe_altitude", "chauffage_simplifie", "logement_traversant_clean", "isolation_toiture_clean", "qualite_isolation_enveloppe", "periode_construction", "qualite_isolation_murs", "qualite_isolation_menuiseries", "type_emetteur_installation_chauffage_n1"]}, "scaler": {"mean": [102.89543674442363, 1972.335450027609, 2.545808502185141, 0.7279346160395028, 13494.647208813674, 1261840.6120960873], "scale": [8.542105503940343, 37.797892553041336, 2.608546619071198, 0.4001217633983664, 15939.487944346618, 2285049.2446436626]}, "ohe_categories": {"0": ["appartement", "immeuble", "maison"], "1": ["H1a", "H1b", "H1c", "H2a", "H2b", "H2c", "H2d", "H3", "Non affect\u00e9", "nan"], "2": ["400-800m", "Non affect\u00e9", "inf\u00e9rieur \u00e0 400m", "sup\u00e9rieur \u00e0 800m", "nan"], "3": ["Inconnu"], "4": ["Inconnu", "Non", "Oui"], "5": ["Inconnu", "Isol\u00e9", "Non Isol\u00e9"], "6": ["bonne", "insuffisante", "moyenne", "tr\u00e8s bonne"], "7": ["1948-1974", "1975-1977", "1978-1982", "1983-1988", "1989-2000", "2001-2005", "2006-2012", "2013-2021", "apr\u00e8s 2021", "avant 1948"], "8": ["bonne", "insuffisante", "moyenne", "tr\u00e8s bonne", "nan"], "9": ["bonne", "insuffisante", "moyenne", "tr\u00e8s bonne"], "10": ["Autres \u00e9metteurs \u00e0 effet joule", "Autres \u00e9quipements", "Convecteur bi-jonction", "Convecteur \u00e9lectrique NFC, NF** et NF***", "Panneau rayonnant NFC, NF** et NF***", "Plafond chauffant sur r\u00e9seau individuel eau chaude basse ou moyenne temp\u00e9rature(inf 65\u00b0C)", "Plafond chauffant sur r\u00e9seau individuel eau chaude haute temp\u00e9rature(sup ou egal 65\u00b0C)", "Plafond rayonnant \u00e9lectrique avec r\u00e9gulation terminale", "Plafond rayonnant \u00e9lectrique sans r\u00e9gulation", "Plancher chauffant avec distribution par fluide frigorig\u00e8ne (plancher chauffant \u00e0 d\u00e9tente directe)", "Plancher chauffant sur r\u00e9seau collectif eau chaude basse ou moyenne temp\u00e9rature(inf 65\u00b0C)", "Plancher chauffant sur r\u00e9seau collectif eau chaude haute temp\u00e9rature(sup ou egal 65\u00b0C)", "Plancher chauffant sur r\u00e9seau individuel eau chaude basse ou moyenne temp\u00e9rature(inf 65\u00b0C)", "Plancher chauffant sur r\u00e9seau individuel eau chaude haute temp\u00e9rature(sup ou egal 65\u00b0C)", "Plancher rayonnant \u00e9lectrique avec r\u00e9gulation terminale", "Plancher rayonnant \u00e9lectrique sans r\u00e9gulation", "Po\u00eale bois", "Po\u00eale charbon", "Po\u00eale fioul", "Radiateur avec distribution par fluide frigorig\u00e8ne (\u00e0 d\u00e9tente directe)", "Radiateur bitube avec robinet thermostatique sur r\u00e9seau collectif eau chaude basse ou moyenne temp\u00e9rature(inf 65\u00b0C)", "Radiateur bitube avec robinet thermostatique sur r\u00e9seau collectif eau chaude haute temp\u00e9rature(sup ou egal 65\u00b0C)", "Radiateur bitube avec robinet thermostatique sur r\u00e9seau individuel eau chaude basse ou moyenne temp\u00e9rature(inf 65\u00b0C)", "Radiateur bitube avec robinet thermostatique sur r\u00e9seau individuel eau chaude haute temp\u00e9rature(sup ou egal 65\u00b0C)", "Radiateur bitube sans robinet thermostatique sur r\u00e9seau collectif eau chaude basse ou moyenne temp\u00e9rature(inf 65\u00b0C)", "Radiateur bitube sans robinet thermostatique sur r\u00e9seau collectif eau chaude haute temp\u00e9rature(sup ou egal 65\u00b0C)", "Radiateur bitube sans robinet thermostatique sur r\u00e9seau individuel eau chaude basse ou moyenne temp\u00e9rature(inf 65\u00b0C)", "Radiateur bitube sans robinet thermostatique sur r\u00e9seau individuel eau chaude haute temp\u00e9rature(sup ou egal 65\u00b0C)", "Radiateur gaz \u00e0 ventouse ou sur conduit de fum\u00e9e", "Radiateur monotube avec robinet thermostatique sur r\u00e9seau collectif eau chaude basse ou moyenne temp\u00e9rature(inf 65\u00b0C)", "Radiateur monotube avec robinet thermostatique sur r\u00e9seau collectif eau chaude haute temp\u00e9rature(sup ou egal 65\u00b0C)", "Radiateur monotube avec robinet thermostatique sur r\u00e9seau individuel eau chaude basse ou moyenne temp\u00e9rature(inf 65\u00b0C)", "Radiateur monotube avec robinet thermostatique sur r\u00e9seau individuel eau chaude haute temp\u00e9rature(sup ou egal 65\u00b0C)", "Radiateur monotube sans robinet thermostatique sur r\u00e9seau collectif eau chaude haute temp\u00e9rature(sup ou egal 65\u00b0C)", "Radiateur monotube sans robinet thermostatique sur r\u00e9seau individuel eau chaude basse ou moyenne temp\u00e9rature(inf 65\u00b0C)", "Radiateur monotube sans robinet thermostatique sur r\u00e9seau individuel eau chaude haute temp\u00e9rature(sup ou egal 65\u00b0C)", "Radiateur \u00e9lectrique \u00e0 accumulation", "Soufflage d'air chaud (Ventiloconvecteur) sur r\u00e9seau individuel eau chaude basse ou moyenne temp\u00e9rature(inf 65\u00b0C)", "Soufflage d'air chaud (Ventiloconvecteur) sur r\u00e9seau individuel eau chaude haute temp\u00e9rature(sup ou egal 65\u00b0C)", "Soufflage d'air chaud (air souffl\u00e9) avec distribution par fluide frigorig\u00e8ne", "Soufflage d'air chaud (air souffl\u00e9) avec distribution par r\u00e9seau a\u00e9raulique", "Soufflage d'air chaud sans r\u00e9seau de distribution (ventiloconvecteur \u00e9l\u00e9ctrique)", "radiateur \u00e9lectrique NFC, NF** et NF***", "nan"]}, "xgboost": {"learner": {"attributes": {}, "feature_names": [], "feature_types": [], "gradient_booster": {"model": {"gbtree_model_param": {"num_parallel_tree": "1", "num_trees": "100"}, "iteration_indptr": [0, 1, 2, 3, 4, 5, 6, 7, 8, 9, 10, 11, 12, 13, 14, 15, 16, 17, 18, 19, 20, 21, 22, 23, 24, 25, 26, 27, 28, 29, 30, 31, 32, 33, 34, 35, 36, 37, 38, 39, 40, 41, 42, 43, 44, 45, 46, 47, 48, 49, 50, 51, 52, 53, 54, 55, 56, 57, 58, 59, 60, 61, 62, 63, 64, 65, 66, 67, 68, 69, 70, 71, 72, 73, 74, 75, 76, 77, 78, 79, 80, 81, 82, 83, 84, 85, 86, 87, 88, 89, 90, 91, 92, 93, 94, 95, 96, 97, 98, 99, 100], "tree_info": [0, 0, 0, 0, 0, 0, 0, 0, 0, 0, 0, 0, 0, 0, 0, 0, 0, 0, 0, 0, 0, 0, 0, 0, 0, 0, 0, 0, 0, 0, 0, 0, 0, 0, 0, 0, 0, 0, 0, 0, 0, 0, 0, 0, 0, 0, 0, 0, 0, 0, 0, 0, 0, 0, 0, 0, 0, 0, 0, 0, 0, 0, 0, 0, 0, 0, 0, 0, 0, 0, 0, 0, 0, 0, 0, 0, 0, 0, 0, 0, 0, 0, 0, 0, 0, 0, 0, 0, 0, 0, 0, 0, 0, 0, 0, 0, 0, 0, 0, 0], "trees": [{"base_weights": [0.00068270694, -4322.7847, 9656.257, -8682.527, -1531.4263, 5787.079, 16231.759, -7733.4233, -13571.893, -2992.9697, 853.3858, 6742.6304, -4869.3623, 11510.274, 25183.326, -9590.72, -6123.0444, -11144.216, -14502.689, -10264.129, -2765.89, -8032.886, 1159.2715, 4873.008, 10939.438, -7056.8843, -1416.1132, -793.291, 12302.775, 8078.6665, 26297.297, -11067.317, -8545.822, -10977.828, -5858.9624, -14464.911, -9337.297, -15745.173, -13509.995, -11475.13, -8205.963, -9420.918, -2565.678, -2672.624, -9181.611, -6456.3564, 1412.5907, -6194.9844, 5480.7827, -597.5569, 11934.898, -960.17285, -6141.2686, -3374.8218, 13609.138, -3422.0513, 5592.6, 8882.166, 15409.76, 5537.697, 3210.3943, 22594.648, 30126.832, -1372.7418, -1055.8593, -1024.1625, -772.20557, -433.5909, -1153.2242, -1208.2787, -568.89764, -565.9396, -1462.8632, -987.1889, -707.01776, -1589.7129, -1066.0459, -1487.9531, -1231.4684, -726.0269, -1187.8729, -846.7096, -85.72952, -113.4026, -1033.1991, -863.9787, -235.79118, 670.4593, -499.50406, -35.676235, -941.21844, -830.2514, -328.00333, -570.5339, 171.24748, -718.9824, -316.9772, -343.19687, 597.36444, -1156.1631, 288.4359, 90.72606, 1275.6567, -647.2102, -97.42719, -407.82913, 2049.5637, 6513.4233, 388.7527, -469.66168, 403.9095, -66.32629, 820.756, 70.562035, 950.3017, 622.81366, 1635.0083, 14.479375, 1018.86224, 931.0002, 2358.6707, 235.50627, 3065.3357], "categories": [], "categories_nodes": [], "categories_segments": [], "categories_sizes": [], "default_left": [0, 0, 0, 1, 0, 1, 0, 0, 0, 0, 0, 1, 0, 0, 0, 0, 0, 0, 0, 0, 0, 0, 0, 0, 0, 0, 0, 0, 0, 0, 0, 0, 0, 0, 0, 0, 0, 0, 0, 0, 0, 0, 0, 0, 0, 0, 0, 0, 0, 0, 0, 0, 0, 0, 0, 0, 0, 0, 0, 0, 0, 0, 0, 0, 0, 0, 0, 0, 0, 0, 0, 0, 0, 0, 0, 0, 0, 0, 0, 0, 0, 0, 0, 0, 0, 0, 0, 0, 0, 0, 0, 0, 0, 0, 0, 0, 0, 0, 0, 0, 0, 0, 0, 0, 0, 0, 0, 0, 0, 0, 0, 0, 0, 0, 0, 0, 0, 0, 0, 0, 0, 0, 0], "id": 0, "left_children": [1, 3, 5, 7, 9, 11, 13, 15, 17, 19, 21, 23, 25, 27, 29, 31, 33, 35, 37, 39, 41, 43, 45, 47, 49, 51, 53, 55, 57, 59, 61, 63, 65, 67, 69, 71, 73, 75, 77, 79, 81, 83, 85, 87, 89, 91, 93, 95, 97, 99, 101, -1, 103, 105, 107, 109, 111, 113, 115, 117, -1, 119, 121, -1, -1, -1, -1, -1, -1, -1, -1, -1, -1, -1, -1, -1, -1, -1, -1, -1, -1, -1, -1, -1, -1, -1, -1, -1, -1, -1, -1, -1, -1, -1, -1, -1, -1, -1, -1, -1, -1, -1, -1, -1, -1, -1, -1, -1, -1, -1, -1, -1, -1, -1, -1, -1, -1, -1, -1, -1, -1, -1, -1], "loss_changes": [735534400000.0, 148115110000.0, 138538350000.0, 21942174000.0, 25871987000.0, 34980127000.0, 85000225000.0, 11848253000.0, 1580597200.0, 7570129000.0, 7677309000.0, 24662983000.0, 2127804900.0, 12909789000.0, 13049201000.0, 2755133400.0, 2672877600.0, 1172985900.0, 470581250.0, 252283900.0, 5923737600.0, 554263040.0, 5271936000.0, 14705201000.0, 11147223000.0, 344140800.0, 3312668000.0, 1378883300.0, 13073449000.0, 2508308200.0, 8578466000.0, 886243300.0, 1437990900.0, 351375360.0, 2075746300.0, 25333760.0, 104729600.0, 15966208.0, 332427260.0, 58351616.0, 98285310.0, 969779200.0, 5450373000.0, 425490100.0, 153318910.0, 488798720.0, 5647124000.0, 320304640.0, 9104720000.0, 3011074600.0, 8079950000.0, 0.0, 215918080.0, 1746009300.0, 6258578400.0, 570533600.0, 398055600.0, 3008684000.0, 5510070300.0, 1026886400.0, 0.0, 4208590800.0, 4577755000.0, 0.0, 0.0, 0.0, 0.0, 0.0, 0.0, 0.0, 0.0, 0.0, 0.0, 0.0, 0.0, 0.0, 0.0, 0.0, 0.0, 0.0, 0.0, 0.0, 0.0, 0.0, 0.0, 0.0, 0.0, 0.0, 0.0, 0.0, 0.0, 0.0, 0.0, 0.0, 0.0, 0.0, 0.0, 0.0, 0.0, 0.0, 0.0, 0.0, 0.0, 0.0, 0.0, 0.0, 0.0, 0.0, 0.0, 0.0, 0.0, 0.0, 0.0, 0.0, 0.0, 0.0, 0.0, 0.0, 0.0, 0.0, 0.0, 0.0, 0.0], "parents": [2147483647, 0, 0, 1, 1, 2, 2, 3, 3, 4, 4, 5, 5, 6, 6, 7, 7, 8, 8, 9, 9, 10, 10, 11, 11, 12, 12, 13, 13, 14, 14, 15, 15, 16, 16, 17, 17, 18, 18, 19, 19, 20, 20, 21, 21, 22, 22, 23, 23, 24, 24, 25, 25, 26, 26, 27, 27, 28, 28, 29, 29, 30, 30, 31, 31, 32, 32, 33, 33, 34, 34, 35, 35, 36, 36, 37, 37, 38, 38, 39, 39, 40, 40, 41, 41, 42, 42, 43, 43, 44, 44, 45, 45, 46, 46, 47, 47, 48, 48, 49, 49, 50, 50, 52, 52, 53, 53, 54, 54, 55, 55, 56, 56, 57, 57, 58, 58, 59, 59, 61, 61, 62, 62], "right_children": [2, 4, 6, 8, 10, 12, 14, 16, 18, 20, 22, 24, 26, 28, 30, 32, 34, 36, 38, 40, 42, 44, 46, 48, 50, 52, 54, 56, 58, 60, 62, 64, 66, 68, 70, 72, 74, 76, 78, 80, 82, 84, 86, 88, 90, 92, 94, 96, 98, 100, 102, -1, 104, 106, 108, 110, 112, 114, 116, 118, -1, 120, 122, -1, -1, -1, -1, -1, -1, -1, -1, -1, -1, -1, -1, -1, -1, -1, -1, -1, -1, -1, -1, -1, -1, -1, -1, -1, -1, -1, -1, -1, -1, -1, -1, -1, -1, -1, -1, -1, -1, -1, -1, -1, -1, -1, -1, -1, -1, -1, -1, -1, -1, -1, -1, -1, -1, -1, -1, -1, -1, -1, -1], "split_conditions": [0.00012251279, -0.36500213, 1.0798347, 1.0758418, -0.17418045, 1.430915, 0.8784192, -0.47016862, 1.1287547, 2.00001, 2.00001, 0.30706462, -0.33896056, 2.00001, 2.00001, 2.00001, 2.00001, -0.55347747, 2.00001, -0.24290286, 2.00001, 2.00001, 2.00001, 2.00001, 2.00001, -0.3447316, -0.33481318, 2.00001, 0.50515753, 1.6488454, 1.1505171, 2.00001, -0.5588729, -1.1444881, 2.00001, 2.00001, -0.4156876, 0.059110116, -0.55347747, 2.00001, 0.6299717, 2.00001, 2.00001, 2.00001, -0.9195566, 2.00001, 2.00001, 0.22415105, 2.00001, -0.46969357, 2.00001, -960.17285, 2.00001, 0.020774594, -0.32725382, 2.0295455, 2.00001, 2.00001, 2.00001, 2.00001, 3210.3943, 2.00001, 2.00001, -1372.7418, -1055.8593, -1024.1625, -772.20557, -433.5909, -1153.2242, -1208.2787, -568.89764, -565.9396, -1462.8632, -987.1889, -707.01776, -1589.7129, -1066.0459, -1487.9531, -1231.4684, -726.0269, -1187.8729, -846.7096, -85.72952, -113.4026, -1033.1991, -863.9787, -235.79118, 670.4593, -499.50406, -35.676235, -941.21844, -830.2514, -328.00333, -570.5339, 171.24748, -718.9824, -316.9772, -343.19687, 597.36444, -1156.1631, 288.4359, 90.72606, 1275.6567, -647.2102, -97.42719, -407.82913, 2049.5637, 6513.4233, 388.7527, -469.66168, 403.9095, -66.32629, 820.756, 70.562035, 950.3017, 622.81366, 1635.0083, 14.479375, 1018.86224, 931.0002, 2358.6707, 235.50627, 3065.3357], "split_indices": [4, 4, 3, 1, 4, 4, 4, 4, 1, 76, 76, 4, 0, 76, 76, 48, 66, 4, 66, 4, 66, 6, 77, 76, 53, 3, 5, 27, 4, 4, 4, 42, 4, 3, 76, 69, 4, 2, 4, 25, 3, 6, 94, 45, 3, 27, 94, 4, 77, 3, 77, 0, 21, 2, 0, 3, 29, 77, 77, 29, 0, 77, 93, 0, 0, 0, 0, 0, 0, 0, 0, 0, 0, 0, 0, 0, 0, 0, 0, 0, 0, 0, 0, 0, 0, 0, 0, 0, 0, 0, 0, 0, 0, 0, 0, 0, 0, 0, 0, 0, 0, 0, 0, 0, 0, 0, 0, 0, 0, 0, 0, 0, 0, 0, 0, 0, 0, 0, 0, 0, 0, 0, 0], "split_type": [0, 0, 0, 0, 0, 0, 0, 0, 0, 0, 0, 0, 0, 0, 0, 0, 0, 0, 0, 0, 0, 0, 0, 0, 0, 0, 0, 0, 0, 0, 0, 0, 0, 0, 0, 0, 0, 0, 0, 0, 0, 0, 0, 0, 0, 0, 0, 0, 0, 0, 0, 0, 0, 0, 0, 0, 0, 0, 0, 0, 0, 0, 0, 0, 0, 0, 0, 0, 0, 0, 0, 0, 0, 0, 0, 0, 0, 0, 0, 0, 0, 0, 0, 0, 0, 0, 0, 0, 0, 0, 0, 0, 0, 0, 0, 0, 0, 0, 0, 0, 0, 0, 0, 0, 0, 0, 0, 0, 0, 0, 0, 0, 0, 0, 0, 0, 0, 0, 0, 0, 0, 0, 0], "sum_hessian": [17619.0, 12171.0, 5448.0, 4750.0, 7421.0, 3431.0, 2017.0, 3980.0, 770.0, 4601.0, 2820.0, 3149.0, 282.0, 1322.0, 695.0, 1846.0, 2134.0, 217.0, 553.0, 138.0, 4463.0, 93.0, 2727.0, 2180.0, 969.0, 172.0, 110.0, 80.0, 1242.0, 43.0, 652.0, 761.0, 1085.0, 108.0, 2026.0, 74.0, 143.0, 239.0, 314.0, 84.0, 54.0, 129.0, 4334.0, 17.0, 76.0, 87.0, 2640.0, 113.0, 2067.0, 77.0, 892.0, 43.0, 129.0, 98.0, 12.0, 57.0, 23.0, 593.0, 649.0, 40.0, 3.0, 335.0, 317.0, 118.0, 643.0, 351.0, 734.0, 9.0, 99.0, 52.0, 1974.0, 2.0, 72.0, 113.0, 30.0, 230.0, 9.0, 141.0, 173.0, 9.0, 75.0, 52.0, 2.0, 13.0, 116.0, 142.0, 4192.0, 3.0, 14.0, 2.0, 74.0, 54.0, 33.0, 106.0, 2534.0, 84.0, 29.0, 108.0, 1959.0, 18.0, 59.0, 62.0, 830.0, 121.0, 8.0, 96.0, 2.0, 1.0, 11.0, 49.0, 8.0, 7.0, 16.0, 42.0, 551.0, 61.0, 588.0, 19.0, 21.0, 24.0, 311.0, 6.0, 311.0], "tree_param": {"num_deleted": "0", "num_feature": "98", "num_nodes": "123", "size_leaf_vector": "1"}}, {"base_weights": [-0.15753765, -3716.7607, 9111.891, -7346.7944, -864.50543, 5504.7085, 14713.894, -9527.091, -5467.4897, -2085.7966, 1471.8838, 6490.8027, -4358.259, 10450.462, 22680.56, -8547.372, -12778.282, -10846.386, -5042.24, -8601.411, -1867.459, -7263.54, 1767.5586, -4204.722, 7130.26, -6361.0493, -1197.5288, -705.45953, 11180.184, 7367.2495, 23677.66, -9912.651, -7598.073, -14341.879, -11910.271, -3895.1824, -11272.349, -11052.652, -4869.269, -9551.596, -4828.8105, -8329.061, -1685.1792, 2266.825, -7802.051, -4833.013, 2053.4912, -4793.045, 6198.5825, 5471.419, 11245.273, -8663.377, -5532.8687, -3020.7554, 12779.161, 8842.173, -2174.7341, 8213.653, 13982.475, 5009.1313, 2969.6147, 20930.871, 27965.48, -1262.9779, -948.9106, -922.0373, -688.3694, -1445.0432, -833.3169, -1319.971, -1051.0061, -813.03864, -63.891518, -879.4337, -1220.2903, -1148.5684, -514.33856, -1074.6162, -468.82724, -88.80228, -969.3312, 89.066444, -710.559, -503.29922, -934.91595, -731.1176, -149.15178, 505.03732, -443.36838, -815.918, 348.8786, -571.0341, -332.0574, -489.13605, 229.04662, -588.88666, 49.831062, -876.96906, 1514.4335, -307.17166, 596.72797, -992.1875, 1179.7684, -694.4661, -969.18146, -583.01965, -88.76695, -367.46658, 1912.926, 6187.752, 353.11713, 444.34723, 1323.192, -337.35117, 400.03796, 119.989296, 878.3253, 542.94196, 1484.326, -85.569786, 879.685, 286.63782, 2147.9353, 215.32005, 2858.6296], "categories": [], "categories_nodes": [], "categories_segments": [], "categories_sizes": [], "default_left": [0, 0, 0, 0, 0, 1, 0, 1, 0, 0, 0, 0, 0, 0, 0, 0, 0, 0, 0, 0, 0, 0, 0, 0, 1, 0, 0, 0, 0, 0, 0, 0, 0, 0, 0, 0, 0, 0, 0, 0, 0, 0, 0, 1, 0, 0, 0, 0, 0, 0, 0, 0, 0, 0, 0, 0, 0, 0, 0, 1, 0, 0, 0, 0, 0, 0, 0, 0, 0, 0, 0, 0, 0, 0, 0, 0, 0, 0, 0, 0, 0, 0, 0, 0, 0, 0, 0, 0, 0, 0, 0, 0, 0, 0, 0, 0, 0, 0, 0, 0, 0, 0, 0, 0, 0, 0, 0, 0, 0, 0, 0, 0, 0, 0, 0, 0, 0, 0, 0, 0, 0, 0, 0, 0, 0], "id": 1, "left_children": [1, 3, 5, 7, 9, 11, 13, 15, 17, 19, 21, 23, 25, 27, 29, 31, 33, 35, 37, 39, 41, 43, 45, 47, 49, 51, 53, 55, 57, 59, 61, 63, 65, 67, 69, 71, 73, 75, 77, 79, 81, 83, 85, 87, 89, 91, 93, 95, 97, 99, 101, 103, 105, 107, 109, 111, 113, 115, 117, 119, -1, 121, 123, -1, -1, -1, -1, -1, -1, -1, -1, -1, -1, -1, -1, -1, -1, -1, -1, -1, -1, -1, -1, -1, -1, -1, -1, -1, -1, -1, -1, -1, -1, -1, -1, -1, -1, -1, -1, -1, -1, -1, -1, -1, -1, -1, -1, -1, -1, -1, -1, -1, -1, -1, -1, -1, -1, -1, -1, -1, -1, -1, -1, -1, -1], "loss_changes": [596750500000.0, 129581580000.0, 103078000000.0, 22512500000.0, 20005482000.0, 30246371000.0, 67659660000.0, 8006811600.0, 6715932700.0, 6533603300.0, 6229746000.0, 19351085000.0, 1783852000.0, 10623386000.0, 10452697000.0, 2466250800.0, 627228700.0, 595658750.0, 2799960000.0, 487992320.0, 5234327600.0, 423129860.0, 4405492700.0, 1008989700.0, 18137006000.0, 281933300.0, 2867179500.0, 1155505000.0, 10060366000.0, 2168031700.0, 7105511400.0, 801972200.0, 1282052100.0, 13291520.0, 554577900.0, 187878720.0, 360785920.0, 135401470.0, 2789691400.0, 136268800.0, 423032260.0, 363148800.0, 4712244000.0, 115647700.0, 330887680.0, 109748220.0, 3686173700.0, 884288500.0, 1337933200.0, 8075591700.0, 9062154000.0, 10467840.0, 174373630.0, 1504221600.0, 5684294700.0, 153605440.0, 539078900.0, 2374500400.0, 4542955500.0, 918314600.0, 0.0, 3921461200.0, 3976675300.0, 0.0, 0.0, 0.0, 0.0, 0.0, 0.0, 0.0, 0.0, 0.0, 0.0, 0.0, 0.0, 0.0, 0.0, 0.0, 0.0, 0.0, 0.0, 0.0, 0.0, 0.0, 0.0, 0.0, 0.0, 0.0, 0.0, 0.0, 0.0, 0.0, 0.0, 0.0, 0.0, 0.0, 0.0, 0.0, 0.0, 0.0, 0.0, 0.0, 0.0, 0.0, 0.0, 0.0, 0.0, 0.0, 0.0, 0.0, 0.0, 0.0, 0.0, 0.0, 0.0, 0.0, 0.0, 0.0, 0.0, 0.0, 0.0, 0.0, 0.0, 0.0, 0.0], "parents": [2147483647, 0, 0, 1, 1, 2, 2, 3, 3, 4, 4, 5, 5, 6, 6, 7, 7, 8, 8, 9, 9, 10, 10, 11, 11, 12, 12, 13, 13, 14, 14, 15, 15, 16, 16, 17, 17, 18, 18, 19, 19, 20, 20, 21, 21, 22, 22, 23, 23, 24, 24, 25, 25, 26, 26, 27, 27, 28, 28, 29, 29, 30, 30, 31, 31, 32, 32, 33, 33, 34, 34, 35, 35, 36, 36, 37, 37, 38, 38, 39, 39, 40, 40, 41, 41, 42, 42, 43, 43, 44, 44, 45, 45, 46, 46, 47, 47, 48, 48, 49, 49, 50, 50, 51, 51, 52, 52, 53, 53, 54, 54, 55, 55, 56, 56, 57, 57, 58, 58, 59, 59, 61, 61, 62, 62], "right_children": [2, 4, 6, 8, 10, 12, 14, 16, 18, 20, 22, 24, 26, 28, 30, 32, 34, 36, 38, 40, 42, 44, 46, 48, 50, 52, 54, 56, 58, 60, 62, 64, 66, 68, 70, 72, 74, 76, 78, 80, 82, 84, 86, 88, 90, 92, 94, 96, 98, 100, 102, 104, 106, 108, 110, 112, 114, 116, 118, 120, -1, 122, 124, -1, -1, -1, -1, -1, -1, -1, -1, -1, -1, -1, -1, -1, -1, -1, -1, -1, -1, -1, -1, -1, -1, -1, -1, -1, -1, -1, -1, -1, -1, -1, -1, -1, -1, -1, -1, -1, -1, -1, -1, -1, -1, -1, -1, -1, -1, -1, -1, -1, -1, -1, -1, -1, -1, -1, -1, -1, -1, -1, -1, -1, -1], "split_conditions": [0.030895146, -0.33569756, 1.0798347, -0.46269035, -0.13700862, 1.430915, 0.8784192, 1.0758418, 2.00001, 2.00001, 2.00001, 2.00001, -0.33896056, 2.00001, 2.00001, 2.00001, 2.00001, -1.1444881, 2.00001, 2.00001, 2.00001, 2.00001, 2.00001, 0.72680837, 0.34552255, -0.3447316, -0.33481318, 2.00001, 0.5174415, 1.6488454, 1.2326653, 2.00001, -0.5588729, 1.8970221, -0.55347747, -0.4360521, 1.1022983, 0.0051618884, 2.00001, 2.00001, -0.023974456, 2.00001, 2.00001, 0.7319072, 2.2294848, -0.5489281, 2.00001, 2.00001, 0.5549945, 2.00001, -0.46969357, 2.00001, 2.00001, 0.020774594, -0.32725382, -0.45602772, 2.0295455, 2.00001, 2.00001, -0.6702874, 2969.6147, 2.00001, 2.00001, -1262.9779, -948.9106, -922.0373, -688.3694, -1445.0432, -833.3169, -1319.971, -1051.0061, -813.03864, -63.891518, -879.4337, -1220.2903, -1148.5684, -514.33856, -1074.6162, -468.82724, -88.80228, -969.3312, 89.066444, -710.559, -503.29922, -934.91595, -731.1176, -149.15178, 505.03732, -443.36838, -815.918, 348.8786, -571.0341, -332.0574, -489.13605, 229.04662, -588.88666, 49.831062, -876.96906, 1514.4335, -307.17166, 596.72797, -992.1875, 1179.7684, -694.4661, -969.18146, -583.01965, -88.76695, -367.46658, 1912.926, 6187.752, 353.11713, 444.34723, 1323.192, -337.35117, 400.03796, 119.989296, 878.3253, 542.94196, 1484.326, -85.569786, 879.685, 286.63782, 2147.9353, 215.32005, 2858.6296], "split_indices": [4, 4, 3, 4, 4, 4, 4, 1, 66, 76, 76, 76, 0, 76, 76, 48, 66, 3, 76, 29, 77, 22, 94, 4, 4, 3, 5, 25, 4, 4, 4, 66, 4, 0, 4, 4, 1, 3, 67, 51, 5, 25, 94, 1, 3, 5, 77, 27, 3, 77, 3, 57, 21, 2, 0, 0, 3, 77, 77, 1, 0, 53, 93, 0, 0, 0, 0, 0, 0, 0, 0, 0, 0, 0, 0, 0, 0, 0, 0, 0, 0, 0, 0, 0, 0, 0, 0, 0, 0, 0, 0, 0, 0, 0, 0, 0, 0, 0, 0, 0, 0, 0, 0, 0, 0, 0, 0, 0, 0, 0, 0, 0, 0, 0, 0, 0, 0, 0, 0, 0, 0, 0, 0, 0, 0], "split_type": [0, 0, 0, 0, 0, 0, 0, 0, 0, 0, 0, 0, 0, 0, 0, 0, 0, 0, 0, 0, 0, 0, 0, 0, 0, 0, 0, 0, 0, 0, 0, 0, 0, 0, 0, 0, 0, 0, 0, 0, 0, 0, 0, 0, 0, 0, 0, 0, 0, 0, 0, 0, 0, 0, 0, 0, 0, 0, 0, 0, 0, 0, 0, 0, 0, 0, 0, 0, 0, 0, 0, 0, 0, 0, 0, 0, 0, 0, 0, 0, 0, 0, 0, 0, 0, 0, 0, 0, 0, 0, 0, 0, 0, 0, 0, 0, 0, 0, 0, 0, 0, 0, 0, 0, 0, 0, 0, 0, 0, 0, 0, 0, 0, 0, 0, 0, 0, 0, 0, 0, 0, 0, 0, 0, 0], "sum_hessian": [17619.0, 12515.0, 5104.0, 5506.0, 7009.0, 3106.0, 1998.0, 2547.0, 2959.0, 4603.0, 2406.0, 2824.0, 282.0, 1303.0, 695.0, 1960.0, 587.0, 215.0, 2744.0, 148.0, 4455.0, 78.0, 2328.0, 159.0, 2665.0, 172.0, 110.0, 80.0, 1223.0, 43.0, 652.0, 800.0, 1160.0, 204.0, 383.0, 13.0, 202.0, 75.0, 2669.0, 117.0, 31.0, 121.0, 4334.0, 4.0, 74.0, 96.0, 2232.0, 151.0, 8.0, 1901.0, 764.0, 43.0, 129.0, 98.0, 12.0, 10.0, 70.0, 596.0, 627.0, 40.0, 3.0, 401.0, 251.0, 104.0, 696.0, 351.0, 809.0, 199.0, 5.0, 195.0, 188.0, 5.0, 8.0, 58.0, 144.0, 69.0, 6.0, 78.0, 2591.0, 2.0, 115.0, 9.0, 22.0, 30.0, 91.0, 143.0, 4191.0, 3.0, 1.0, 72.0, 2.0, 59.0, 37.0, 73.0, 2159.0, 125.0, 26.0, 3.0, 5.0, 104.0, 1797.0, 19.0, 745.0, 19.0, 24.0, 121.0, 8.0, 96.0, 2.0, 1.0, 11.0, 6.0, 4.0, 59.0, 11.0, 45.0, 551.0, 58.0, 569.0, 16.0, 24.0, 12.0, 389.0, 6.0, 245.0], "tree_param": {"num_deleted": "0", "num_feature": "98", "num_nodes": "125", "size_leaf_vector": "1"}}, {"base_weights": [-0.12838528, -3573.4514, 7698.5723, -7279.925, -1431.8861, 4604.4214, 13158.541, -6487.059, -11106.492, -3120.7808, 114.083145, 5335.8506, -3902.1116, 9331.229, 20425.828, -8531.473, -5547.9233, -9095.494, -11880.011, -9099.214, -2918.2424, -6576.219, 352.24774, 3627.7869, 8612.108, -5738.444, -1004.9259, -612.31775, 9970.663, 6716.0635, 21318.33, -7835.211, -9859.439, -9465.278, -5298.036, -11709.747, -7630.033, -8035.9946, -12065.9375, -1116.2872, -9664.504, -9304.841, -2727.3025, -7404.491, -3236.2935, -5135.3027, 560.8217, -5440.789, 4098.205, -1061.672, 9383.6875, -7834.849, -4984.7495, -2703.069, 12004.389, -2851.153, 4823.7144, 5904.4697, 11811.603, 4527.587, 2746.8936, 24122.904, 17896.36, -957.7843, -672.8822, -1261.1703, -934.21936, -1247.7299, -853.4835, -1045.2094, -510.7753, -652.5058, -1198.6866, -1054.5106, -716.8854, -110.39844, -825.18475, -836.1225, -1229.4073, 20.952589, -586.1396, -353.56512, -1010.6204, -499.8565, -987.7684, -772.45935, -255.61348, 174.81114, -776.9811, 100.69346, -519.6093, -570.6426, -273.28113, -581.5314, 75.73727, -595.48834, -160.03842, -394.22302, 441.74243, -294.84314, 654.7817, -169.46162, 1015.88617, -1027.7001, -700.66766, -525.19556, -80.876495, -331.09872, 1785.3977, 5878.3647, 320.74805, -390.5743, 332.4475, -40.22184, 699.9229, -205.40779, 647.8581, -420.0339, 1214.1047, -17.37714, 859.5749, 2037.7598, 2779.5405, 810.6442, 1933.9219], "categories": [], "categories_nodes": [], "categories_segments": [], "categories_sizes": [], "default_left": [0, 0, 0, 1, 0, 1, 0, 0, 0, 0, 0, 1, 0, 0, 0, 0, 0, 0, 0, 0, 0, 0, 0, 0, 0, 0, 0, 0, 0, 0, 0, 0, 0, 0, 0, 0, 0, 0, 0, 1, 0, 0, 0, 0, 0, 0, 0, 0, 0, 0, 0, 0, 0, 0, 0, 0, 0, 0, 0, 0, 0, 0, 0, 0, 0, 0, 0, 0, 0, 0, 0, 0, 0, 0, 0, 0, 0, 0, 0, 0, 0, 0, 0, 0, 0, 0, 0, 0, 0, 0, 0, 0, 0, 0, 0, 0, 0, 0, 0, 0, 0, 0, 0, 0, 0, 0, 0, 0, 0, 0, 0, 0, 0, 0, 0, 0, 0, 0, 0, 0, 0, 0, 0, 0, 0], "id": 2, "left_children": [1, 3, 5, 7, 9, 11, 13, 15, 17, 19, 21, 23, 25, 27, 29, 31, 33, 35, 37, 39, 41, 43, 45, 47, 49, 51, 53, 55, 57, 59, 61, 63, 65, 67, 69, 71, 73, 75, 77, 79, 81, 83, 85, 87, 89, 91, 93, 95, 97, 99, 101, 103, 105, 107, 109, 111, 113, 115, 117, 119, -1, 121, 123, -1, -1, -1, -1, -1, -1, -1, -1, -1, -1, -1, -1, -1, -1, -1, -1, -1, -1, -1, -1, -1, -1, -1, -1, -1, -1, -1, -1, -1, -1, -1, -1, -1, -1, -1, -1, -1, -1, -1, -1, -1, -1, -1, -1, -1, -1, -1, -1, -1, -1, -1, -1, -1, -1, -1, -1, -1, -1, -1, -1, -1, -1], "loss_changes": [484752720000.0, 95519244000.0, 94309155000.0, 13298582000.0, 19919514000.0, 22214427000.0, 55994024000.0, 6966362000.0, 1066385400.0, 4388245500.0, 6350395000.0, 18351792000.0, 1499848700.0, 8430780400.0, 8373076000.0, 984211460.0, 2402975700.0, 730507260.0, 290406400.0, 526219260.0, 4276865000.0, 355028480.0, 4407148000.0, 9241176000.0, 8407073000.0, 234293760.0, 2484625000.0, 999554050.0, 9249858000.0, 1873987800.0, 5835227000.0, 1396998100.0, 438800400.0, 311083000.0, 2259173400.0, 29542400.0, 112615940.0, 32786304.0, 332480500.0, 57848260.0, 264758270.0, 202241020.0, 2911627300.0, 378037760.0, 246392540.0, 177874180.0, 4651400000.0, 201723400.0, 5291901000.0, 1225316900.0, 8965497000.0, 16983296.0, 140812800.0, 1296317700.0, 5161119000.0, 390724350.0, 275673400.0, 1795251200.0, 4566417400.0, 785655100.0, 0.0, 4330242000.0, 4052615200.0, 0.0, 0.0, 0.0, 0.0, 0.0, 0.0, 0.0, 0.0, 0.0, 0.0, 0.0, 0.0, 0.0, 0.0, 0.0, 0.0, 0.0, 0.0, 0.0, 0.0, 0.0, 0.0, 0.0, 0.0, 0.0, 0.0, 0.0, 0.0, 0.0, 0.0, 0.0, 0.0, 0.0, 0.0, 0.0, 0.0, 0.0, 0.0, 0.0, 0.0, 0.0, 0.0, 0.0, 0.0, 0.0, 0.0, 0.0, 0.0, 0.0, 0.0, 0.0, 0.0, 0.0, 0.0, 0.0, 0.0, 0.0, 0.0, 0.0, 0.0, 0.0, 0.0], "parents": [2147483647, 0, 0, 1, 1, 2, 2, 3, 3, 4, 4, 5, 5, 6, 6, 7, 7, 8, 8, 9, 9, 10, 10, 11, 11, 12, 12, 13, 13, 14, 14, 15, 15, 16, 16, 17, 17, 18, 18, 19, 19, 20, 20, 21, 21, 22, 22, 23, 23, 24, 24, 25, 25, 26, 26, 27, 27, 28, 28, 29, 29, 30, 30, 31, 31, 32, 32, 33, 33, 34, 34, 35, 35, 36, 36, 37, 37, 38, 38, 39, 39, 40, 40, 41, 41, 42, 42, 43, 43, 44, 44, 45, 45, 46, 46, 47, 47, 48, 48, 49, 49, 50, 50, 51, 51, 52, 52, 53, 53, 54, 54, 55, 55, 56, 56, 57, 57, 58, 58, 59, 59, 61, 61, 62, 62], "right_children": [2, 4, 6, 8, 10, 12, 14, 16, 18, 20, 22, 24, 26, 28, 30, 32, 34, 36, 38, 40, 42, 44, 46, 48, 50, 52, 54, 56, 58, 60, 62, 64, 66, 68, 70, 72, 74, 76, 78, 80, 82, 84, 86, 88, 90, 92, 94, 96, 98, 100, 102, 104, 106, 108, 110, 112, 114, 116, 118, 120, -1, 122, 124, -1, -1, -1, -1, -1, -1, -1, -1, -1, -1, -1, -1, -1, -1, -1, -1, -1, -1, -1, -1, -1, -1, -1, -1, -1, -1, -1, -1, -1, -1, -1, -1, -1, -1, -1, -1, -1, -1, -1, -1, -1, -1, -1, -1, -1, -1, -1, -1, -1, -1, -1, -1, -1, -1, -1, -1, -1, -1, -1, -1, -1, -1], "split_conditions": [-0.00888656, -0.3791243, 1.0798347, 1.0758418, -0.23696792, 1.430915, 0.8784192, -0.5172153, 1.1287547, 2.00001, 2.00001, 0.2704888, -0.33896056, 2.00001, 2.00001, 2.00001, 2.00001, -0.55347747, 2.00001, -0.96954143, 2.00001, 2.00001, 2.00001, 2.00001, 2.00001, -0.3447316, -0.33481318, 2.00001, 0.37338418, 1.6488454, 2.00001, -0.6053675, 2.00001, 2.00001, 2.00001, 2.00001, 2.00001, -0.55143183, 2.00001, 1.0493852, 2.00001, 2.00001, 2.00001, -0.8945642, -0.023974456, 0.3678298, 2.00001, 2.00001, 2.00001, 2.00001, 2.00001, 1.9033141, 2.00001, 0.020774594, -0.32725382, 2.0295455, 2.00001, 2.00001, 2.00001, 2.00001, 2746.8936, 1.1505171, 2.00001, -957.7843, -672.8822, -1261.1703, -934.21936, -1247.7299, -853.4835, -1045.2094, -510.7753, -652.5058, -1198.6866, -1054.5106, -716.8854, -110.39844, -825.18475, -836.1225, -1229.4073, 20.952589, -586.1396, -353.56512, -1010.6204, -499.8565, -987.7684, -772.45935, -255.61348, 174.81114, -776.9811, 100.69346, -519.6093, -570.6426, -273.28113, -581.5314, 75.73727, -595.48834, -160.03842, -394.22302, 441.74243, -294.84314, 654.7817, -169.46162, 1015.88617, -1027.7001, -700.66766, -525.19556, -80.876495, -331.09872, 1785.3977, 5878.3647, 320.74805, -390.5743, 332.4475, -40.22184, 699.9229, -205.40779, 647.8581, -420.0339, 1214.1047, -17.37714, 859.5749, 2037.7598, 2779.5405, 810.6442, 1933.9219], "split_indices": [4, 4, 3, 1, 4, 4, 4, 4, 1, 66, 76, 4, 0, 76, 76, 6, 66, 4, 70, 3, 76, 29, 94, 76, 77, 3, 5, 27, 4, 4, 51, 4, 66, 42, 94, 57, 67, 5, 96, 1, 6, 25, 94, 3, 5, 5, 77, 29, 94, 27, 76, 4, 21, 2, 0, 3, 29, 77, 93, 29, 0, 4, 77, 0, 0, 0, 0, 0, 0, 0, 0, 0, 0, 0, 0, 0, 0, 0, 0, 0, 0, 0, 0, 0, 0, 0, 0, 0, 0, 0, 0, 0, 0, 0, 0, 0, 0, 0, 0, 0, 0, 0, 0, 0, 0, 0, 0, 0, 0, 0, 0, 0, 0, 0, 0, 0, 0, 0, 0, 0, 0, 0, 0, 0, 0], "split_type": [0, 0, 0, 0, 0, 0, 0, 0, 0, 0, 0, 0, 0, 0, 0, 0, 0, 0, 0, 0, 0, 0, 0, 0, 0, 0, 0, 0, 0, 0, 0, 0, 0, 0, 0, 0, 0, 0, 0, 0, 0, 0, 0, 0, 0, 0, 0, 0, 0, 0, 0, 0, 0, 0, 0, 0, 0, 0, 0, 0, 0, 0, 0, 0, 0, 0, 0, 0, 0, 0, 0, 0, 0, 0, 0, 0, 0, 0, 0, 0, 0, 0, 0, 0, 0, 0, 0, 0, 0, 0, 0, 0, 0, 0, 0, 0, 0, 0, 0, 0, 0, 0, 0, 0, 0, 0, 0, 0, 0, 0, 0, 0, 0, 0, 0, 0, 0, 0, 0, 0, 0, 0, 0, 0, 0], "sum_hessian": [17619.0, 12034.0, 5585.0, 4406.0, 7628.0, 3566.0, 2019.0, 3652.0, 754.0, 3645.0, 3983.0, 3284.0, 282.0, 1324.0, 695.0, 1147.0, 2505.0, 213.0, 541.0, 118.0, 3527.0, 136.0, 3847.0, 2160.0, 1124.0, 172.0, 110.0, 80.0, 1244.0, 43.0, 652.0, 757.0, 390.0, 148.0, 2357.0, 74.0, 139.0, 27.0, 514.0, 8.0, 110.0, 101.0, 3426.0, 108.0, 28.0, 140.0, 3707.0, 106.0, 2054.0, 83.0, 1041.0, 43.0, 129.0, 98.0, 12.0, 57.0, 23.0, 389.0, 855.0, 40.0, 3.0, 355.0, 297.0, 291.0, 466.0, 58.0, 332.0, 32.0, 116.0, 82.0, 2275.0, 5.0, 69.0, 16.0, 123.0, 1.0, 26.0, 32.0, 482.0, 7.0, 1.0, 8.0, 102.0, 13.0, 88.0, 112.0, 3314.0, 4.0, 104.0, 9.0, 19.0, 112.0, 28.0, 110.0, 3597.0, 93.0, 13.0, 78.0, 1976.0, 67.0, 16.0, 68.0, 973.0, 8.0, 35.0, 121.0, 8.0, 96.0, 2.0, 1.0, 11.0, 49.0, 8.0, 7.0, 16.0, 26.0, 363.0, 17.0, 838.0, 19.0, 21.0, 179.0, 176.0, 39.0, 258.0], "tree_param": {"num_deleted": "0", "num_feature": "98", "num_nodes": "125", "size_leaf_vector": "1"}}, {"base_weights": [-0.235498, -2991.056, 7473.846, -5759.426, -477.37418, 4755.7446, 12328.298, -7714.2344, -4245.1606, -1523.09, 1263.7073, 5550.12, -3440.727, 8354.733, 18033.379, -6924.245, -10370.338, -8636.432, -3930.4502, -6843.2856, -1339.8511, -5942.624, 1513.023, 4516.7915, 10940.968, -3728.5188, 1778.0721, -1.1491662, 8905.672, 14864.913, 22043.275, -8146.749, -6090.276, -11706.107, -9631.337, -7420.919, -10788.888, -9124.13, -3781.8423, -7623.363, -3806.8984, -6875.774, -1175.0859, 2051.5122, -6373.359, -4053.9907, 1757.4673, -3853.2456, 5024.5225, -10043.075, 11986.848, 3671.8323, -4275.0283, 3752.259, -3145.8655, 6993.732, 11577.526, 2715.8772, 15970.936, 25333.902, 17986.332, -1038.1862, -773.4465, -745.3017, -552.0117, -1179.6416, -669.9652, -1073.2333, -847.5306, -405.90967, -839.652, -1090.3116, -93.95498, 14.293945, -923.3548, -850.80414, -360.81223, -31.083399, -775.8403, 83.999084, -583.8422, -382.76065, -781.2798, -903.145, -108.034645, 471.40924, -429.94043, -9.950252, -688.76556, -470.63916, -242.90083, -802.8739, 189.50728, -489.00644, 119.46687, -293.07516, 554.1682, -1159.3135, 1202.911, 1006.93195, 1541.142, 5584.4463, -201.32776, -531.0728, -231.35728, 572.27045, -262.811, -671.0928, -237.91081, 340.4117, 785.3503, 1677.0709, 1025.2341, 1086.3174, 72.43121, 382.90143, 1703.2391, 2581.652, 356.85812, 3123.0105, 1638.1571], "categories": [], "categories_nodes": [], "categories_segments": [], "categories_sizes": [], "default_left": [0, 0, 0, 0, 0, 1, 0, 1, 0, 0, 0, 1, 0, 0, 0, 0, 0, 1, 0, 0, 0, 0, 0, 0, 0, 0, 0, 0, 0, 0, 0, 0, 0, 0, 0, 0, 0, 0, 0, 0, 0, 0, 0, 1, 0, 0, 0, 0, 0, 0, 0, 0, 0, 0, 0, 0, 0, 0, 0, 0, 0, 0, 0, 0, 0, 0, 0, 0, 0, 0, 0, 0, 0, 0, 0, 0, 0, 0, 0, 0, 0, 0, 0, 0, 0, 0, 0, 0, 0, 0, 0, 0, 0, 0, 0, 0, 0, 0, 0, 0, 0, 0, 0, 0, 0, 0, 0, 0, 0, 0, 0, 0, 0, 0, 0, 0, 0, 0, 0, 0, 0], "id": 3, "left_children": [1, 3, 5, 7, 9, 11, 13, 15, 17, 19, 21, 23, 25, 27, 29, 31, 33, 35, 37, 39, 41, 43, 45, 47, 49, 51, -1, 53, 55, 57, 59, 61, 63, 65, 67, 69, 71, 73, 75, 77, 79, 81, 83, 85, 87, 89, 91, 93, 95, 97, 99, 101, 103, 105, 107, 109, 111, 113, 115, 117, 119, -1, -1, -1, -1, -1, -1, -1, -1, -1, -1, -1, -1, -1, -1, -1, -1, -1, -1, -1, -1, -1, -1, -1, -1, -1, -1, -1, -1, -1, -1, -1, -1, -1, -1, -1, -1, -1, -1, -1, -1, -1, -1, -1, -1, -1, -1, -1, -1, -1, -1, -1, -1, -1, -1, -1, -1, -1, -1, -1, -1], "loss_changes": [393893450000.0, 87573770000.0, 66390850000.0, 17695277000.0, 12012926000.0, 21049868000.0, 40813134000.0, 5411012600.0, 4632998000.0, 4009231400.0, 4457500700.0, 16355746000.0, 1813000000.0, 4912029700.0, 9086878000.0, 2006786000.0, 476573700.0, 508611600.0, 2399047700.0, 295478270.0, 3627660800.0, 298873340.0, 3264940500.0, 10528936000.0, 10501218000.0, 1160251400.0, 0.0, 802632260.0, 5032567000.0, 5559902000.0, 3883040800.0, 670728200.0, 893562900.0, 15009792.0, 405430270.0, 448047600.0, 78637060.0, 89537020.0, 2487414800.0, 104237060.0, 288112220.0, 298560000.0, 2872201700.0, 104816904.0, 254217980.0, 95642370.0, 3104396300.0, 749037700.0, 9610437000.0, 926358500.0, 2806407200.0, 6044573000.0, 524023300.0, 404777120.0, 85174850.0, 1781805000.0, 2690949000.0, 576263000.0, 4858028000.0, 1767137300.0, 2655113200.0, 0.0, 0.0, 0.0, 0.0, 0.0, 0.0, 0.0, 0.0, 0.0, 0.0, 0.0, 0.0, 0.0, 0.0, 0.0, 0.0, 0.0, 0.0, 0.0, 0.0, 0.0, 0.0, 0.0, 0.0, 0.0, 0.0, 0.0, 0.0, 0.0, 0.0, 0.0, 0.0, 0.0, 0.0, 0.0, 0.0, 0.0, 0.0, 0.0, 0.0, 0.0, 0.0, 0.0, 0.0, 0.0, 0.0, 0.0, 0.0, 0.0, 0.0, 0.0, 0.0, 0.0, 0.0, 0.0, 0.0, 0.0, 0.0, 0.0, 0.0], "parents": [2147483647, 0, 0, 1, 1, 2, 2, 3, 3, 4, 4, 5, 5, 6, 6, 7, 7, 8, 8, 9, 9, 10, 10, 11, 11, 12, 12, 13, 13, 14, 14, 15, 15, 16, 16, 17, 17, 18, 18, 19, 19, 20, 20, 21, 21, 22, 22, 23, 23, 24, 24, 25, 25, 27, 27, 28, 28, 29, 29, 30, 30, 31, 31, 32, 32, 33, 33, 34, 34, 35, 35, 36, 36, 37, 37, 38, 38, 39, 39, 40, 40, 41, 41, 42, 42, 43, 43, 44, 44, 45, 45, 46, 46, 47, 47, 48, 48, 49, 49, 50, 50, 51, 51, 52, 52, 53, 53, 54, 54, 55, 55, 56, 56, 57, 57, 58, 58, 59, 59, 60, 60], "right_children": [2, 4, 6, 8, 10, 12, 14, 16, 18, 20, 22, 24, 26, 28, 30, 32, 34, 36, 38, 40, 42, 44, 46, 48, 50, 52, -1, 54, 56, 58, 60, 62, 64, 66, 68, 70, 72, 74, 76, 78, 80, 82, 84, 86, 88, 90, 92, 94, 96, 98, 100, 102, 104, 106, 108, 110, 112, 114, 116, 118, 120, -1, -1, -1, -1, -1, -1, -1, -1, -1, -1, -1, -1, -1, -1, -1, -1, -1, -1, -1, -1, -1, -1, -1, -1, -1, -1, -1, -1, -1, -1, -1, -1, -1, -1, -1, -1, -1, -1, -1, -1, -1, -1, -1, -1, -1, -1, -1, -1, -1, -1, -1, -1, -1, -1, -1, -1, -1, -1, -1, -1], "split_conditions": [0.036748532, -0.31753513, 1.1798043, -0.4603126, -0.13700862, 1.430915, 0.84973574, 1.0758418, 2.00001, 2.00001, 2.00001, 0.50515753, 0.020774594, 2.00001, 1.1505171, 2.00001, 2.00001, 1.1022983, 2.00001, 2.00001, 2.00001, 2.00001, 2.00001, 2.00001, -0.46969357, 2.00001, 1778.0721, -0.45863536, 0.58272594, 2.00001, 2.00001, 2.00001, -0.5588729, 1.8970221, -0.55347747, -0.944549, 0.059110116, -0.1325675, 2.00001, 2.00001, -0.023974456, 2.00001, 2.00001, 0.7319072, 2.00001, 0.27046698, 2.00001, 2.00001, 2.00001, 0.020774594, 0.6989216, 0.17632067, -0.32725382, 1.4521669, 0.30706462, 0.17431882, 2.00001, 2.00001, 2.00001, 4.088547, 2.00001, -1038.1862, -773.4465, -745.3017, -552.0117, -1179.6416, -669.9652, -1073.2333, -847.5306, -405.90967, -839.652, -1090.3116, -93.95498, 14.293945, -923.3548, -850.80414, -360.81223, -31.083399, -775.8403, 83.999084, -583.8422, -382.76065, -781.2798, -903.145, -108.034645, 471.40924, -429.94043, -9.950252, -688.76556, -470.63916, -242.90083, -802.8739, 189.50728, -489.00644, 119.46687, -293.07516, 554.1682, -1159.3135, 1202.911, 1006.93195, 1541.142, 5584.4463, -201.32776, -531.0728, -231.35728, 572.27045, -262.811, -671.0928, -237.91081, 340.4117, 785.3503, 1677.0709, 1025.2341, 1086.3174, 72.43121, 382.90143, 1703.2391, 2581.652, 356.85812, 3123.0105, 1638.1571], "split_indices": [4, 4, 3, 4, 4, 4, 4, 1, 66, 76, 76, 4, 2, 76, 4, 48, 66, 1, 76, 29, 77, 22, 94, 76, 3, 37, 0, 1, 4, 76, 51, 42, 4, 0, 4, 3, 2, 2, 94, 51, 5, 25, 93, 1, 25, 5, 93, 27, 77, 2, 4, 1, 0, 0, 4, 4, 57, 25, 77, 4, 22, 0, 0, 0, 0, 0, 0, 0, 0, 0, 0, 0, 0, 0, 0, 0, 0, 0, 0, 0, 0, 0, 0, 0, 0, 0, 0, 0, 0, 0, 0, 0, 0, 0, 0, 0, 0, 0, 0, 0, 0, 0, 0, 0, 0, 0, 0, 0, 0, 0, 0, 0, 0, 0, 0, 0, 0, 0, 0, 0, 0], "split_type": [0, 0, 0, 0, 0, 0, 0, 0, 0, 0, 0, 0, 0, 0, 0, 0, 0, 0, 0, 0, 0, 0, 0, 0, 0, 0, 0, 0, 0, 0, 0, 0, 0, 0, 0, 0, 0, 0, 0, 0, 0, 0, 0, 0, 0, 0, 0, 0, 0, 0, 0, 0, 0, 0, 0, 0, 0, 0, 0, 0, 0, 0, 0, 0, 0, 0, 0, 0, 0, 0, 0, 0, 0, 0, 0, 0, 0, 0, 0, 0, 0, 0, 0, 0, 0, 0, 0, 0, 0, 0, 0, 0, 0, 0, 0, 0, 0, 0, 0, 0, 0, 0, 0, 0, 0, 0, 0, 0, 0, 0, 0, 0, 0, 0, 0, 0, 0, 0, 0, 0, 0], "sum_hessian": [17619.0, 12584.0, 5035.0, 5988.0, 6596.0, 3229.0, 1806.0, 2612.0, 3376.0, 4121.0, 2475.0, 2944.0, 285.0, 1066.0, 740.0, 2016.0, 596.0, 224.0, 3152.0, 136.0, 3985.0, 82.0, 2393.0, 2472.0, 472.0, 282.0, 3.0, 66.0, 1000.0, 416.0, 324.0, 814.0, 1202.0, 207.0, 389.0, 146.0, 78.0, 86.0, 3066.0, 107.0, 29.0, 114.0, 3871.0, 4.0, 78.0, 100.0, 2293.0, 141.0, 2331.0, 22.0, 450.0, 19.0, 263.0, 30.0, 36.0, 585.0, 415.0, 35.0, 381.0, 176.0, 148.0, 123.0, 691.0, 351.0, 851.0, 202.0, 5.0, 195.0, 194.0, 34.0, 112.0, 77.0, 1.0, 1.0, 85.0, 107.0, 2959.0, 2.0, 105.0, 9.0, 20.0, 28.0, 86.0, 45.0, 3826.0, 3.0, 1.0, 6.0, 72.0, 70.0, 30.0, 31.0, 2262.0, 117.0, 24.0, 142.0, 2189.0, 21.0, 1.0, 291.0, 159.0, 1.0, 18.0, 171.0, 92.0, 23.0, 7.0, 5.0, 31.0, 114.0, 471.0, 82.0, 333.0, 6.0, 29.0, 31.0, 350.0, 172.0, 4.0, 14.0, 134.0], "tree_param": {"num_deleted": "0", "num_feature": "98", "num_nodes": "121", "size_leaf_vector": "1"}}, {"base_weights": [0.1377448, -2544.2297, 7153.8667, -5079.891, -185.5175, 4959.0977, 11977.407, -6831.159, -3643.0166, -1228.8623, 1324.0458, 5727.6304, -2987.291, 8995.684, 17990.652, -6132.355, -9292.955, -7762.44, -3362.1494, -6015.0947, -1056.8059, -5089.1265, 1555.1747, 4433.9546, 9709.915, 10046.416, -3406.0312, 6306.082, 10870.63, 20729.576, 14273.583, -7273.06, -5395.383, -10031.215, -8146.7607, -1496.3713, -8118.4614, -8277.577, -3226.4524, -6689.919, -3470.06, -6175.7075, -903.0244, -5718.5024, 2548.8208, -4345.0034, 1756.5206, -3427.7793, 4939.8716, -7990.442, 10421.336, 2497.1406, 2431.2585, 3573.806, -3942.215, -1971.7595, 6678.654, 1022.8802, 11775.945, 18555.387, 25833.846, 2326.7344, 12786.997, -549.48126, -771.8685, -670.98334, -492.25732, -613.80023, -1018.8068, -648.0175, -889.73334, -753.5814, 28.678303, -721.63666, -997.8171, -862.9235, -431.01413, -758.573, -307.31378, -83.275276, -690.7187, 76.43908, -523.70807, -337.30798, -702.6271, -683.4704, -77.62956, 14.411621, -606.9184, -513.91644, 596.801, -601.3241, -151.85901, -362.7446, 199.40749, -429.135, 88.892204, -269.3641, 548.5673, -1006.0122, 1261.0267, 17.80156, 1100.7753, 495.36798, 126.21041, 5305.224, -182.25456, -452.77188, -27.089725, 1644.0637, -402.19382, -542.943, 695.14386, 1051.7753, -5.4836326, 247.59964, 1271.4469, -41.73008, 1885.4008, 2699.2778, 328.30954, 2244.9822, 1121.8441], "categories": [], "categories_nodes": [], "categories_segments": [], "categories_sizes": [], "default_left": [0, 0, 0, 0, 0, 1, 0, 1, 0, 0, 0, 1, 0, 0, 0, 0, 0, 0, 0, 0, 0, 0, 0, 0, 0, 0, 0, 0, 0, 0, 0, 0, 0, 0, 0, 0, 1, 0, 0, 0, 0, 0, 0, 0, 0, 0, 0, 0, 0, 0, 0, 0, 0, 0, 0, 0, 0, 0, 0, 0, 0, 0, 0, 0, 0, 0, 0, 0, 0, 0, 0, 0, 0, 0, 0, 0, 0, 0, 0, 0, 0, 0, 0, 0, 0, 0, 0, 0, 0, 0, 0, 0, 0, 0, 0, 0, 0, 0, 0, 0, 0, 0, 0, 0, 0, 0, 0, 0, 0, 0, 0, 0, 0, 0, 0, 0, 0, 0, 0, 0, 0, 0, 0], "id": 4, "left_children": [1, 3, 5, 7, 9, 11, 13, 15, 17, 19, 21, 23, 25, 27, 29, 31, 33, 35, 37, 39, 41, 43, 45, 47, 49, 51, 53, 55, 57, 59, 61, 63, 65, 67, 69, 71, 73, 75, 77, 79, 81, 83, 85, 87, 89, 91, 93, 95, 97, 99, 101, 103, -1, 105, 107, 109, 111, 113, 115, 117, 119, -1, 121, -1, -1, -1, -1, -1, -1, -1, -1, -1, -1, -1, -1, -1, -1, -1, -1, -1, -1, -1, -1, -1, -1, -1, -1, -1, -1, -1, -1, -1, -1, -1, -1, -1, -1, -1, -1, -1, -1, -1, -1, -1, -1, -1, -1, -1, -1, -1, -1, -1, -1, -1, -1, -1, -1, -1, -1, -1, -1, -1, -1], "loss_changes": [320732430000.0, 77738746000.0, 48882237000.0, 15737537000.0, 10609219000.0, 19431449000.0, 25746784000.0, 4797726700.0, 3957489700.0, 3273652200.0, 4088601600.0, 14891975000.0, 1567842600.0, 4812931000.0, 4570530000.0, 1811062800.0, 444608500.0, 476408830.0, 2124398600.0, 213793800.0, 3021964300.0, 476060670.0, 3165275100.0, 8727400000.0, 9023873000.0, 908581060.0, 1035784450.0, 1246805000.0, 5060759600.0, 2550300700.0, 2456699000.0, 639868900.0, 800378900.0, 165851140.0, 253816830.0, 142161500.0, 275264500.0, 82792450.0, 2075281400.0, 131685890.0, 235956420.0, 243286780.0, 2802348800.0, 183850750.0, 240964000.0, 405799550.0, 3295499800.0, 499609100.0, 8589193000.0, 1320693500.0, 4100718600.0, 14985344.0, 0.0, 5436750300.0, 544763900.0, 745599740.0, 1302751200.0, 501982980.0, 4515930000.0, 1112666100.0, 1976033300.0, 0.0, 2461194200.0, 0.0, 0.0, 0.0, 0.0, 0.0, 0.0, 0.0, 0.0, 0.0, 0.0, 0.0, 0.0, 0.0, 0.0, 0.0, 0.0, 0.0, 0.0, 0.0, 0.0, 0.0, 0.0, 0.0, 0.0, 0.0, 0.0, 0.0, 0.0, 0.0, 0.0, 0.0, 0.0, 0.0, 0.0, 0.0, 0.0, 0.0, 0.0, 0.0, 0.0, 0.0, 0.0, 0.0, 0.0, 0.0, 0.0, 0.0, 0.0, 0.0, 0.0, 0.0, 0.0, 0.0, 0.0, 0.0, 0.0, 0.0, 0.0, 0.0, 0.0], "parents": [2147483647, 0, 0, 1, 1, 2, 2, 3, 3, 4, 4, 5, 5, 6, 6, 7, 7, 8, 8, 9, 9, 10, 10, 11, 11, 12, 12, 13, 13, 14, 14, 15, 15, 16, 16, 17, 17, 18, 18, 19, 19, 20, 20, 21, 21, 22, 22, 23, 23, 24, 24, 25, 25, 26, 26, 27, 27, 28, 28, 29, 29, 30, 30, 31, 31, 32, 32, 33, 33, 34, 34, 35, 35, 36, 36, 37, 37, 38, 38, 39, 39, 40, 40, 41, 41, 42, 42, 43, 43, 44, 44, 45, 45, 46, 46, 47, 47, 48, 48, 49, 49, 50, 50, 51, 51, 53, 53, 54, 54, 55, 55, 56, 56, 57, 57, 58, 58, 59, 59, 60, 60, 62, 62], "right_children": [2, 4, 6, 8, 10, 12, 14, 16, 18, 20, 22, 24, 26, 28, 30, 32, 34, 36, 38, 40, 42, 44, 46, 48, 50, 52, 54, 56, 58, 60, 62, 64, 66, 68, 70, 72, 74, 76, 78, 80, 82, 84, 86, 88, 90, 92, 94, 96, 98, 100, 102, 104, -1, 106, 108, 110, 112, 114, 116, 118, 120, -1, 122, -1, -1, -1, -1, -1, -1, -1, -1, -1, -1, -1, -1, -1, -1, -1, -1, -1, -1, -1, -1, -1, -1, -1, -1, -1, -1, -1, -1, -1, -1, -1, -1, -1, -1, -1, -1, -1, -1, -1, -1, -1, -1, -1, -1, -1, -1, -1, -1, -1, -1, -1, -1, -1, -1, -1, -1, -1, -1, -1, -1], "split_conditions": [0.07817395, -0.30702662, 1.3797435, -0.4505005, -0.12838224, 1.6488454, 1.0048286, 1.0758418, 2.00001, 2.00001, 2.00001, 0.48667514, 2.00001, 0.58272594, 2.00001, 2.00001, -0.53416693, -1.1444881, 2.00001, 2.00001, 2.00001, 1.1798043, 2.00001, 2.00001, -0.4197088, -0.19847997, 2.00001, 2.00001, 2.00001, 1.430915, 2.00001, 2.00001, -0.5588729, 2.00001, 1.1287547, -0.055896454, 1.1287547, 0.0051618884, 2.00001, 2.00001, -0.023974456, 2.00001, 2.00001, 2.00001, -1.2637911, 2.00001, 2.00001, 2.00001, 2.00001, 0.020774594, 2.00001, -1.2637911, 2431.2585, 0.17632067, 0.7380573, -1.4510986, 2.00001, 2.00001, 2.00001, 2.00001, 4.088547, 2326.7344, 2.00001, -549.48126, -771.8685, -670.98334, -492.25732, -613.80023, -1018.8068, -648.0175, -889.73334, -753.5814, 28.678303, -721.63666, -997.8171, -862.9235, -431.01413, -758.573, -307.31378, -83.275276, -690.7187, 76.43908, -523.70807, -337.30798, -702.6271, -683.4704, -77.62956, 14.411621, -606.9184, -513.91644, 596.801, -601.3241, -151.85901, -362.7446, 199.40749, -429.135, 88.892204, -269.3641, 548.5673, -1006.0122, 1261.0267, 17.80156, 1100.7753, 495.36798, 126.21041, 5305.224, -182.25456, -452.77188, -27.089725, 1644.0637, -402.19382, -542.943, 695.14386, 1051.7753, -5.4836326, 247.59964, 1271.4469, -41.73008, 1885.4008, 2699.2778, 328.30954, 2244.9822, 1121.8441], "split_indices": [4, 4, 3, 4, 4, 4, 4, 1, 66, 76, 76, 4, 22, 4, 51, 48, 4, 3, 76, 29, 77, 3, 77, 76, 3, 0, 37, 94, 76, 4, 57, 96, 4, 58, 1, 2, 1, 3, 94, 22, 5, 25, 66, 25, 0, 27, 94, 27, 77, 2, 76, 0, 0, 1, 0, 0, 80, 25, 77, 80, 4, 0, 70, 0, 0, 0, 0, 0, 0, 0, 0, 0, 0, 0, 0, 0, 0, 0, 0, 0, 0, 0, 0, 0, 0, 0, 0, 0, 0, 0, 0, 0, 0, 0, 0, 0, 0, 0, 0, 0, 0, 0, 0, 0, 0, 0, 0, 0, 0, 0, 0, 0, 0, 0, 0, 0, 0, 0, 0, 0, 0, 0, 0], "split_type": [0, 0, 0, 0, 0, 0, 0, 0, 0, 0, 0, 0, 0, 0, 0, 0, 0, 0, 0, 0, 0, 0, 0, 0, 0, 0, 0, 0, 0, 0, 0, 0, 0, 0, 0, 0, 0, 0, 0, 0, 0, 0, 0, 0, 0, 0, 0, 0, 0, 0, 0, 0, 0, 0, 0, 0, 0, 0, 0, 0, 0, 0, 0, 0, 0, 0, 0, 0, 0, 0, 0, 0, 0, 0, 0, 0, 0, 0, 0, 0, 0, 0, 0, 0, 0, 0, 0, 0, 0, 0, 0, 0, 0, 0, 0, 0, 0, 0, 0, 0, 0, 0, 0, 0, 0, 0, 0, 0, 0, 0, 0, 0, 0, 0, 0, 0, 0, 0, 0, 0, 0, 0, 0], "sum_hessian": [17619.0, 12997.0, 4622.0, 6263.0, 6734.0, 3178.0, 1444.0, 2821.0, 3442.0, 3982.0, 2752.0, 2898.0, 280.0, 967.0, 477.0, 2200.0, 621.0, 218.0, 3224.0, 137.0, 3845.0, 95.0, 2657.0, 2189.0, 709.0, 8.0, 272.0, 399.0, 568.0, 272.0, 205.0, 860.0, 1340.0, 373.0, 248.0, 12.0, 206.0, 85.0, 3139.0, 107.0, 30.0, 111.0, 3734.0, 88.0, 7.0, 87.0, 2570.0, 132.0, 2057.0, 27.0, 682.0, 6.0, 2.0, 19.0, 253.0, 17.0, 382.0, 48.0, 520.0, 194.0, 78.0, 27.0, 178.0, 175.0, 685.0, 351.0, 989.0, 16.0, 357.0, 80.0, 168.0, 2.0, 10.0, 142.0, 64.0, 77.0, 8.0, 105.0, 3034.0, 4.0, 103.0, 9.0, 21.0, 27.0, 84.0, 77.0, 3657.0, 5.0, 83.0, 2.0, 5.0, 54.0, 33.0, 108.0, 2462.0, 110.0, 22.0, 137.0, 1920.0, 25.0, 2.0, 37.0, 645.0, 1.0, 5.0, 1.0, 18.0, 218.0, 35.0, 1.0, 16.0, 8.0, 374.0, 4.0, 44.0, 48.0, 472.0, 3.0, 191.0, 74.0, 4.0, 23.0, 155.0], "tree_param": {"num_deleted": "0", "num_feature": "98", "num_nodes": "123", "size_leaf_vector": "1"}}, {"base_weights": [0.61343116, -2886.1135, 5133.2803, -5352.41, -1304.0625, 3043.8396, 9466.66, -8089.8906, -4736.5107, -2304.7185, -173.07532, 3455.8484, -2788.9077, 6239.752, 14420.406, -6389.0234, -8743.433, -9048.49, -4417.55, -6917.191, -2148.4858, -8453.53, -61.228333, 1919.4381, 5918.2563, -4245.5576, -493.50836, 10401.927, 5418.849, 12035.014, 17857.639, -9306.304, -5580.0815, -5713.335, -8956.908, -5727.115, -9481.274, -6134.66, -3919.784, -1278.1571, -7479.7026, -6910.441, -2006.1256, -858.1141, -154.69551, -4767.185, 110.2513, -4638.307, 2190.135, -1786.1309, 6450.2817, -6116.588, -3579.6274, -1979.164, 10858.293, 7376.7285, 12752.07, 10453.083, 4668.531, 2111.9404, 12926.234, -2535.657, 18241.934, -968.0701, -415.03464, -864.8141, -514.5241, -582.5228, -61.88096, -418.354, -910.3786, -623.0339, -77.277054, -408.29483, -961.5431, -763.48895, -549.5893, -451.8958, -303.77374, -569.0356, 163.92369, -296.80978, -823.2067, -355.48923, -736.0635, -709.28894, -188.55344, 446.35138, -506.21906, -481.8553, 28.61836, 7.588337, -494.65793, -793.13776, 232.78484, 845.88995, -241.4384, -120.85608, 703.63574, -842.74915, -536.8957, -380.04343, -18.87322, -246.0618, 1424.7567, 5039.963, 336.32123, 913.1286, 613.91705, 1287.6022, -62.72002, 532.1666, 1186.8519, 865.4134, 361.6137, 1083.5272, -0.27242935, 268.93167, 1382.5104, -512.2028, -47.670315, -817.77814, 1851.3477], "categories": [], "categories_nodes": [], "categories_segments": [], "categories_sizes": [], "default_left": [0, 0, 0, 0, 0, 1, 0, 0, 0, 0, 0, 0, 0, 0, 0, 0, 0, 0, 0, 0, 0, 0, 0, 0, 0, 0, 0, 0, 0, 0, 0, 0, 0, 0, 0, 0, 0, 0, 0, 0, 0, 0, 0, 0, 0, 0, 0, 0, 0, 0, 0, 0, 0, 0, 0, 0, 0, 0, 0, 0, 0, 0, 0, 0, 0, 0, 0, 0, 0, 0, 0, 0, 0, 0, 0, 0, 0, 0, 0, 0, 0, 0, 0, 0, 0, 0, 0, 0, 0, 0, 0, 0, 0, 0, 0, 0, 0, 0, 0, 0, 0, 0, 0, 0, 0, 0, 0, 0, 0, 0, 0, 0, 0, 0, 0, 0, 0, 0, 0, 0, 0, 0, 0], "id": 5, "left_children": [1, 3, 5, 7, 9, 11, 13, 15, 17, 19, 21, 23, 25, 27, 29, 31, 33, 35, 37, 39, 41, 43, 45, 47, 49, 51, 53, 55, 57, 59, 61, 63, 65, 67, 69, 71, 73, 75, 77, 79, 81, 83, 85, -1, -1, 87, 89, 91, 93, 95, 97, 99, 101, 103, 105, 107, 109, 111, 113, 115, 117, 119, 121, -1, -1, -1, -1, -1, -1, -1, -1, -1, -1, -1, -1, -1, -1, -1, -1, -1, -1, -1, -1, -1, -1, -1, -1, -1, -1, -1, -1, -1, -1, -1, -1, -1, -1, -1, -1, -1, -1, -1, -1, -1, -1, -1, -1, -1, -1, -1, -1, -1, -1, -1, -1, -1, -1, -1, -1, -1, -1, -1, -1], "loss_changes": [261083450000.0, 43997594000.0, 57402884000.0, 7391936500.0, 7776843000.0, 10297491000.0, 32887652000.0, 842301440.0, 4911300600.0, 2612516900.0, 2988148700.0, 15117935000.0, 944141300.0, 4217979000.0, 6451003400.0, 486129660.0, 324648960.0, 300744700.0, 2842681300.0, 367910900.0, 2377810000.0, 24623360.0, 2570743000.0, 4384156700.0, 6307479600.0, 193658620.0, 1893490600.0, 1363408900.0, 3906011100.0, 4244185000.0, 2640306200.0, 52480256.0, 196978690.0, 19766912.0, 341209100.0, 72472900.0, 117897220.0, 678678500.0, 1361961000.0, 163793310.0, 342158340.0, 127919620.0, 2088814600.0, 0.0, 0.0, 327583230.0, 2666954500.0, 142793980.0, 3317746700.0, 664070300.0, 6458700000.0, 30771968.0, 96618110.0, 808487700.0, 3683246600.0, 143707140.0, 197130240.0, 917370900.0, 3798214700.0, 756353300.0, 4039147500.0, 34834844.0, 2482978800.0, 0.0, 0.0, 0.0, 0.0, 0.0, 0.0, 0.0, 0.0, 0.0, 0.0, 0.0, 0.0, 0.0, 0.0, 0.0, 0.0, 0.0, 0.0, 0.0, 0.0, 0.0, 0.0, 0.0, 0.0, 0.0, 0.0, 0.0, 0.0, 0.0, 0.0, 0.0, 0.0, 0.0, 0.0, 0.0, 0.0, 0.0, 0.0, 0.0, 0.0, 0.0, 0.0, 0.0, 0.0, 0.0, 0.0, 0.0, 0.0, 0.0, 0.0, 0.0, 0.0, 0.0, 0.0, 0.0, 0.0, 0.0, 0.0, 0.0, 0.0], "parents": [2147483647, 0, 0, 1, 1, 2, 2, 3, 3, 4, 4, 5, 5, 6, 6, 7, 7, 8, 8, 9, 9, 10, 10, 11, 11, 12, 12, 13, 13, 14, 14, 15, 15, 16, 16, 17, 17, 18, 18, 19, 19, 20, 20, 21, 21, 22, 22, 23, 23, 24, 24, 25, 25, 26, 26, 27, 27, 28, 28, 29, 29, 30, 30, 31, 31, 32, 32, 33, 33, 34, 34, 35, 35, 36, 36, 37, 37, 38, 38, 39, 39, 40, 40, 41, 41, 42, 42, 45, 45, 46, 46, 47, 47, 48, 48, 49, 49, 50, 50, 51, 51, 52, 52, 53, 53, 54, 54, 55, 55, 56, 56, 57, 57, 58, 58, 59, 59, 60, 60, 61, 61, 62, 62], "right_children": [2, 4, 6, 8, 10, 12, 14, 16, 18, 20, 22, 24, 26, 28, 30, 32, 34, 36, 38, 40, 42, 44, 46, 48, 50, 52, 54, 56, 58, 60, 62, 64, 66, 68, 70, 72, 74, 76, 78, 80, 82, 84, 86, -1, -1, 88, 90, 92, 94, 96, 98, 100, 102, 104, 106, 108, 110, 112, 114, 116, 118, 120, 122, -1, -1, -1, -1, -1, -1, -1, -1, -1, -1, -1, -1, -1, -1, -1, -1, -1, -1, -1, -1, -1, -1, -1, -1, -1, -1, -1, -1, -1, -1, -1, -1, -1, -1, -1, -1, -1, -1, -1, -1, -1, -1, -1, -1, -1, -1, -1, -1, -1, -1, -1, -1, -1, -1, -1, -1, -1, -1, -1, -1], "split_conditions": [-0.064942315, -0.3791243, 1.0798347, 2.00001, -0.23696792, 1.430915, 0.81295913, 1.1287547, 2.00001, 2.00001, 2.00001, 0.19273849, -0.33896056, 2.00001, 1.1505171, -0.58045447, 2.00001, 2.00001, -0.53876555, 2.00001, 2.00001, 0.6549636, 2.00001, 2.00001, 2.00001, -0.3447316, -0.33481318, 0.43800357, 2.00001, 2.00001, 2.00001, 0.88206077, 2.00001, 2.00001, 2.00001, 2.00001, 2.00001, -0.62581354, 2.00001, 2.00001, 2.00001, 2.00001, 2.00001, -858.1141, -154.69551, -0.8945642, 2.00001, 2.00001, 2.00001, 2.00001, 2.00001, 1.9033141, 2.00001, 0.020774594, -0.32725382, 2.00001, 1.6458689, 0.30706462, 2.00001, 2.00001, 2.00001, 2.00001, 2.00001, -968.0701, -415.03464, -864.8141, -514.5241, -582.5228, -61.88096, -418.354, -910.3786, -623.0339, -77.277054, -408.29483, -961.5431, -763.48895, -549.5893, -451.8958, -303.77374, -569.0356, 163.92369, -296.80978, -823.2067, -355.48923, -736.0635, -709.28894, -188.55344, 446.35138, -506.21906, -481.8553, 28.61836, 7.588337, -494.65793, -793.13776, 232.78484, 845.88995, -241.4384, -120.85608, 703.63574, -842.74915, -536.8957, -380.04343, -18.87322, -246.0618, 1424.7567, 5039.963, 336.32123, 913.1286, 613.91705, 1287.6022, -62.72002, 532.1666, 1186.8519, 865.4134, 361.6137, 1083.5272, -0.27242935, 268.93167, 1382.5104, -512.2028, -47.670315, -817.77814, 1851.3477], "split_indices": [4, 4, 3, 42, 4, 4, 4, 1, 43, 66, 93, 4, 0, 57, 4, 4, 70, 96, 4, 6, 76, 5, 76, 76, 76, 3, 5, 4, 70, 76, 93, 5, 67, 29, 57, 29, 68, 4, 8, 50, 19, 25, 77, 0, 0, 3, 94, 25, 93, 22, 77, 4, 21, 2, 0, 6, 5, 4, 96, 25, 77, 50, 38, 0, 0, 0, 0, 0, 0, 0, 0, 0, 0, 0, 0, 0, 0, 0, 0, 0, 0, 0, 0, 0, 0, 0, 0, 0, 0, 0, 0, 0, 0, 0, 0, 0, 0, 0, 0, 0, 0, 0, 0, 0, 0, 0, 0, 0, 0, 0, 0, 0, 0, 0, 0, 0, 0, 0, 0, 0, 0, 0, 0], "split_type": [0, 0, 0, 0, 0, 0, 0, 0, 0, 0, 0, 0, 0, 0, 0, 0, 0, 0, 0, 0, 0, 0, 0, 0, 0, 0, 0, 0, 0, 0, 0, 0, 0, 0, 0, 0, 0, 0, 0, 0, 0, 0, 0, 0, 0, 0, 0, 0, 0, 0, 0, 0, 0, 0, 0, 0, 0, 0, 0, 0, 0, 0, 0, 0, 0, 0, 0, 0, 0, 0, 0, 0, 0, 0, 0, 0, 0, 0, 0, 0, 0, 0, 0, 0, 0, 0, 0, 0, 0, 0, 0, 0, 0, 0, 0, 0, 0, 0, 0, 0, 0, 0, 0, 0, 0, 0, 0, 0, 0, 0, 0, 0, 0, 0, 0, 0, 0, 0, 0, 0, 0, 0, 0], "sum_hessian": [17619.0, 11277.0, 6342.0, 4406.0, 6871.0, 4280.0, 2062.0, 807.0, 3599.0, 3645.0, 3226.0, 3998.0, 282.0, 1250.0, 812.0, 227.0, 580.0, 246.0, 3353.0, 118.0, 3527.0, 42.0, 3184.0, 2463.0, 1535.0, 172.0, 110.0, 204.0, 1046.0, 482.0, 330.0, 47.0, 180.0, 40.0, 540.0, 30.0, 216.0, 751.0, 2602.0, 11.0, 107.0, 101.0, 3426.0, 41.0, 1.0, 111.0, 3073.0, 97.0, 2366.0, 99.0, 1436.0, 43.0, 129.0, 98.0, 12.0, 91.0, 113.0, 134.0, 912.0, 40.0, 442.0, 6.0, 324.0, 43.0, 4.0, 20.0, 160.0, 39.0, 1.0, 17.0, 523.0, 27.0, 3.0, 6.0, 210.0, 221.0, 530.0, 1547.0, 1055.0, 4.0, 7.0, 16.0, 91.0, 13.0, 88.0, 78.0, 3348.0, 3.0, 108.0, 105.0, 2968.0, 6.0, 91.0, 31.0, 2335.0, 5.0, 94.0, 102.0, 1334.0, 8.0, 35.0, 121.0, 8.0, 96.0, 2.0, 1.0, 11.0, 35.0, 56.0, 112.0, 1.0, 30.0, 104.0, 189.0, 723.0, 7.0, 33.0, 36.0, 406.0, 2.0, 4.0, 3.0, 321.0], "tree_param": {"num_deleted": "0", "num_feature": "98", "num_nodes": "123", "size_leaf_vector": "1"}}, {"base_weights": [0.54660267, -2028.9634, 5942.948, -3926.0159, 103.36335, 10172.694, 4198.87, -5538.003, -2775.445, -688.7112, 1234.2361, 6511.0293, 14488.709, 8939.568, 3374.829, -7525.4033, -4955.5405, -6442.993, -2554.4185, -4723.3247, -546.18463, -4092.3018, 1435.4307, 4104.2114, 7685.591, 12725.311, 18345.277, 6948.1123, 15243.078, 2034.2924, 6144.6885, -4437.1294, -7784.794, -8130.29, -4600.6846, -1074.7039, -6733.5654, -6532.4106, -2421.7378, -5327.734, -2354.605, -5116.522, -410.85513, -4444.1797, 4848.0303, -3759.2783, 1620.9764, -6553.1724, 4364.3857, -891.2633, 7845.136, 3840.4077, 13165.456, -2623.9897, 18820.559, 5457.638, 8449.856, 12870.083, 18751.604, 2887.7507, -2498.9954, 12499.683, 4970.955, -555.07074, -286.0277, -383.8865, -797.059, -567.3838, -842.41986, -652.77576, -424.44272, -640.94525, 47.792793, -603.81085, -824.3737, -702.5579, -469.16022, -667.29144, -229.59615, 9.521094, -549.9987, 112.104614, -415.4711, -564.2594, -74.46036, -729.29224, -31.886347, 25.153488, -478.25827, 48.566406, 614.0264, -528.8902, -118.869286, -318.87546, 182.96584, -102.199905, -745.50073, 144.51788, 504.71808, -414.83237, 806.08606, 712.6557, -133.2965, -382.38986, 1339.3074, -434.25522, -3.0764322, -422.91364, 1910.0162, 335.64346, 578.423, 185.86778, 855.28143, 575.036, 1332.9287, 106.674614, 1914.7274, 616.5078, 185.90248, -407.01694, -3.7620351, 847.2877, 1752.6201, 1063.6123, 369.2561], "categories": [], "categories_nodes": [], "categories_segments": [], "categories_sizes": [], "default_left": [0, 0, 0, 0, 0, 0, 0, 0, 0, 0, 0, 0, 0, 0, 0, 0, 0, 0, 0, 0, 0, 0, 0, 0, 0, 0, 0, 0, 0, 1, 0, 0, 0, 0, 0, 0, 1, 0, 0, 0, 0, 0, 0, 0, 0, 0, 0, 0, 0, 0, 0, 0, 0, 0, 0, 0, 0, 0, 0, 0, 0, 0, 0, 0, 0, 0, 0, 0, 0, 0, 0, 0, 0, 0, 0, 0, 0, 0, 0, 0, 0, 0, 0, 0, 0, 0, 0, 0, 0, 0, 0, 0, 0, 0, 0, 0, 0, 0, 0, 0, 0, 0, 0, 0, 0, 0, 0, 0, 0, 0, 0, 0, 0, 0, 0, 0, 0, 0, 0, 0, 0, 0, 0, 0, 0], "id": 6, "left_children": [1, 3, 5, 7, 9, 11, 13, 15, 17, 19, 21, 23, 25, 27, 29, 31, 33, 35, 37, 39, 41, 43, 45, 47, 49, 51, 53, 55, 57, 59, 61, 63, 65, 67, 69, 71, 73, 75, 77, 79, 81, 83, 85, 87, 89, 91, 93, 95, 97, -1, 99, 101, 103, 105, 107, 109, 111, 113, 115, 117, 119, 121, 123, -1, -1, -1, -1, -1, -1, -1, -1, -1, -1, -1, -1, -1, -1, -1, -1, -1, -1, -1, -1, -1, -1, -1, -1, -1, -1, -1, -1, -1, -1, -1, -1, -1, -1, -1, -1, -1, -1, -1, -1, -1, -1, -1, -1, -1, -1, -1, -1, -1, -1, -1, -1, -1, -1, -1, -1, -1, -1, -1, -1, -1, -1], "loss_changes": [212512150000.0, 53133260000.0, 33050542000.0, 12876685000.0, 5540974000.0, 20592828000.0, 12384784000.0, 3312763000.0, 3273060400.0, 2089413800.0, 2736490200.0, 1975595000.0, 3846963200.0, 5794074600.0, 10046282000.0, 489357300.0, 2487259100.0, 351535100.0, 2005139500.0, 164983040.0, 2171930400.0, 314114800.0, 2373326300.0, 680203260.0, 1330450400.0, 1572360200.0, 1903116300.0, 757436400.0, 691142660.0, 7075830300.0, 6524223500.0, 77188740.0, 410750980.0, 113925120.0, 1357713400.0, 110740950.0, 179179520.0, 78701570.0, 1966803000.0, 92067580.0, 173584200.0, 228092930.0, 2159686100.0, 144216830.0, 19566680.0, 327935600.0, 2386619000.0, 22310224.0, 451146750.0, 0.0, 1254635500.0, 366509500.0, 1578709000.0, 22149500.0, 1253720000.0, 106166780.0, 104220670.0, 152210430.0, 280462340.0, 5173861400.0, 1121348900.0, 2624495600.0, 5370736600.0, 0.0, 0.0, 0.0, 0.0, 0.0, 0.0, 0.0, 0.0, 0.0, 0.0, 0.0, 0.0, 0.0, 0.0, 0.0, 0.0, 0.0, 0.0, 0.0, 0.0, 0.0, 0.0, 0.0, 0.0, 0.0, 0.0, 0.0, 0.0, 0.0, 0.0, 0.0, 0.0, 0.0, 0.0, 0.0, 0.0, 0.0, 0.0, 0.0, 0.0, 0.0, 0.0, 0.0, 0.0, 0.0, 0.0, 0.0, 0.0, 0.0, 0.0, 0.0, 0.0, 0.0, 0.0, 0.0, 0.0, 0.0, 0.0, 0.0, 0.0, 0.0, 0.0], "parents": [2147483647, 0, 0, 1, 1, 2, 2, 3, 3, 4, 4, 5, 5, 6, 6, 7, 7, 8, 8, 9, 9, 10, 10, 11, 11, 12, 12, 13, 13, 14, 14, 15, 15, 16, 16, 17, 17, 18, 18, 19, 19, 20, 20, 21, 21, 22, 22, 23, 23, 24, 24, 25, 25, 26, 26, 27, 27, 28, 28, 29, 29, 30, 30, 31, 31, 32, 32, 33, 33, 34, 34, 35, 35, 36, 36, 37, 37, 38, 38, 39, 39, 40, 40, 41, 41, 42, 42, 43, 43, 44, 44, 45, 45, 46, 46, 47, 47, 48, 48, 50, 50, 51, 51, 52, 52, 53, 53, 54, 54, 55, 55, 56, 56, 57, 57, 58, 58, 59, 59, 60, 60, 61, 61, 62, 62], "right_children": [2, 4, 6, 8, 10, 12, 14, 16, 18, 20, 22, 24, 26, 28, 30, 32, 34, 36, 38, 40, 42, 44, 46, 48, 50, 52, 54, 56, 58, 60, 62, 64, 66, 68, 70, 72, 74, 76, 78, 80, 82, 84, 86, 88, 90, 92, 94, 96, 98, -1, 100, 102, 104, 106, 108, 110, 112, 114, 116, 118, 120, 122, 124, -1, -1, -1, -1, -1, -1, -1, -1, -1, -1, -1, -1, -1, -1, -1, -1, -1, -1, -1, -1, -1, -1, -1, -1, -1, -1, -1, -1, -1, -1, -1, -1, -1, -1, -1, -1, -1, -1, -1, -1, -1, -1, -1, -1, -1, -1, -1, -1, -1, -1, -1, -1, -1, -1, -1, -1, -1, -1, -1, -1, -1, -1], "split_conditions": [0.0923714, -0.28014997, 2.00001, -0.44669235, -0.10821221, 0.6507143, 2.00001, 2.00001, 2.00001, 2.00001, 2.00001, 0.2704888, 1.1505171, 0.5582396, 1.1798043, 2.00001, 2.00001, -1.1444881, 2.00001, 2.00001, 2.00001, 2.2294848, 2.00001, 2.00001, 2.00001, 2.00001, 2.00001, 0.2704888, 0.8784192, 1.1505171, 2.00001, -0.51294917, 2.00001, 2.00001, -0.6053675, -0.055896454, 1.1287547, 0.007755801, 2.00001, -0.8945642, -0.023974456, 0.05514667, 2.00001, 2.00001, -0.49114785, 2.00001, 2.00001, -1.2637911, 2.00001, -891.2633, 2.00001, -0.19407034, 2.00001, -1.0296568, 2.00001, 2.00001, 2.00001, -1.8872864, 0.75493366, 2.00001, -0.36237398, 0.72680837, 2.00001, -555.07074, -286.0277, -383.8865, -797.059, -567.3838, -842.41986, -652.77576, -424.44272, -640.94525, 47.792793, -603.81085, -824.3737, -702.5579, -469.16022, -667.29144, -229.59615, 9.521094, -549.9987, 112.104614, -415.4711, -564.2594, -74.46036, -729.29224, -31.886347, 25.153488, -478.25827, 48.566406, 614.0264, -528.8902, -118.869286, -318.87546, 182.96584, -102.199905, -745.50073, 144.51788, 504.71808, -414.83237, 806.08606, 712.6557, -133.2965, -382.38986, 1339.3074, -434.25522, -3.0764322, -422.91364, 1910.0162, 335.64346, 578.423, 185.86778, 855.28143, 575.036, 1332.9287, 106.674614, 1914.7274, 616.5078, 185.90248, -407.01694, -3.7620351, 847.2877, 1752.6201, 1063.6123, 369.2561], "split_indices": [4, 4, 51, 4, 4, 4, 70, 42, 66, 76, 76, 4, 4, 4, 3, 70, 43, 3, 94, 29, 77, 3, 77, 94, 85, 76, 38, 4, 4, 4, 57, 4, 68, 96, 4, 2, 1, 5, 76, 3, 5, 3, 93, 25, 0, 27, 94, 0, 35, 0, 80, 1, 93, 0, 9, 35, 39, 1, 3, 96, 0, 4, 96, 0, 0, 0, 0, 0, 0, 0, 0, 0, 0, 0, 0, 0, 0, 0, 0, 0, 0, 0, 0, 0, 0, 0, 0, 0, 0, 0, 0, 0, 0, 0, 0, 0, 0, 0, 0, 0, 0, 0, 0, 0, 0, 0, 0, 0, 0, 0, 0, 0, 0, 0, 0, 0, 0, 0, 0, 0, 0, 0, 0, 0, 0], "split_type": [0, 0, 0, 0, 0, 0, 0, 0, 0, 0, 0, 0, 0, 0, 0, 0, 0, 0, 0, 0, 0, 0, 0, 0, 0, 0, 0, 0, 0, 0, 0, 0, 0, 0, 0, 0, 0, 0, 0, 0, 0, 0, 0, 0, 0, 0, 0, 0, 0, 0, 0, 0, 0, 0, 0, 0, 0, 0, 0, 0, 0, 0, 0, 0, 0, 0, 0, 0, 0, 0, 0, 0, 0, 0, 0, 0, 0, 0, 0, 0, 0, 0, 0, 0, 0, 0, 0, 0, 0, 0, 0, 0, 0, 0, 0, 0, 0, 0, 0, 0, 0, 0, 0, 0, 0, 0, 0, 0, 0, 0, 0, 0, 0, 0, 0, 0, 0, 0, 0, 0, 0, 0, 0, 0, 0], "sum_hessian": [17619.0, 13134.0, 4485.0, 6950.0, 6184.0, 1308.0, 3177.0, 2893.0, 4057.0, 3637.0, 2547.0, 709.0, 599.0, 469.0, 2708.0, 653.0, 2240.0, 229.0, 3828.0, 123.0, 3514.0, 92.0, 2455.0, 234.0, 475.0, 414.0, 185.0, 358.0, 111.0, 1826.0, 882.0, 52.0, 601.0, 223.0, 2017.0, 12.0, 217.0, 122.0, 3706.0, 97.0, 26.0, 100.0, 3414.0, 89.0, 3.0, 84.0, 2371.0, 5.0, 229.0, 4.0, 471.0, 20.0, 394.0, 4.0, 181.0, 182.0, 176.0, 69.0, 42.0, 1537.0, 289.0, 136.0, 746.0, 29.0, 23.0, 28.0, 573.0, 26.0, 197.0, 312.0, 1705.0, 2.0, 10.0, 152.0, 65.0, 94.0, 28.0, 105.0, 3601.0, 3.0, 94.0, 9.0, 17.0, 89.0, 11.0, 44.0, 3370.0, 6.0, 83.0, 1.0, 2.0, 52.0, 32.0, 98.0, 2273.0, 1.0, 4.0, 44.0, 185.0, 8.0, 463.0, 12.0, 8.0, 5.0, 389.0, 2.0, 2.0, 2.0, 179.0, 26.0, 156.0, 3.0, 173.0, 5.0, 64.0, 1.0, 41.0, 366.0, 1171.0, 176.0, 113.0, 77.0, 59.0, 136.0, 610.0], "tree_param": {"num_deleted": "0", "num_feature": "98", "num_nodes": "125", "size_leaf_vector": "1"}}, {"base_weights": [0.5360864, -2209.8962, 4434.598, -4357.4087, -922.4902, 2657.0312, 7773.653, -5673.7974, -3452.298, -1866.7441, 6.2240887, 3048.3264, -2253.9192, 5071.8545, 11831.743, -7424.3965, -5179.033, -4327.452, -2779.8623, -1777.4762, -7771.7993, -7011.597, 94.35228, 2457.3323, 7369.5786, -2411.9568, 1330.0238, -1650.6317, 5487.2466, 10736.448, 17301.66, -7847.726, -5911.9893, -8447.02, -4885.9927, -3741.007, -5223.716, -3371.302, -1619.7212, -5377.9927, -1661.1536, -2044.2139, -8068.6333, -7098.029, -156.10909, -5855.393, 196.73703, -4307.4175, 2719.9883, -9000.164, 8283.277, 3570.659, -2859.439, 1757.0873, -3989.7234, 3150.8396, 6743.265, 1632.561, 11425.299, -743.9635, 17925.047, 17.48628, -787.478, -227.66905, -633.7944, -854.7614, 146.00957, -815.2065, -460.44455, -565.01965, -334.46436, -824.4337, -493.02994, -321.99677, -725.01874, -231.77342, -106.695305, -584.8562, -318.70926, -556.4511, -154.76558, 13.782683, -429.5168, -88.9168, -819.444, -195.60977, -717.0434, 315.46387, -705.9482, -400.66034, 34.774933, -166.76091, -497.07266, -316.7162, 305.88733, -1085.6473, 699.40564, 60.22476, 889.7793, 4788.1533, -128.15729, -430.9837, -173.05476, 537.7298, -132.76204, -434.00504, 536.2005, -278.33386, 358.2073, -629.5599, 703.6467, 986.3426, -21.403257, -440.73947, 1181.7354, -64.38018, 1882.1503], "categories": [], "categories_nodes": [], "categories_segments": [], "categories_sizes": [], "default_left": [0, 0, 0, 0, 0, 1, 0, 0, 0, 1, 0, 1, 0, 0, 0, 0, 0, 0, 0, 0, 0, 0, 0, 0, 0, 0, 0, 0, 0, 0, 0, 0, 0, 1, 0, 0, 0, 1, 0, 0, 0, 0, 0, 0, 0, 0, 0, 0, 0, 0, 0, 0, 0, 0, 0, 0, 0, 0, 0, 0, 0, 0, 0, 0, 0, 0, 0, 0, 0, 0, 0, 0, 0, 0, 0, 0, 0, 0, 0, 0, 0, 0, 0, 0, 0, 0, 0, 0, 0, 0, 0, 0, 0, 0, 0, 0, 0, 0, 0, 0, 0, 0, 0, 0, 0, 0, 0, 0, 0, 0, 0, 0, 0, 0, 0, 0, 0], "id": 7, "left_children": [1, 3, 5, 7, 9, 11, 13, 15, 17, 19, 21, 23, 25, 27, 29, 31, 33, 35, 37, 39, 41, 43, 45, 47, 49, 51, -1, 53, 55, 57, 59, 61, 63, 65, 67, 69, 71, 73, 75, 77, 79, 81, 83, 85, -1, 87, 89, 91, 93, 95, 97, 99, 101, 103, 105, 107, 109, 111, 113, -1, 115, -1, -1, -1, -1, -1, -1, -1, -1, -1, -1, -1, -1, -1, -1, -1, -1, -1, -1, -1, -1, -1, -1, -1, -1, -1, -1, -1, -1, -1, -1, -1, -1, -1, -1, -1, -1, -1, -1, -1, -1, -1, -1, -1, -1, -1, -1, -1, -1, -1, -1, -1, -1, -1, -1, -1, -1], "loss_changes": [172706860000.0, 32506319000.0, 34772615000.0, 5231264000.0, 6448167000.0, 7360956400.0, 22262980000.0, 1515388900.0, 1526272000.0, 1908109300.0, 2293940500.0, 9035231000.0, 727733500.0, 3427041300.0, 4685062000.0, 205221890.0, 1301356500.0, 576497660.0, 1010732000.0, 1495892000.0, 75313920.0, 10589696.0, 2232516900.0, 5555337000.0, 6446242000.0, 762479100.0, 0.0, 580919940.0, 3362308000.0, 4245782500.0, 2200088600.0, 67358720.0, 124932610.0, 126092800.0, 1147768800.0, 502490100.0, 354643970.0, 551923700.0, 191218430.0, 96828670.0, 1533993000.0, 20238684.0, 38778110.0, 2727680.0, 0.0, 694900500.0, 2287785000.0, 196579070.0, 6002872300.0, 758805900.0, 1901566000.0, 4361496600.0, 421525120.0, 342157760.0, 164146370.0, 1046371600.0, 2907748400.0, 746865150.0, 3975094300.0, 0.0, 2192760800.0, 0.0, 0.0, 0.0, 0.0, 0.0, 0.0, 0.0, 0.0, 0.0, 0.0, 0.0, 0.0, 0.0, 0.0, 0.0, 0.0, 0.0, 0.0, 0.0, 0.0, 0.0, 0.0, 0.0, 0.0, 0.0, 0.0, 0.0, 0.0, 0.0, 0.0, 0.0, 0.0, 0.0, 0.0, 0.0, 0.0, 0.0, 0.0, 0.0, 0.0, 0.0, 0.0, 0.0, 0.0, 0.0, 0.0, 0.0, 0.0, 0.0, 0.0, 0.0, 0.0, 0.0, 0.0, 0.0, 0.0], "parents": [2147483647, 0, 0, 1, 1, 2, 2, 3, 3, 4, 4, 5, 5, 6, 6, 7, 7, 8, 8, 9, 9, 10, 10, 11, 11, 12, 12, 13, 13, 14, 14, 15, 15, 16, 16, 17, 17, 18, 18, 19, 19, 20, 20, 21, 21, 22, 22, 23, 23, 24, 24, 25, 25, 27, 27, 28, 28, 29, 29, 30, 30, 31, 31, 32, 32, 33, 33, 34, 34, 35, 35, 36, 36, 37, 37, 38, 38, 39, 39, 40, 40, 41, 41, 42, 42, 43, 43, 45, 45, 46, 46, 47, 47, 48, 48, 49, 49, 50, 50, 51, 51, 52, 52, 53, 53, 54, 54, 55, 55, 56, 56, 57, 57, 58, 58, 60, 60], "right_children": [2, 4, 6, 8, 10, 12, 14, 16, 18, 20, 22, 24, 26, 28, 30, 32, 34, 36, 38, 40, 42, 44, 46, 48, 50, 52, -1, 54, 56, 58, 60, 62, 64, 66, 68, 70, 72, 74, 76, 78, 80, 82, 84, 86, -1, 88, 90, 92, 94, 96, 98, 100, 102, 104, 106, 108, 110, 112, 114, -1, 116, -1, -1, -1, -1, -1, -1, -1, -1, -1, -1, -1, -1, -1, -1, -1, -1, -1, -1, -1, -1, -1, -1, -1, -1, -1, -1, -1, -1, -1, -1, -1, -1, -1, -1, -1, -1, -1, -1, -1, -1, -1, -1, -1, -1, -1, -1, -1, -1, -1, -1, -1, -1, -1, -1, -1, -1], "split_conditions": [-0.030330159, -0.3791243, 1.0798347, 2.00001, -0.23696792, 1.430915, 0.81295913, 2.00001, -0.4738513, 1.1287547, 2.00001, 0.48667514, 0.020774594, 2.00001, 1.430915, 2.00001, 2.00001, 2.00001, 2.00001, 2.00001, 2.00001, 0.6549636, 2.00001, 2.00001, -0.46969357, 2.00001, 1330.0238, -0.45863536, 0.37338418, 2.00001, 2.00001, -0.09423198, 2.00001, 1.3668633, 2.00001, -0.62581354, 2.00001, 1.1287547, -0.4330658, 0.007755801, 2.00001, 1.7331281, 2.00001, -0.17090303, -156.10909, 2.00001, 2.00001, 0.019859659, 2.00001, 0.18784165, 2.00001, 0.17632067, -0.11980007, 2.00001, 1.7816948, 2.00001, 2.00001, 2.00001, 2.00001, -743.9635, 2.00001, 17.48628, -787.478, -227.66905, -633.7944, -854.7614, 146.00957, -815.2065, -460.44455, -565.01965, -334.46436, -824.4337, -493.02994, -321.99677, -725.01874, -231.77342, -106.695305, -584.8562, -318.70926, -556.4511, -154.76558, 13.782683, -429.5168, -88.9168, -819.444, -195.60977, -717.0434, 315.46387, -705.9482, -400.66034, 34.774933, -166.76091, -497.07266, -316.7162, 305.88733, -1085.6473, 699.40564, 60.22476, 889.7793, 4788.1533, -128.15729, -430.9837, -173.05476, 537.7298, -132.76204, -434.00504, 536.2005, -278.33386, 358.2073, -629.5599, 703.6467, 986.3426, -21.403257, -440.73947, 1181.7354, -64.38018, 1882.1503], "split_indices": [4, 4, 3, 48, 4, 4, 4, 66, 4, 1, 93, 4, 2, 76, 4, 21, 67, 6, 8, 94, 70, 5, 66, 94, 3, 37, 0, 1, 4, 76, 38, 2, 41, 1, 94, 4, 66, 1, 4, 5, 76, 0, 58, 2, 0, 6, 94, 4, 76, 0, 77, 1, 3, 35, 5, 77, 93, 25, 86, 0, 50, 0, 0, 0, 0, 0, 0, 0, 0, 0, 0, 0, 0, 0, 0, 0, 0, 0, 0, 0, 0, 0, 0, 0, 0, 0, 0, 0, 0, 0, 0, 0, 0, 0, 0, 0, 0, 0, 0, 0, 0, 0, 0, 0, 0, 0, 0, 0, 0, 0, 0, 0, 0, 0, 0, 0, 0], "split_type": [0, 0, 0, 0, 0, 0, 0, 0, 0, 0, 0, 0, 0, 0, 0, 0, 0, 0, 0, 0, 0, 0, 0, 0, 0, 0, 0, 0, 0, 0, 0, 0, 0, 0, 0, 0, 0, 0, 0, 0, 0, 0, 0, 0, 0, 0, 0, 0, 0, 0, 0, 0, 0, 0, 0, 0, 0, 0, 0, 0, 0, 0, 0, 0, 0, 0, 0, 0, 0, 0, 0, 0, 0, 0, 0, 0, 0, 0, 0, 0, 0, 0, 0, 0, 0, 0, 0, 0, 0, 0, 0, 0, 0, 0, 0, 0, 0, 0, 0, 0, 0, 0, 0, 0, 0, 0, 0, 0, 0, 0, 0, 0, 0, 0, 0, 0, 0], "sum_hessian": [17619.0, 11758.0, 5861.0, 4406.0, 7352.0, 3826.0, 2035.0, 1793.0, 2613.0, 3645.0, 3707.0, 3544.0, 282.0, 1223.0, 812.0, 392.0, 1401.0, 1133.0, 1480.0, 3592.0, 53.0, 45.0, 3662.0, 3119.0, 425.0, 280.0, 2.0, 71.0, 1152.0, 679.0, 133.0, 303.0, 89.0, 113.0, 1288.0, 688.0, 445.0, 979.0, 501.0, 111.0, 3481.0, 3.0, 50.0, 44.0, 1.0, 61.0, 3601.0, 116.0, 3003.0, 22.0, 403.0, 19.0, 261.0, 29.0, 42.0, 404.0, 748.0, 48.0, 631.0, 3.0, 130.0, 1.0, 302.0, 10.0, 79.0, 112.0, 1.0, 100.0, 1188.0, 116.0, 572.0, 37.0, 408.0, 944.0, 35.0, 220.0, 281.0, 90.0, 21.0, 97.0, 3384.0, 2.0, 1.0, 1.0, 49.0, 1.0, 43.0, 7.0, 54.0, 124.0, 3477.0, 24.0, 92.0, 163.0, 2840.0, 20.0, 2.0, 30.0, 373.0, 1.0, 18.0, 113.0, 148.0, 13.0, 16.0, 41.0, 1.0, 27.0, 377.0, 16.0, 732.0, 8.0, 40.0, 15.0, 616.0, 6.0, 124.0], "tree_param": {"num_deleted": "0", "num_feature": "98", "num_nodes": "117", "size_leaf_vector": "1"}}, {"base_weights": [0.2971518, -1490.9338, 5429.5244, -3191.276, 228.6718, 8928.66, 3824.9573, -4358.952, -2131.6135, -564.90796, 1120.4897, 6207.303, 12414.911, 8372.671, 3054.0676, -6139.0254, -3878.4492, -3669.693, -1753.849, -9281.003, -509.312, -3649.2102, 1313.2473, -4326.1777, 6372.9546, 10897.364, 15097.698, 6484.3003, 12782.793, 4270.459, 673.6288, -3529.2864, -6360.1357, -6727.673, -3594.5344, -3330.0315, -6718.017, -2129.5667, -536.20465, -3620.7954, -10282.058, -4578.9907, -392.26227, 495.38657, -5186.2935, -3730.2322, 1515.0195, -619.3139, -865.0552, 5602.4263, 8755.472, 2523.2234, 11361.977, -2082.25, 15486.72, 5100.668, 7151.208, 10751.201, 15792.762, 4832.551, -1254.4396, -3835.4097, 1617.6455, -456.36118, -229.50345, -341.6105, -656.9988, -461.55298, -697.9655, -537.3016, -332.2564, -893.2254, -317.40698, -6.2751956, -691.0014, -697.79114, -204.93713, -746.31366, -46.474007, -86.59991, -409.29947, -1070.2644, -135.57597, -91.26549, -511.02374, -412.0646, -25.588978, 762.68646, -16.794134, 395.44443, -564.6719, 15.376907, -432.92496, -742.69525, 162.9458, 162.63316, -271.0131, -809.63324, 572.8461, 124.338135, 914.26654, -307.20795, 534.1984, -418.81363, 1162.2928, -355.7073, 8.665626, 1587.6713, -149.43594, 611.92834, 399.3313, 420.1858, 743.8315, 454.30664, 1115.8857, 56.851955, 1614.1708, -358.66318, 516.87036, 913.2256, -196.93683, 212.49666, -526.12054, 699.23944, 36.59959], "categories": [], "categories_nodes": [], "categories_segments": [], "categories_sizes": [], "default_left": [0, 0, 0, 0, 0, 0, 0, 0, 0, 0, 0, 0, 0, 0, 0, 0, 0, 1, 0, 0, 0, 0, 0, 0, 0, 0, 0, 0, 0, 0, 0, 0, 0, 0, 0, 0, 0, 0, 0, 0, 1, 0, 0, 0, 0, 0, 0, 0, 0, 0, 0, 0, 0, 0, 1, 0, 0, 0, 0, 0, 0, 1, 0, 0, 0, 0, 0, 0, 0, 0, 0, 0, 0, 0, 0, 0, 0, 0, 0, 0, 0, 0, 0, 0, 0, 0, 0, 0, 0, 0, 0, 0, 0, 0, 0, 0, 0, 0, 0, 0, 0, 0, 0, 0, 0, 0, 0, 0, 0, 0, 0, 0, 0, 0, 0, 0, 0, 0, 0, 0, 0, 0, 0, 0, 0], "id": 8, "left_children": [1, 3, 5, 7, 9, 11, 13, 15, 17, 19, 21, 23, 25, 27, 29, 31, 33, 35, 37, 39, 41, 43, 45, 47, 49, 51, 53, 55, 57, 59, 61, 63, 65, 67, 69, 71, 73, 75, 77, 79, 81, 83, 85, 87, 89, 91, 93, 95, -1, 97, 99, 101, 103, 105, 107, 109, 111, 113, 115, 117, 119, 121, 123, -1, -1, -1, -1, -1, -1, -1, -1, -1, -1, -1, -1, -1, -1, -1, -1, -1, -1, -1, -1, -1, -1, -1, -1, -1, -1, -1, -1, -1, -1, -1, -1, -1, -1, -1, -1, -1, -1, -1, -1, -1, -1, -1, -1, -1, -1, -1, -1, -1, -1, -1, -1, -1, -1, -1, -1, -1, -1, -1, -1, -1, -1], "loss_changes": [142663710000.0, 40420975000.0, 21284480000.0, 8591475000.0, 4865560000.0, 11241316000.0, 9107001000.0, 2803912700.0, 2112006100.0, 1758175000.0, 2980876800.0, 1200128000.0, 1960673300.0, 3056748500.0, 6451292000.0, 382058500.0, 2083905500.0, 721045500.0, 1338848300.0, 93092860.0, 1720702700.0, 805263740.0, 3172528600.0, 170971120.0, 1166248000.0, 1282506800.0, 1275355100.0, 208975870.0, 515090430.0, 4586674000.0, 3219943000.0, 62293570.0, 376045570.0, 92857340.0, 1129470000.0, 537826800.0, 90289410.0, 855864300.0, 339092740.0, 2959536.0, 56820990.0, 192056450.0, 1786652400.0, 166848640.0, 409522940.0, 279855600.0, 3074854000.0, 37274210.0, 0.0, 914819100.0, 454012930.0, 316075620.0, 1343123500.0, 16302006.0, 1229021200.0, 77080830.0, 118624260.0, 126459900.0, 219256830.0, 3808084000.0, 1035312200.0, 1124454900.0, 4202004500.0, 0.0, 0.0, 0.0, 0.0, 0.0, 0.0, 0.0, 0.0, 0.0, 0.0, 0.0, 0.0, 0.0, 0.0, 0.0, 0.0, 0.0, 0.0, 0.0, 0.0, 0.0, 0.0, 0.0, 0.0, 0.0, 0.0, 0.0, 0.0, 0.0, 0.0, 0.0, 0.0, 0.0, 0.0, 0.0, 0.0, 0.0, 0.0, 0.0, 0.0, 0.0, 0.0, 0.0, 0.0, 0.0, 0.0, 0.0, 0.0, 0.0, 0.0, 0.0, 0.0, 0.0, 0.0, 0.0, 0.0, 0.0, 0.0, 0.0, 0.0, 0.0, 0.0], "parents": [2147483647, 0, 0, 1, 1, 2, 2, 3, 3, 4, 4, 5, 5, 6, 6, 7, 7, 8, 8, 9, 9, 10, 10, 11, 11, 12, 12, 13, 13, 14, 14, 15, 15, 16, 16, 17, 17, 18, 18, 19, 19, 20, 20, 21, 21, 22, 22, 23, 23, 24, 24, 25, 25, 26, 26, 27, 27, 28, 28, 29, 29, 30, 30, 31, 31, 32, 32, 33, 33, 34, 34, 35, 35, 36, 36, 37, 37, 38, 38, 39, 39, 40, 40, 41, 41, 42, 42, 43, 43, 44, 44, 45, 45, 46, 46, 47, 47, 49, 49, 50, 50, 51, 51, 52, 52, 53, 53, 54, 54, 55, 55, 56, 56, 57, 57, 58, 58, 59, 59, 60, 60, 61, 61, 62, 62], "right_children": [2, 4, 6, 8, 10, 12, 14, 16, 18, 20, 22, 24, 26, 28, 30, 32, 34, 36, 38, 40, 42, 44, 46, 48, 50, 52, 54, 56, 58, 60, 62, 64, 66, 68, 70, 72, 74, 76, 78, 80, 82, 84, 86, 88, 90, 92, 94, 96, -1, 98, 100, 102, 104, 106, 108, 110, 112, 114, 116, 118, 120, 122, 124, -1, -1, -1, -1, -1, -1, -1, -1, -1, -1, -1, -1, -1, -1, -1, -1, -1, -1, -1, -1, -1, -1, -1, -1, -1, -1, -1, -1, -1, -1, -1, -1, -1, -1, -1, -1, -1, -1, -1, -1, -1, -1, -1, -1, -1, -1, -1, -1, -1, -1, -1, -1, -1, -1, -1, -1, -1, -1, -1, -1, -1, -1], "split_conditions": [0.17431882, -0.28014997, 2.00001, -0.4266227, -0.10821221, 0.72680837, 2.00001, 2.00001, 2.00001, 2.00001, 2.00001, 2.00001, 1.1505171, 0.5582396, 2.00001, 2.00001, 2.00001, 1.1287547, 2.00001, 2.00001, 2.00001, 2.00001, 2.00001, -0.5909179, 0.58272594, 2.00001, 2.00001, 0.2704888, 0.8784192, 2.5210567, -0.11980007, -0.51294917, 2.00001, 2.00001, -0.6053675, 2.00001, 2.00001, 2.00001, 2.00001, -1.228671, 0.8377332, 2.00001, 2.00001, -1.2872045, -0.090739876, 2.00001, 2.00001, 0.45502496, -865.0552, 2.00001, 2.00001, -0.3857874, 2.00001, -1.0296568, 4.088547, -0.5507446, 2.00001, -1.8872864, 0.75493366, 2.00001, 2.00001, 0.5582396, 2.00001, -456.36118, -229.50345, -341.6105, -656.9988, -461.55298, -697.9655, -537.3016, -332.2564, -893.2254, -317.40698, -6.2751956, -691.0014, -697.79114, -204.93713, -746.31366, -46.474007, -86.59991, -409.29947, -1070.2644, -135.57597, -91.26549, -511.02374, -412.0646, -25.588978, 762.68646, -16.794134, 395.44443, -564.6719, 15.376907, -432.92496, -742.69525, 162.9458, 162.63316, -271.0131, -809.63324, 572.8461, 124.338135, 914.26654, -307.20795, 534.1984, -418.81363, 1162.2928, -355.7073, 8.665626, 1587.6713, -149.43594, 611.92834, 399.3313, 420.1858, 743.8315, 454.30664, 1115.8857, 56.851955, 1614.1708, -358.66318, 516.87036, 913.2256, -196.93683, 212.49666, -526.12054, 699.23944, 36.59959], "split_indices": [4, 4, 51, 4, 4, 4, 70, 42, 48, 86, 77, 80, 4, 4, 52, 70, 43, 1, 8, 25, 77, 25, 76, 1, 4, 76, 38, 4, 4, 4, 3, 4, 96, 96, 4, 77, 96, 77, 95, 0, 1, 6, 76, 0, 4, 6, 93, 3, 0, 93, 81, 0, 93, 0, 4, 5, 53, 1, 3, 94, 22, 4, 96, 0, 0, 0, 0, 0, 0, 0, 0, 0, 0, 0, 0, 0, 0, 0, 0, 0, 0, 0, 0, 0, 0, 0, 0, 0, 0, 0, 0, 0, 0, 0, 0, 0, 0, 0, 0, 0, 0, 0, 0, 0, 0, 0, 0, 0, 0, 0, 0, 0, 0, 0, 0, 0, 0, 0, 0, 0, 0, 0, 0, 0, 0], "split_type": [0, 0, 0, 0, 0, 0, 0, 0, 0, 0, 0, 0, 0, 0, 0, 0, 0, 0, 0, 0, 0, 0, 0, 0, 0, 0, 0, 0, 0, 0, 0, 0, 0, 0, 0, 0, 0, 0, 0, 0, 0, 0, 0, 0, 0, 0, 0, 0, 0, 0, 0, 0, 0, 0, 0, 0, 0, 0, 0, 0, 0, 0, 0, 0, 0, 0, 0, 0, 0, 0, 0, 0, 0, 0, 0, 0, 0, 0, 0, 0, 0, 0, 0, 0, 0, 0, 0, 0, 0, 0, 0, 0, 0, 0, 0, 0, 0, 0, 0, 0, 0, 0, 0, 0, 0, 0, 0, 0, 0, 0, 0, 0, 0, 0, 0, 0, 0, 0, 0, 0, 0, 0, 0, 0, 0], "sum_hessian": [17619.0, 13823.0, 3796.0, 6950.0, 6873.0, 1192.0, 2604.0, 3305.0, 3645.0, 3637.0, 3236.0, 671.0, 521.0, 376.0, 2228.0, 700.0, 2605.0, 717.0, 2928.0, 22.0, 3615.0, 125.0, 3111.0, 10.0, 661.0, 336.0, 185.0, 265.0, 111.0, 1474.0, 754.0, 56.0, 644.0, 234.0, 2371.0, 647.0, 70.0, 2237.0, 691.0, 4.0, 18.0, 100.0, 3515.0, 34.0, 91.0, 119.0, 2992.0, 6.0, 4.0, 502.0, 159.0, 18.0, 318.0, 4.0, 181.0, 89.0, 176.0, 69.0, 42.0, 1338.0, 136.0, 130.0, 624.0, 29.0, 27.0, 44.0, 600.0, 27.0, 207.0, 312.0, 2059.0, 16.0, 631.0, 2.0, 68.0, 35.0, 2202.0, 6.0, 685.0, 1.0, 3.0, 17.0, 1.0, 13.0, 87.0, 123.0, 3392.0, 2.0, 32.0, 4.0, 87.0, 16.0, 103.0, 37.0, 2955.0, 3.0, 3.0, 4.0, 498.0, 8.0, 151.0, 6.0, 12.0, 5.0, 313.0, 2.0, 2.0, 177.0, 4.0, 44.0, 45.0, 17.0, 159.0, 5.0, 64.0, 1.0, 41.0, 51.0, 1287.0, 8.0, 128.0, 25.0, 105.0, 117.0, 507.0], "tree_param": {"num_deleted": "0", "num_feature": "98", "num_nodes": "125", "size_leaf_vector": "1"}}, {"base_weights": [0.16120669, -1342.5981, 4888.838, -2986.805, 103.94992, 8037.3784, 3445.0383, -4719.948, -2424.4382, -873.3693, 785.3885, 6177.5522, 12206.421, 2666.497, 7238.5815, -3851.869, -5639.595, -4926.987, -2165.1626, -4714.406, -751.15436, -3587.3738, 951.6921, 4956.766, 8106.087, -4557.0376, 12450.549, -3224.5784, 3161.0032, -3785.0828, 7963.158, -5645.73, -3433.9822, -6796.0293, -5208.4966, -3073.6484, -5874.163, -7259.5054, -2082.8948, -6429.268, -4156.5083, 746.841, -1034.7634, 188.8912, -4988.8247, -3541.0188, 1128.0784, -974.06995, 5063.156, -926.9624, 8431.706, -802.147, 638.2563, -3806.2632, 12642.821, 2170.4224, -4461.1875, -7889.968, 3391.028, 7558.3813, -6579.6787, 5337.911, 11477.826, -228.68489, -583.9779, -644.10236, -329.19162, -690.4459, -274.26614, -729.1078, -490.76755, -448.08356, -233.40813, -113.65597, -603.2517, 337.54562, -746.2555, -764.0302, -201.53618, -669.1989, -58.74248, -311.03024, -457.55573, -634.53485, 82.181755, -532.39325, -93.64485, 711.84076, -31.057165, -645.5739, -377.9712, -31.384007, -406.0755, -709.3518, 122.714905, -744.8626, 517.7689, 1045.4747, -291.20947, -365.3905, 868.3916, -505.87326, 60.180664, -455.1883, 1280.0951, -491.55014, 280.66675, -929.55365, -355.5354, -570.5347, -969.88763, -490.23248, 370.144, 139.56592, 851.1794, -449.2588, -884.3638, -425.72617, 608.8472, 734.88306, 1566.4733], "categories": [], "categories_nodes": [], "categories_segments": [], "categories_sizes": [], "default_left": [0, 0, 0, 0, 0, 0, 0, 0, 0, 0, 0, 0, 0, 0, 0, 0, 0, 0, 0, 0, 0, 0, 0, 0, 0, 1, 0, 0, 0, 0, 0, 0, 0, 0, 0, 0, 0, 0, 0, 0, 0, 0, 0, 0, 0, 0, 0, 0, 0, 0, 0, 0, 0, 1, 0, 0, 0, 0, 0, 0, 0, 0, 0, 0, 0, 0, 0, 0, 0, 0, 0, 0, 0, 0, 0, 0, 0, 0, 0, 0, 0, 0, 0, 0, 0, 0, 0, 0, 0, 0, 0, 0, 0, 0, 0, 0, 0, 0, 0, 0, 0, 0, 0, 0, 0, 0, 0, 0, 0, 0, 0, 0, 0, 0, 0, 0, 0, 0, 0, 0, 0], "id": 9, "left_children": [1, 3, 5, 7, 9, 11, 13, 15, 17, 19, 21, 23, 25, 27, 29, 31, 33, 35, 37, 39, 41, 43, 45, 47, 49, 51, 53, 55, 57, 59, 61, 63, 65, 67, 69, 71, 73, 75, 77, 79, 81, 83, 85, 87, 89, 91, 93, -1, 95, 97, 99, -1, -1, 101, 103, 105, 107, 109, 111, 113, 115, 117, 119, -1, -1, -1, -1, -1, -1, -1, -1, -1, -1, -1, -1, -1, -1, -1, -1, -1, -1, -1, -1, -1, -1, -1, -1, -1, -1, -1, -1, -1, -1, -1, -1, -1, -1, -1, -1, -1, -1, -1, -1, -1, -1, -1, -1, -1, -1, -1, -1, -1, -1, -1, -1, -1, -1, -1, -1, -1, -1], "loss_changes": [115669810000.0, 32879649000.0, 17232945000.0, 6294618000.0, 4898991000.0, 9174753000.0, 7674382300.0, 1242824700.0, 3160262700.0, 1415082500.0, 3155125200.0, 1906847700.0, 1558663200.0, 6311385000.0, 3568599000.0, 593810400.0, 346980350.0, 785934340.0, 1841492000.0, 62251264.0, 1245568800.0, 842409860.0, 3313277400.0, 845219840.0, 946100200.0, 278594560.0, 1179635700.0, 1130496000.0, 5100587000.0, 937342700.0, 3777114000.0, 86368770.0, 263311360.0, 71161860.0, 316930050.0, 152932740.0, 219710460.0, 176349180.0, 1621327900.0, 28299200.0, 17772800.0, 253540720.0, 1034057200.0, 154496370.0, 181344000.0, 263735550.0, 3282256000.0, 0.0, 763672600.0, 301575600.0, 970549250.0, 0.0, 0.0, 30649240.0, 1031667700.0, 158064460.0, 566889700.0, 106687230.0, 5053587500.0, 23374144.0, 68946240.0, 1754344000.0, 2944809000.0, 0.0, 0.0, 0.0, 0.0, 0.0, 0.0, 0.0, 0.0, 0.0, 0.0, 0.0, 0.0, 0.0, 0.0, 0.0, 0.0, 0.0, 0.0, 0.0, 0.0, 0.0, 0.0, 0.0, 0.0, 0.0, 0.0, 0.0, 0.0, 0.0, 0.0, 0.0, 0.0, 0.0, 0.0, 0.0, 0.0, 0.0, 0.0, 0.0, 0.0, 0.0, 0.0, 0.0, 0.0, 0.0, 0.0, 0.0, 0.0, 0.0, 0.0, 0.0, 0.0, 0.0, 0.0, 0.0, 0.0, 0.0, 0.0], "parents": [2147483647, 0, 0, 1, 1, 2, 2, 3, 3, 4, 4, 5, 5, 6, 6, 7, 7, 8, 8, 9, 9, 10, 10, 11, 11, 12, 12, 13, 13, 14, 14, 15, 15, 16, 16, 17, 17, 18, 18, 19, 19, 20, 20, 21, 21, 22, 22, 23, 23, 24, 24, 25, 25, 26, 26, 27, 27, 28, 28, 29, 29, 30, 30, 31, 31, 32, 32, 33, 33, 34, 34, 35, 35, 36, 36, 37, 37, 38, 38, 39, 39, 40, 40, 41, 41, 42, 42, 43, 43, 44, 44, 45, 45, 46, 46, 48, 48, 49, 49, 50, 50, 53, 53, 54, 54, 55, 55, 56, 56, 57, 57, 58, 58, 59, 59, 60, 60, 61, 61, 62, 62], "right_children": [2, 4, 6, 8, 10, 12, 14, 16, 18, 20, 22, 24, 26, 28, 30, 32, 34, 36, 38, 40, 42, 44, 46, 48, 50, 52, 54, 56, 58, 60, 62, 64, 66, 68, 70, 72, 74, 76, 78, 80, 82, 84, 86, 88, 90, 92, 94, -1, 96, 98, 100, -1, -1, 102, 104, 106, 108, 110, 112, 114, 116, 118, 120, -1, -1, -1, -1, -1, -1, -1, -1, -1, -1, -1, -1, -1, -1, -1, -1, -1, -1, -1, -1, -1, -1, -1, -1, -1, -1, -1, -1, -1, -1, -1, -1, -1, -1, -1, -1, -1, -1, -1, -1, -1, -1, -1, -1, -1, -1, -1, -1, -1, -1, -1, -1, -1, -1, -1, -1, -1, -1], "split_conditions": [0.17431882, -0.29813674, 2.00001, -0.5172153, -0.16802593, 0.9195561, 2.00001, 2.00001, 2.00001, 2.00001, 2.00001, 0.58272594, 2.00001, -0.09480768, 2.00001, -0.6493212, 2.00001, 1.1287547, 2.00001, 2.00001, 2.00001, 2.00001, 2.00001, 2.00001, 2.00001, -0.6438309, 2.00001, 0.38958296, 2.00001, 2.00001, 0.6049793, 2.00001, 2.00001, 0.059110116, 2.00001, 2.00001, 2.00001, -0.5517852, 2.00001, 1.779955, -0.6196479, 2.00001, 2.00001, -1.2872045, -0.034585938, 2.00001, 2.00001, -974.06995, 2.00001, -1.3808582, 2.00001, -802.147, 638.2563, -0.5909179, 2.00001, 2.00001, 1.430915, 2.00001, 2.00001, -0.79552245, 1.2797738, 2.00001, 0.81295913, -228.68489, -583.9779, -644.10236, -329.19162, -690.4459, -274.26614, -729.1078, -490.76755, -448.08356, -233.40813, -113.65597, -603.2517, 337.54562, -746.2555, -764.0302, -201.53618, -669.1989, -58.74248, -311.03024, -457.55573, -634.53485, 82.181755, -532.39325, -93.64485, 711.84076, -31.057165, -645.5739, -377.9712, -31.384007, -406.0755, -709.3518, 122.714905, -744.8626, 517.7689, 1045.4747, -291.20947, -365.3905, 868.3916, -505.87326, 60.180664, -455.1883, 1280.0951, -491.55014, 280.66675, -929.55365, -355.5354, -570.5347, -969.88763, -490.23248, 370.144, 139.56592, 851.1794, -449.2588, -884.3638, -425.72617, 608.8472, 734.88306, 1566.4733], "split_indices": [4, 4, 51, 4, 4, 4, 21, 6, 42, 94, 77, 4, 94, 3, 77, 4, 66, 1, 77, 48, 6, 25, 76, 85, 76, 1, 93, 4, 93, 25, 3, 51, 76, 2, 67, 25, 57, 5, 93, 0, 3, 95, 66, 0, 0, 6, 66, 0, 93, 0, 80, 0, 0, 1, 36, 77, 4, 44, 94, 0, 3, 76, 4, 0, 0, 0, 0, 0, 0, 0, 0, 0, 0, 0, 0, 0, 0, 0, 0, 0, 0, 0, 0, 0, 0, 0, 0, 0, 0, 0, 0, 0, 0, 0, 0, 0, 0, 0, 0, 0, 0, 0, 0, 0, 0, 0, 0, 0, 0, 0, 0, 0, 0, 0, 0, 0, 0, 0, 0, 0, 0], "split_type": [0, 0, 0, 0, 0, 0, 0, 0, 0, 0, 0, 0, 0, 0, 0, 0, 0, 0, 0, 0, 0, 0, 0, 0, 0, 0, 0, 0, 0, 0, 0, 0, 0, 0, 0, 0, 0, 0, 0, 0, 0, 0, 0, 0, 0, 0, 0, 0, 0, 0, 0, 0, 0, 0, 0, 0, 0, 0, 0, 0, 0, 0, 0, 0, 0, 0, 0, 0, 0, 0, 0, 0, 0, 0, 0, 0, 0, 0, 0, 0, 0, 0, 0, 0, 0, 0, 0, 0, 0, 0, 0, 0, 0, 0, 0, 0, 0, 0, 0, 0, 0, 0, 0, 0, 0, 0, 0, 0, 0, 0, 0, 0, 0, 0, 0, 0, 0, 0, 0, 0, 0], "sum_hessian": [17619.0, 13823.0, 3796.0, 6469.0, 7354.0, 1192.0, 2604.0, 1583.0, 4886.0, 3021.0, 4333.0, 826.0, 366.0, 2162.0, 442.0, 817.0, 766.0, 457.0, 4429.0, 92.0, 2929.0, 158.0, 4175.0, 508.0, 318.0, 5.0, 361.0, 167.0, 1995.0, 27.0, 415.0, 152.0, 665.0, 204.0, 562.0, 156.0, 301.0, 69.0, 4360.0, 20.0, 72.0, 466.0, 2463.0, 43.0, 115.0, 157.0, 4018.0, 3.0, 505.0, 11.0, 307.0, 4.0, 1.0, 4.0, 357.0, 31.0, 136.0, 40.0, 1955.0, 5.0, 22.0, 239.0, 176.0, 9.0, 143.0, 28.0, 637.0, 198.0, 6.0, 68.0, 494.0, 52.0, 104.0, 10.0, 291.0, 1.0, 68.0, 51.0, 4309.0, 19.0, 1.0, 23.0, 49.0, 4.0, 462.0, 54.0, 2409.0, 2.0, 41.0, 50.0, 65.0, 22.0, 135.0, 47.0, 3971.0, 4.0, 501.0, 1.0, 10.0, 6.0, 301.0, 3.0, 1.0, 3.0, 354.0, 2.0, 29.0, 20.0, 116.0, 20.0, 20.0, 70.0, 1885.0, 1.0, 4.0, 13.0, 9.0, 17.0, 222.0, 90.0, 86.0], "tree_param": {"num_deleted": "0", "num_feature": "98", "num_nodes": "121", "size_leaf_vector": "1"}}, {"base_weights": [-0.5090688, -1338.5708, 4000.6472, -2916.2896, -209.87416, 6893.044, 2791.7227, -4093.0627, -2239.2654, -932.7387, 565.58344, 4557.8955, 9815.21, 6510.629, 2150.1091, -2391.14, -4411.5146, -2918.8508, -1600.9613, -6572.335, -869.5538, -6556.8423, 654.7023, -4564.226, 4704.825, -4890.5425, 10030.563, 5059.1567, 10949.47, 1428.435, 5225.4707, -3682.7363, -1604.2263, -3461.8647, -5050.909, -4811.1655, -2738.4912, -2022.287, -487.2033, -4141.7437, -7354.377, -5526.3696, -791.27563, -5641.758, -928.6971, -6607.7417, 742.6242, -890.50165, -808.9533, -1507.642, 4932.429, 1515.5586, -6937.3657, 8883.173, 13064.875, 4051.0793, 6004.479, 9242.582, 13473.485, 4212.4053, 632.4003, 11562.003, 4093.373, -443.6585, -311.85513, -80.02043, -211.17142, -511.16714, -296.06668, -133.94527, -524.30194, -318.45792, -565.0864, -594.3186, -265.39075, -593.2529, -192.28734, -581.3947, -43.219128, -561.15735, -149.16803, -754.0915, -303.75372, -239.63799, -676.70966, -417.6621, -68.20638, -595.43866, -245.00554, -769.20184, 615.8029, -310.45306, 88.88128, -232.36172, 179.48581, -439.89062, 283.48923, 326.3809, 586.33905, -379.00958, 606.3434, -783.0395, -78.95947, 974.47723, 574.29254, 349.48544, 1399.6914, 675.77686, 370.84073, 470.25583, 664.8571, 621.2192, 1002.54346, -24.314259, 1380.586, -1052.9542, 458.1403, 452.2109, 0.47640538, 859.3974, 1537.4482, 942.8673, 304.74884], "categories": [], "categories_nodes": [], "categories_segments": [], "categories_sizes": [], "default_left": [0, 0, 0, 0, 0, 0, 0, 0, 0, 0, 0, 0, 0, 0, 0, 0, 0, 0, 0, 0, 0, 0, 0, 0, 0, 0, 0, 0, 0, 0, 0, 0, 0, 0, 0, 0, 0, 0, 0, 1, 1, 0, 0, 0, 0, 0, 0, 0, 0, 0, 0, 0, 0, 1, 0, 0, 0, 0, 0, 0, 0, 0, 0, 0, 0, 0, 0, 0, 0, 0, 0, 0, 0, 0, 0, 0, 0, 0, 0, 0, 0, 0, 0, 0, 0, 0, 0, 0, 0, 0, 0, 0, 0, 0, 0, 0, 0, 0, 0, 0, 0, 0, 0, 0, 0, 0, 0, 0, 0, 0, 0, 0, 0, 0, 0, 0, 0, 0, 0, 0, 0, 0, 0], "id": 10, "left_children": [1, 3, 5, 7, 9, 11, 13, 15, 17, 19, 21, 23, 25, 27, 29, 31, 33, 35, 37, 39, 41, 43, 45, 47, 49, 51, 53, 55, 57, 59, 61, 63, 65, 67, 69, 71, 73, 75, 77, 79, 81, 83, 85, 87, -1, 89, 91, 93, -1, 95, 97, 99, 101, 103, 105, 107, 109, 111, 113, 115, 117, 119, 121, -1, -1, -1, -1, -1, -1, -1, -1, -1, -1, -1, -1, -1, -1, -1, -1, -1, -1, -1, -1, -1, -1, -1, -1, -1, -1, -1, -1, -1, -1, -1, -1, -1, -1, -1, -1, -1, -1, -1, -1, -1, -1, -1, -1, -1, -1, -1, -1, -1, -1, -1, -1, -1, -1, -1, -1, -1, -1, -1, -1], "loss_changes": [94339210000.0, 23514400000.0, 15422136000.0, 4378284000.0, 4316208000.0, 8832889000.0, 7421092000.0, 1078833200.0, 1512697900.0, 1414289900.0, 2362359800.0, 993198100.0, 1876381700.0, 2895429600.0, 5893943300.0, 318315520.0, 1009897500.0, 564641800.0, 846489100.0, 53176190.0, 1432591900.0, 62526720.0, 2348305200.0, 148208340.0, 1017019400.0, 128523380.0, 1864941600.0, 306352130.0, 357989380.0, 4773111300.0, 3575326700.0, 37201536.0, 79916510.0, 550451700.0, 712402940.0, 181417220.0, 403836930.0, 497830400.0, 143125600.0, 42266160.0, 2862336.0, 236208510.0, 1430924500.0, 22330752.0, 0.0, 656399500.0, 2042620200.0, 31109580.0, 0.0, 338911200.0, 1051170800.0, 95369350.0, 32248160.0, 1069578240.0, 1324703700.0, 133542910.0, 117158910.0, 103784450.0, 199396860.0, 2653877200.0, 4094075600.0, 727854100.0, 2370713000.0, 0.0, 0.0, 0.0, 0.0, 0.0, 0.0, 0.0, 0.0, 0.0, 0.0, 0.0, 0.0, 0.0, 0.0, 0.0, 0.0, 0.0, 0.0, 0.0, 0.0, 0.0, 0.0, 0.0, 0.0, 0.0, 0.0, 0.0, 0.0, 0.0, 0.0, 0.0, 0.0, 0.0, 0.0, 0.0, 0.0, 0.0, 0.0, 0.0, 0.0, 0.0, 0.0, 0.0, 0.0, 0.0, 0.0, 0.0, 0.0, 0.0, 0.0, 0.0, 0.0, 0.0, 0.0, 0.0, 0.0, 0.0, 0.0, 0.0, 0.0], "parents": [2147483647, 0, 0, 1, 1, 2, 2, 3, 3, 4, 4, 5, 5, 6, 6, 7, 7, 8, 8, 9, 9, 10, 10, 11, 11, 12, 12, 13, 13, 14, 14, 15, 15, 16, 16, 17, 17, 18, 18, 19, 19, 20, 20, 21, 21, 22, 22, 23, 23, 24, 24, 25, 25, 26, 26, 27, 27, 28, 28, 29, 29, 30, 30, 31, 31, 32, 32, 33, 33, 34, 34, 35, 35, 36, 36, 37, 37, 38, 38, 39, 39, 40, 40, 41, 41, 42, 42, 43, 43, 45, 45, 46, 46, 47, 47, 49, 49, 50, 50, 51, 51, 52, 52, 53, 53, 54, 54, 55, 55, 56, 56, 57, 57, 58, 58, 59, 59, 60, 60, 61, 61, 62, 62], "right_children": [2, 4, 6, 8, 10, 12, 14, 16, 18, 20, 22, 24, 26, 28, 30, 32, 34, 36, 38, 40, 42, 44, 46, 48, 50, 52, 54, 56, 58, 60, 62, 64, 66, 68, 70, 72, 74, 76, 78, 80, 82, 84, 86, 88, -1, 90, 92, 94, -1, 96, 98, 100, 102, 104, 106, 108, 110, 112, 114, 116, 118, 120, 122, -1, -1, -1, -1, -1, -1, -1, -1, -1, -1, -1, -1, -1, -1, -1, -1, -1, -1, -1, -1, -1, -1, -1, -1, -1, -1, -1, -1, -1, -1, -1, -1, -1, -1, -1, -1, -1, -1, -1, -1, -1, -1, -1, -1, -1, -1, -1, -1, -1, -1, -1, -1, -1, -1, -1, -1, -1, -1, -1, -1], "split_conditions": [0.09969911, -0.33569756, 2.00001, 2.00001, -0.16802593, 0.67362595, 2.00001, 2.00001, -0.4330658, 2.00001, 2.00001, 2.00001, 2.00001, 0.5582396, 1.6046749, -0.5304654, 1.1287547, 2.00001, 2.00001, 2.00001, 2.00001, 0.025531108, 2.00001, -0.5909179, 2.00001, -1.2403777, 1.2326653, 0.2704888, 0.8784192, 2.00001, 2.00001, -0.5958063, 2.00001, -0.5740239, 2.00001, 1.1022983, 2.00001, 2.00001, 2.00001, -0.6438309, 0.9435592, 1.1287547, 2.00001, 0.3836594, -928.6971, 0.57998693, 2.00001, 2.00001, -808.9533, 2.00001, 0.294674, -1.2754978, 0.097445644, -0.6438309, 2.00001, 2.00001, 0.02394764, 0.017581668, 0.75493366, -0.8945642, 2.00001, 0.9195561, 2.00001, -443.6585, -311.85513, -80.02043, -211.17142, -511.16714, -296.06668, -133.94527, -524.30194, -318.45792, -565.0864, -594.3186, -265.39075, -593.2529, -192.28734, -581.3947, -43.219128, -561.15735, -149.16803, -754.0915, -303.75372, -239.63799, -676.70966, -417.6621, -68.20638, -595.43866, -245.00554, -769.20184, 615.8029, -310.45306, 88.88128, -232.36172, 179.48581, -439.89062, 283.48923, 326.3809, 586.33905, -379.00958, 606.3434, -783.0395, -78.95947, 974.47723, 574.29254, 349.48544, 1399.6914, 675.77686, 370.84073, 470.25583, 664.8571, 621.2192, 1002.54346, -24.314259, 1380.586, -1052.9542, 458.1403, 452.2109, 0.47640538, 859.3974, 1537.4482, 942.8673, 304.74884], "split_indices": [4, 4, 51, 48, 4, 4, 70, 96, 4, 93, 93, 80, 94, 4, 3, 4, 1, 42, 8, 6, 42, 4, 66, 1, 76, 0, 4, 4, 4, 96, 57, 4, 6, 4, 68, 1, 94, 76, 95, 1, 1, 1, 94, 5, 0, 3, 76, 46, 0, 29, 4, 0, 2, 1, 6, 38, 0, 1, 3, 3, 58, 4, 96, 0, 0, 0, 0, 0, 0, 0, 0, 0, 0, 0, 0, 0, 0, 0, 0, 0, 0, 0, 0, 0, 0, 0, 0, 0, 0, 0, 0, 0, 0, 0, 0, 0, 0, 0, 0, 0, 0, 0, 0, 0, 0, 0, 0, 0, 0, 0, 0, 0, 0, 0, 0, 0, 0, 0, 0, 0, 0, 0, 0], "split_type": [0, 0, 0, 0, 0, 0, 0, 0, 0, 0, 0, 0, 0, 0, 0, 0, 0, 0, 0, 0, 0, 0, 0, 0, 0, 0, 0, 0, 0, 0, 0, 0, 0, 0, 0, 0, 0, 0, 0, 0, 0, 0, 0, 0, 0, 0, 0, 0, 0, 0, 0, 0, 0, 0, 0, 0, 0, 0, 0, 0, 0, 0, 0, 0, 0, 0, 0, 0, 0, 0, 0, 0, 0, 0, 0, 0, 0, 0, 0, 0, 0, 0, 0, 0, 0, 0, 0, 0, 0, 0, 0, 0, 0, 0, 0, 0, 0, 0, 0, 0, 0, 0, 0, 0, 0, 0, 0, 0, 0, 0, 0, 0, 0, 0, 0, 0, 0, 0, 0, 0, 0, 0, 0], "sum_hessian": [17619.0, 13204.0, 4415.0, 5506.0, 7698.0, 1300.0, 3115.0, 2009.0, 3497.0, 3984.0, 3714.0, 724.0, 576.0, 457.0, 2658.0, 318.0, 1691.0, 1692.0, 1805.0, 43.0, 3941.0, 45.0, 3669.0, 11.0, 713.0, 8.0, 568.0, 346.0, 111.0, 2154.0, 504.0, 119.0, 199.0, 683.0, 1008.0, 145.0, 1547.0, 1309.0, 496.0, 12.0, 31.0, 64.0, 3877.0, 36.0, 9.0, 43.0, 3626.0, 6.0, 5.0, 25.0, 688.0, 2.0, 6.0, 415.0, 153.0, 170.0, 176.0, 69.0, 42.0, 478.0, 1676.0, 75.0, 429.0, 48.0, 71.0, 78.0, 121.0, 157.0, 526.0, 50.0, 958.0, 51.0, 94.0, 38.0, 1509.0, 31.0, 1278.0, 4.0, 492.0, 7.0, 5.0, 29.0, 2.0, 19.0, 45.0, 120.0, 3757.0, 32.0, 4.0, 40.0, 3.0, 132.0, 3494.0, 4.0, 2.0, 15.0, 10.0, 248.0, 440.0, 1.0, 1.0, 5.0, 1.0, 324.0, 91.0, 14.0, 139.0, 17.0, 153.0, 61.0, 115.0, 16.0, 53.0, 1.0, 41.0, 11.0, 467.0, 232.0, 1444.0, 44.0, 31.0, 69.0, 360.0], "tree_param": {"num_deleted": "0", "num_feature": "98", "num_nodes": "123", "size_leaf_vector": "1"}}, {"base_weights": [-0.44429648, -1257.336, 3462.973, -2847.2817, -375.02878, 6110.2534, 2407.2883, -3793.4558, -2222.2798, -1039.4883, 370.02072, 4196.873, 9089.579, 1790.3479, 5394.2886, -5063.508, -3436.7908, -5589.654, -2125.6033, -4376.6562, -938.3791, -3249.0, 503.8898, 2694.2104, 5047.053, 8222.253, 12338.198, 1165.1725, 4587.806, 3733.508, 8434.273, -5419.649, -3829.584, -6091.7207, -3200.875, 88.35205, -5686.452, -4641.763, -2004.9631, 835.59515, -4967.991, -4913.983, -848.64374, -4248.382, -1845.6842, -5831.883, 585.17847, -6814.13, 2880.3606, -3513.772, 5273.492, -161.31012, 8537.04, 11176.71, 30220.709, 4356.573, 614.0477, -6990.0425, 5027.3804, -9848.283, 3982.3882, -2868.3896, 9623.448, -631.1351, -506.81845, -328.5804, -591.2789, -618.23065, 216.28203, -627.4864, -297.62112, -392.49396, -620.4765, -537.9865, -100.866684, -286.7723, -166.41759, -230.92268, 348.2865, -239.85745, -538.4976, 319.01596, -521.6209, -854.5016, -80.0221, -574.031, -343.87375, -197.00175, 274.49933, -610.5912, -225.40508, -321.85068, 71.99586, -185.8501, -743.3555, -225.99187, 308.96237, 883.3296, -630.77246, -930.50824, 540.7924, -409.91162, 708.48865, -420.26407, 874.1712, 227.6136, 1210.9286, 1350.4266, 3520.2864, 343.94855, 681.4873, 332.44513, -15.206891, -749.1288, 101.618164, -777.3088, 531.0251, -400.8372, -1138.2574, -227.9293, 440.7673, 776.9614, -601.3491, 500.88022, 1194.6583], "categories": [], "categories_nodes": [], "categories_segments": [], "categories_sizes": [], "default_left": [0, 0, 0, 0, 0, 0, 0, 0, 0, 0, 0, 0, 0, 0, 1, 0, 0, 0, 0, 0, 0, 0, 0, 0, 0, 0, 0, 0, 0, 0, 0, 0, 0, 1, 0, 0, 0, 0, 0, 0, 0, 0, 0, 0, 0, 0, 0, 0, 0, 0, 0, 0, 0, 0, 0, 0, 0, 0, 0, 0, 0, 0, 0, 0, 0, 0, 0, 0, 0, 0, 0, 0, 0, 0, 0, 0, 0, 0, 0, 0, 0, 0, 0, 0, 0, 0, 0, 0, 0, 0, 0, 0, 0, 0, 0, 0, 0, 0, 0, 0, 0, 0, 0, 0, 0, 0, 0, 0, 0, 0, 0, 0, 0, 0, 0, 0, 0, 0, 0, 0, 0, 0, 0, 0, 0], "id": 11, "left_children": [1, 3, 5, 7, 9, 11, 13, 15, 17, 19, 21, 23, 25, 27, 29, 31, 33, 35, 37, 39, 41, 43, 45, 47, 49, 51, 53, 55, 57, 59, 61, 63, 65, 67, 69, -1, 71, 73, 75, 77, 79, 81, 83, 85, 87, 89, 91, 93, 95, 97, 99, 101, 103, 105, 107, 109, 111, 113, 115, 117, 119, 121, 123, -1, -1, -1, -1, -1, -1, -1, -1, -1, -1, -1, -1, -1, -1, -1, -1, -1, -1, -1, -1, -1, -1, -1, -1, -1, -1, -1, -1, -1, -1, -1, -1, -1, -1, -1, -1, -1, -1, -1, -1, -1, -1, -1, -1, -1, -1, -1, -1, -1, -1, -1, -1, -1, -1, -1, -1, -1, -1, -1, -1, -1, -1], "loss_changes": [76706690000.0, 18135998000.0, 13097988000.0, 2720108500.0, 4117264000.0, 7583531000.0, 6174785500.0, 813369340.0, 893462500.0, 1479184400.0, 1901263600.0, 1028870140.0, 1369346000.0, 4861849600.0, 2866492400.0, 155025400.0, 879298560.0, 53271810.0, 811794400.0, 401753340.0, 1518448600.0, 188501500.0, 1951243000.0, 545311000.0, 1026551800.0, 1096579100.0, 1905426400.0, 4000489700.0, 2620518400.0, 1300048900.0, 2742654000.0, 64540670.0, 85922560.0, 100109310.0, 892935200.0, 0.0, 45035520.0, 324409600.0, 754675700.0, 124595420.0, 111367170.0, 246873090.0, 1549098200.0, 78103040.0, 39654144.0, 33297536.0, 1917106200.0, 4602592.0, 321078800.0, 538677600.0, 1043953660.0, 485587680.0, 1079720000.0, 827384800.0, 24314368.0, 731810300.0, 4033039600.0, 83860990.0, 1815504900.0, 17095296.0, 987366900.0, 715874560.0, 1902001200.0, 0.0, 0.0, 0.0, 0.0, 0.0, 0.0, 0.0, 0.0, 0.0, 0.0, 0.0, 0.0, 0.0, 0.0, 0.0, 0.0, 0.0, 0.0, 0.0, 0.0, 0.0, 0.0, 0.0, 0.0, 0.0, 0.0, 0.0, 0.0, 0.0, 0.0, 0.0, 0.0, 0.0, 0.0, 0.0, 0.0, 0.0, 0.0, 0.0, 0.0, 0.0, 0.0, 0.0, 0.0, 0.0, 0.0, 0.0, 0.0, 0.0, 0.0, 0.0, 0.0, 0.0, 0.0, 0.0, 0.0, 0.0, 0.0, 0.0, 0.0, 0.0, 0.0], "parents": [2147483647, 0, 0, 1, 1, 2, 2, 3, 3, 4, 4, 5, 5, 6, 6, 7, 7, 8, 8, 9, 9, 10, 10, 11, 11, 12, 12, 13, 13, 14, 14, 15, 15, 16, 16, 17, 17, 18, 18, 19, 19, 20, 20, 21, 21, 22, 22, 23, 23, 24, 24, 25, 25, 26, 26, 27, 27, 28, 28, 29, 29, 30, 30, 31, 31, 32, 32, 33, 33, 34, 34, 36, 36, 37, 37, 38, 38, 39, 39, 40, 40, 41, 41, 42, 42, 43, 43, 44, 44, 45, 45, 46, 46, 47, 47, 48, 48, 49, 49, 50, 50, 51, 51, 52, 52, 53, 53, 54, 54, 55, 55, 56, 56, 57, 57, 58, 58, 59, 59, 60, 60, 61, 61, 62, 62], "right_children": [2, 4, 6, 8, 10, 12, 14, 16, 18, 20, 22, 24, 26, 28, 30, 32, 34, 36, 38, 40, 42, 44, 46, 48, 50, 52, 54, 56, 58, 60, 62, 64, 66, 68, 70, -1, 72, 74, 76, 78, 80, 82, 84, 86, 88, 90, 92, 94, 96, 98, 100, 102, 104, 106, 108, 110, 112, 114, 116, 118, 120, 122, 124, -1, -1, -1, -1, -1, -1, -1, -1, -1, -1, -1, -1, -1, -1, -1, -1, -1, -1, -1, -1, -1, -1, -1, -1, -1, -1, -1, -1, -1, -1, -1, -1, -1, -1, -1, -1, -1, -1, -1, -1, -1, -1, -1, -1, -1, -1, -1, -1, -1, -1, -1, -1, -1, -1, -1, -1, -1, -1, -1, -1, -1, -1], "split_conditions": [0.07026278, -0.36965096, 2.00001, 2.00001, -0.19125126, 0.72680837, 2.00001, 2.00001, 2.00001, 2.00001, 2.00001, 0.294674, 1.3350998, 1.6046749, 0.50515753, 2.00001, 2.00001, 2.00001, 2.00001, 2.00001, 2.00001, -0.5508687, 2.00001, 2.00001, 2.00001, 2.00001, 1.9033141, 2.00001, 2.00001, 2.00001, 2.00001, -0.5740239, 1.0925326, 1.3668633, 2.00001, 88.35205, 2.00001, 2.00001, -0.50488114, 0.6795237, 2.00001, -0.5517852, 2.00001, -0.11221485, 1.1798043, 0.45684516, 2.00001, -1.2637911, 2.00001, -0.017560929, 2.00001, 2.0295455, 2.00001, 2.00001, -0.023974456, 0.43800357, 2.00001, 1.2326653, 2.00001, 0.13102384, 2.00001, 2.00001, 0.57998693, -631.1351, -506.81845, -328.5804, -591.2789, -618.23065, 216.28203, -627.4864, -297.62112, -392.49396, -620.4765, -537.9865, -100.866684, -286.7723, -166.41759, -230.92268, 348.2865, -239.85745, -538.4976, 319.01596, -521.6209, -854.5016, -80.0221, -574.031, -343.87375, -197.00175, 274.49933, -610.5912, -225.40508, -321.85068, 71.99586, -185.8501, -743.3555, -225.99187, 308.96237, 883.3296, -630.77246, -930.50824, 540.7924, -409.91162, 708.48865, -420.26407, 874.1712, 227.6136, 1210.9286, 1350.4266, 3520.2864, 343.94855, 681.4873, 332.44513, -15.206891, -749.1288, 101.618164, -777.3088, 531.0251, -400.8372, -1138.2574, -227.9293, 440.7673, 776.9614, -601.3491, 500.88022, 1194.6583], "split_indices": [4, 4, 51, 48, 4, 4, 21, 66, 67, 66, 94, 4, 0, 3, 4, 21, 67, 22, 66, 6, 77, 5, 93, 94, 81, 76, 4, 70, 94, 66, 77, 4, 5, 1, 76, 0, 25, 21, 4, 0, 19, 5, 86, 4, 3, 5, 77, 0, 77, 2, 85, 3, 94, 77, 5, 4, 96, 4, 80, 4, 76, 25, 3, 0, 0, 0, 0, 0, 0, 0, 0, 0, 0, 0, 0, 0, 0, 0, 0, 0, 0, 0, 0, 0, 0, 0, 0, 0, 0, 0, 0, 0, 0, 0, 0, 0, 0, 0, 0, 0, 0, 0, 0, 0, 0, 0, 0, 0, 0, 0, 0, 0, 0, 0, 0, 0, 0, 0, 0, 0, 0, 0, 0, 0, 0], "split_type": [0, 0, 0, 0, 0, 0, 0, 0, 0, 0, 0, 0, 0, 0, 0, 0, 0, 0, 0, 0, 0, 0, 0, 0, 0, 0, 0, 0, 0, 0, 0, 0, 0, 0, 0, 0, 0, 0, 0, 0, 0, 0, 0, 0, 0, 0, 0, 0, 0, 0, 0, 0, 0, 0, 0, 0, 0, 0, 0, 0, 0, 0, 0, 0, 0, 0, 0, 0, 0, 0, 0, 0, 0, 0, 0, 0, 0, 0, 0, 0, 0, 0, 0, 0, 0, 0, 0, 0, 0, 0, 0, 0, 0, 0, 0, 0, 0, 0, 0, 0, 0, 0, 0, 0, 0, 0, 0, 0, 0, 0, 0, 0, 0, 0, 0, 0, 0, 0, 0, 0, 0, 0, 0, 0, 0], "sum_hessian": [17619.0, 12928.0, 4691.0, 4613.0, 8315.0, 1336.0, 3355.0, 1833.0, 2780.0, 4395.0, 3920.0, 815.0, 521.0, 2782.0, 573.0, 399.0, 1434.0, 76.0, 2704.0, 128.0, 4267.0, 139.0, 3781.0, 296.0, 519.0, 414.0, 107.0, 2275.0, 507.0, 372.0, 201.0, 307.0, 92.0, 115.0, 1319.0, 1.0, 75.0, 122.0, 2582.0, 13.0, 115.0, 93.0, 4174.0, 80.0, 59.0, 47.0, 3734.0, 5.0, 291.0, 13.0, 506.0, 15.0, 399.0, 102.0, 5.0, 334.0, 1941.0, 18.0, 489.0, 6.0, 366.0, 19.0, 182.0, 82.0, 225.0, 75.0, 17.0, 114.0, 1.0, 88.0, 1231.0, 19.0, 56.0, 101.0, 21.0, 729.0, 1853.0, 6.0, 7.0, 17.0, 98.0, 3.0, 90.0, 25.0, 4149.0, 26.0, 54.0, 58.0, 1.0, 43.0, 4.0, 127.0, 3607.0, 1.0, 4.0, 11.0, 280.0, 2.0, 11.0, 4.0, 502.0, 10.0, 5.0, 6.0, 393.0, 10.0, 92.0, 2.0, 3.0, 245.0, 89.0, 427.0, 1514.0, 17.0, 1.0, 10.0, 479.0, 2.0, 4.0, 23.0, 343.0, 4.0, 15.0, 62.0, 120.0], "tree_param": {"num_deleted": "0", "num_feature": "98", "num_nodes": "125", "size_leaf_vector": "1"}}, {"base_weights": [-0.5166119, -987.364, 3592.367, -2033.6718, 253.83484, 5865.8467, 2549.8127, -2864.9612, -1301.4607, -3312.251, 379.88177, 4455.174, 9028.683, 1923.8247, 5600.518, -4134.4526, -2530.9355, -4025.9365, -1170.9392, -4091.3396, -2197.1143, -3072.3335, 519.12836, 3313.6257, 5671.3867, 8214.64, 12425.354, 2499.7622, -2006.5647, -3410.1248, 6193.541, -1115.2152, -4262.2554, -4744.671, -2320.1445, -4769.552, -2267.631, -5225.248, -1084.7797, -1753.1561, -4277.794, 754.89136, -2452.1016, -3207.6694, 3848.791, -5577.3667, 601.0827, 5497.714, 2709.3364, 9305.09, 5112.1226, 2988.1343, 8041.6597, 6881.679, 16043.432, 7054.909, 1940.3923, -2710.2048, 2490.2834, 6274.4106, -5788.2593, 4111.196, 8982.068, -41.86879, -277.13168, -202.46385, -445.74643, -124.76908, -482.86465, -573.76654, -222.25105, -514.58215, -338.14206, -531.71454, -13.802948, 295.0898, -558.6818, -417.13272, -97.840034, -190.6425, -11.0234375, -181.28435, -441.9462, -214.8317, 292.64798, -198.36143, -572.0545, -40.85986, -348.30087, 70.493095, 570.9721, -495.43164, -768.2042, -308.95834, 73.695755, 561.99854, -0.30078125, 70.46069, 329.80707, 955.9462, -183.39395, -687.313, 527.1466, 838.0792, -529.9488, -444.24545, 942.5976, 1167.6206, 1928.4388, 546.4719, 1013.3045, 499.76294, 121.84295, 1219.6388, -288.6716, 4455.747, 14.907651, 95.31182, 714.80457, -1002.24133, -465.2015, -388.33066, 473.80557, 746.7005, 1832.9471], "categories": [], "categories_nodes": [], "categories_segments": [], "categories_sizes": [], 